<?xml version="1.0"?>
<opencv_storage>
<my_svm type_id="opencv-ml-svm">
  <svm_type>C_SVC</svm_type>
  <kernel><type>RBF</type>
    <gamma>3.3750000000000002e-02</gamma></kernel>
  <C>2.5000000000000000e+00</C>
  <term_criteria><epsilon>1.1920928955078125e-07</epsilon>
    <iterations>1000</iterations></term_criteria>
  <var_all>58</var_all>
  <var_count>58</var_count>
  <class_count>2</class_count>
  <class_labels type_id="opencv-matrix">
    <rows>1</rows>
    <cols>2</cols>
    <dt>i</dt>
    <data>
      -1 1</data></class_labels>
  <sv_total>526</sv_total>
  <support_vectors>
    <_>
      -1.08860038e-01 -4.84134480e-02 7.39197880e-02 1.57712448e+00
      8.04845452e-01 -5.02461016e-01 -1.29069686e+00 -2.36092016e-01
      3.23434204e-01 1.48636603e+00 9.66265082e-01 1.63819715e-01
      4.35621977e-01 7.04933882e-01 -4.97461259e-01 3.74828756e-01
      -3.66477102e-01 -5.09126723e-01 -2.86260396e-01 -4.24483061e-01
      -1.41344893e+00 -2.56369621e-01 2.37352043e-01 -7.42714822e-01
      2.83442259e-01 -1.09895813e+00 -1.56702113e+00 4.54943389e-01
      -2.16329873e-01 -9.29568931e-02 -3.59501123e-01 -2.06480548e-01
      2.15363711e-01 -3.35822254e-01 -1.35506022e+00 2.85370797e-01
      4.23185229e-01 7.33943760e-01 4.06771690e-01 -1.26322895e-01
      -1.49976015e-01 4.61226314e-01 4.48191375e-01 -3.10994554e-02
      4.28669244e-01 -7.39328623e-01 1.24508500e-01 -3.76985699e-01
      -1.32364905e+00 1.36731118e-01 -2.73118407e-01 -3.83303672e-01
      4.05068427e-01 6.45370543e-01 -3.91501427e-01 5.69520533e-01
      7.42557198e-02 -1.48353174e-01</_>
    <_>
      -4.30535227e-01 2.16234714e-01 -5.78093886e-01 -1.16326146e-01
      -4.17530000e-01 2.62614667e-01 -1.76193446e-01 7.03010559e-02
      -3.66565073e-03 -6.82661951e-01 -5.73110461e-01 -4.71255034e-01
      -2.48757407e-01 -1.84317172e-01 1.50670201e-01 -1.88219361e-02
      -4.22075152e-01 -7.49641776e-01 -3.29184145e-01 -1.08239673e-01
      8.45040798e-01 3.80278051e-01 -4.66003418e-01 1.61743611e-01
      1.64871061e+00 1.35460961e+00 2.27434707e+00 9.83447194e-01
      -1.25774041e-01 2.18619883e-01 1.83342695e+00 5.66064894e-01
      4.49381679e-01 1.02452958e+00 5.05581141e-01 3.01901221e-01
      1.04579711e+00 2.40602747e-01 -8.37604105e-01 1.02088839e-01
      -6.46287262e-01 -1.59501052e+00 4.24501926e-01 1.23893666e+00
      7.24222660e-02 8.63571882e-01 2.73088932e-01 -7.91724622e-01
      -1.32364905e+00 7.80373454e-01 7.67865241e-01 1.06169987e+00
      -5.15305579e-01 -1.75340399e-01 -1.22079813e+00 -5.15376091e-01
      -1.72519520e-01 2.74921089e-01</_>
    <_>
      -4.54317153e-01 -7.28585497e-02 5.17605841e-01 1.29506814e+00
      7.23116159e-01 7.65666544e-01 3.10724735e-01 8.65263283e-01
      -3.48238274e-02 1.82553601e+00 2.01546196e-02 -4.04459447e-01
      -3.29864472e-01 -2.55158281e+00 -8.08257639e-01 1.31904268e+00
      2.02938244e-01 5.16445041e-02 -2.03247261e+00 -1.32657993e+00
      -1.41344893e+00 1.88652739e-01 3.61624509e-02 1.15902269e+00
      1.28398001e-01 -2.07900453e+00 -5.01196742e-01 -7.41227746e-01
      -1.57139456e+00 -2.01328829e-01 -1.21105587e+00 -1.51791859e+00
      -1.70978892e+00 -3.24851632e+00 -1.35506022e+00 3.51521909e-01
      -3.75638992e-01 -7.37556577e-01 -8.23834479e-01 -8.26765358e-01
      -1.69253945e+00 -2.84386849e+00 2.69433737e-01 1.59897730e-01
      4.90134597e-01 8.31204772e-01 -1.00272787e+00 -6.88283443e-01
      -1.32364905e+00 6.36670470e-01 3.31399620e-01 6.54069558e-02
      -9.91838336e-01 -1.03191590e+00 -6.14895761e-01 -1.10130727e+00
      8.49166334e-01 -1.03075731e+00</_>
    <_>
      -4.98676687e-01 -4.88583207e-01 -1.51129043e+00 -1.39214408e+00
      -1.76689124e+00 -2.54834771e+00 -1.29069686e+00 1.52332532e+00
      1.79434463e-01 -1.32031488e+00 -1.73263037e+00 -2.10834002e+00
      -2.60412097e+00 -1.66451514e+00 -3.90038371e-01 -4.11110669e-01
      -1.33870590e+00 -4.43097770e-01 -6.52065039e-01 -1.70161593e+00
      -1.41344893e+00 1.60799503e+00 -7.80529499e-01 1.21904290e+00
      -5.16645133e-01 -2.99864125e+00 -2.16962266e+00 9.00467038e-01
      -4.69636589e-01 -1.34217095e+00 -2.30786490e+00 -2.11984181e+00
      -3.12924457e+00 -2.23476219e+00 -1.35506022e+00 3.55607778e-01
      -1.07432592e+00 -2.06618929e+00 -1.85779047e+00 -3.49148870e+00
      -1.34521806e+00 -2.84386849e+00 -1.03687406e+00 -6.23595238e-01
      -2.25688028e+00 -1.07198000e+00 -1.07768536e+00 -2.68555546e+00
      -1.32364905e+00 4.21465963e-01 -1.09742475e+00 -1.75640866e-01
      -1.15662897e+00 -1.95263398e+00 -1.72403038e+00 8.38706374e-01
      2.73005939e+00 -1.26345921e+00</_>
    <_>
      -3.46561372e-01 2.84650892e-01 9.85013127e-01 1.72340226e+00
      3.63954276e-01 5.90136290e-01 7.20115960e-01 2.44184434e-01
      9.10392582e-01 1.25289476e+00 1.00760317e+00 -2.80775577e-01
      2.38035228e-02 -1.17536642e-01 1.15399694e+00 5.66793442e-01
      1.02997041e+00 -2.16993287e-01 -1.65635392e-01 9.44525003e-01
      -2.55050540e-01 2.64126778e-01 1.12797129e+00 -3.51973623e-01
      -3.50491136e-01 1.77003369e-01 3.05459827e-01 -4.47792798e-01
      2.16836378e-01 8.87691438e-01 -3.69336307e-01 1.56447105e-02
      -3.05998057e-01 -9.71828520e-01 -8.42019171e-02 3.10396671e-01
      9.65204835e-01 7.29086280e-01 2.26934880e-01 -1.00500703e+00
      -4.33483094e-01 4.00033057e-01 -4.23431955e-02 -1.41338035e-02
      -2.87982792e-01 -1.21348178e+00 -1.45505548e+00 5.56333780e-01
      -1.05571076e-01 -5.76389357e-02 -5.44393241e-01 -5.80891132e-01
      6.77678406e-01 -2.30833098e-01 8.06677938e-01 4.43604626e-02
      -3.72149199e-01 7.90725946e-01</_>
    <_>
      4.37518984e-01 9.21646208e-02 -2.96923280e-01 5.17318368e-01
      8.05717707e-01 -5.73471844e-01 7.62419045e-01 2.12367535e+00
      2.57422709e+00 3.44505525e+00 9.68176603e-01 7.58495569e-01
      3.64423096e-01 7.66446173e-01 8.04727972e-01 3.64882755e+00
      1.19507790e+00 8.93940389e-01 -8.03217351e-01 5.33081830e-01
      -1.41344893e+00 3.13952446e+00 2.93135881e+00 -1.88615248e-01
      -1.56962991e+00 -8.29578996e-01 -8.79222155e-01 -1.06046605e+00
      8.20213735e-01 6.99000835e-01 -7.42315829e-01 8.32782805e-01
      -1.61554134e+00 -3.24851632e+00 -2.00832725e-01 3.36406112e-01
      -4.79617447e-01 -6.15092874e-01 -1.39260995e+00 -1.73216057e+00
      -4.60882366e-01 -4.52109486e-01 -7.51342773e-01 -6.73457742e-01
      -1.61317730e+00 -1.48874402e+00 -2.26170397e+00 -3.65382731e-01
      8.34249973e-01 1.02528132e-01 -9.49122846e-01 -1.53629935e+00
      -2.08498025e+00 -3.38930160e-01 -5.53580284e-01 -9.46780801e-01
      3.37405384e-01 2.20667049e-01</_>
    <_>
      -7.55000889e-01 -5.87823510e-01 -2.27422237e+00 -1.84641171e+00
      -2.23538065e+00 -2.54834771e+00 -1.29069686e+00 2.45928928e-01
      -2.13929963e+00 -1.96629608e+00 -1.68274415e+00 -2.61339021e+00
      -2.60412097e+00 -2.55158281e+00 -1.91935074e+00 -2.10191011e+00
      -2.48762035e+00 -2.93328333e+00 -2.97348499e+00 -2.02082181e+00
      -1.41344893e+00 -7.01331615e-01 -2.69012308e+00 -2.78963041e+00
      -3.11241937e+00 -3.28943777e+00 -3.20030665e+00 -8.89481127e-01
      -2.08280396e+00 -2.55430698e+00 -2.71530008e+00 -2.06093788e+00
      -2.40661812e+00 -1.54264212e+00 -1.35506022e+00 -4.88737285e-01
      -1.88698471e+00 -1.64526379e+00 -2.39419281e-01 -1.20825756e+00
      -1.04815984e+00 -2.09059930e+00 -1.39359367e+00 3.71352285e-01
      5.53938925e-01 -4.57365960e-01 -1.06606877e+00 -2.68555546e+00
      -1.32364905e+00 1.36982918e+00 2.49603823e-01 9.00550961e-01
      -1.98142409e+00 -2.30155420e+00 -2.61825681e+00 -1.11980796e+00
      2.98353195e+00 -2.08954191e+00</_>
    <_>
      6.97060376e-02 1.30569845e-01 -2.70553119e-02 -3.43114316e-01
      -2.16688048e-02 1.01657224e+00 2.24129462e+00 1.01321161e-01
      5.95528781e-01 -4.26673442e-01 3.54564965e-01 1.00912654e+00
      7.25244462e-01 1.00124383e+00 1.17670023e+00 1.42423650e-02
      1.17007565e+00 9.57805037e-01 8.01840484e-01 1.65297031e+00
      3.03610206e+00 7.68361092e-01 3.13023239e-01 -5.89021444e-01
      -4.44901735e-01 4.49653476e-01 2.38076973e+00 2.14676186e-01
      -1.45293742e-01 5.88593304e-01 -2.73832202e-01 -5.82209706e-01
      5.17021775e-01 1.78205132e+00 2.51511335e+00 -1.41593767e-02
      5.81140578e-01 -7.80628920e-01 5.62276125e-01 8.33612621e-01
      1.26996946e+00 2.28617452e-02 5.07346213e-01 1.13457724e-01
      1.18001044e+00 -1.81878805e-01 1.05968809e+00 1.02132404e+00
      1.44562435e+00 4.86032814e-01 -2.48230368e-01 -5.88335991e-01
      1.80794016e-01 5.16088307e-01 8.11528683e-01 3.55111897e-01
      -4.87994030e-02 1.64106929e+00</_>
    <_>
      -1.15706992e+00 -7.23353148e-01 -1.87114909e-01 -4.55594659e-01
      -3.38024884e-01 1.21574342e-01 7.68976271e-01 -2.29439944e-01
      -6.13083363e-01 5.50273895e-01 2.07497573e+00 3.29109401e-01
      -3.58998984e-01 1.09417820e+00 -1.43280435e+00 -7.22437799e-01
      1.13517809e+00 4.50065702e-01 9.60196495e-01 5.53824484e-01
      -1.47497520e-01 -7.00947642e-01 4.79080975e-01 3.48106682e-01
      4.21733171e-01 4.62434500e-01 -3.51369143e-01 -6.76226914e-01
      -8.16822767e-01 5.72245479e-01 7.28313327e-01 1.78500824e-02
      -1.33055165e-01 -6.89287007e-01 -2.16367021e-01 -4.79176491e-01
      -2.97248036e-01 1.52771950e+00 6.86497152e-01 -6.36376798e-01
      -2.71599352e-01 3.60340625e-01 -1.98169619e-01 -8.24849784e-01
      -8.87529910e-01 -1.43986666e+00 -1.30777574e+00 3.84929359e-01
      1.03829026e+00 -8.11904609e-01 -9.16924298e-01 -1.07485545e+00
      -8.33962619e-01 1.05728760e-01 -6.24173284e-01 -4.24742520e-01
      4.43922609e-01 -6.42165065e-01</_>
    <_>
      -7.59270489e-02 -5.72759509e-01 -3.47224809e-02 -2.49693230e-01
      -1.81675761e-03 -7.37109423e-01 7.49170184e-01 -9.70332623e-01
      -1.22924173e+00 3.69529963e-01 3.35229635e-01 7.86019504e-01
      2.04006627e-01 1.41614008e+00 -3.35980475e-01 6.28790021e-01
      7.42475152e-01 5.89677036e-01 9.92336810e-01 4.18746531e-01
      1.24737942e+00 -1.37340635e-01 9.60644960e-01 6.91936731e-01
      1.32703078e+00 -1.92787245e-01 9.04012471e-02 9.19343174e-01
      1.18579209e+00 -4.37537193e-01 6.53592527e-01 1.63573623e-01
      -5.77570498e-01 4.27033663e-01 1.28370118e+00 -6.74499750e-01
      -5.27357757e-01 5.05376339e-01 2.45406166e-01 -7.80710757e-01
      2.30921358e-01 2.03574562e+00 2.49316975e-01 -4.26263928e-01
      -2.79724002e-01 -1.89079180e-01 -1.48255122e-03 3.29593301e-01
      1.37899029e+00 -4.43789959e-01 -6.42279983e-01 -4.26528811e-01
      6.65846586e-01 -6.88338280e-01 -4.36779797e-01 1.71697819e+00
      -6.93775043e-02 6.58671379e-01</_>
    <_>
      -2.33833241e+00 -1.41196132e+00 -1.98657238e+00 -9.96481001e-01
      -9.32941258e-01 -1.19565105e+00 -1.29069686e+00 -5.34764946e-01
      -1.69931567e+00 1.47030547e-01 5.02060592e-01 1.60595793e-02
      -3.27364095e-02 -4.17929143e-01 -1.09261084e+00 3.44570965e-01
      9.10468698e-01 -3.73936146e-01 -1.71406218e-03 5.04651845e-01
      -4.44095999e-01 8.31045866e-01 1.42451096e+00 -5.80489159e-01
      -4.76690322e-01 -1.24356169e-02 -7.32370377e-01 -2.33924723e+00
      5.45695722e-01 6.65349483e-01 1.29935038e+00 2.14805388e+00
      1.52505887e+00 -1.07480037e+00 5.75328656e-02 5.89465976e-01
      1.64902425e+00 4.58763075e+00 2.19543147e+00 -1.79100764e+00
      -1.87727165e+00 -4.93632555e-01 -8.28417420e-01 2.53296167e-01
      -8.25329959e-01 -2.06806803e+00 -1.55443275e+00 -8.16770494e-01
      -2.98191011e-01 -3.67494494e-01 -1.09881282e+00 -1.86072540e+00
      -2.19010663e+00 -1.48578107e+00 -1.94326329e+00 -1.77309310e+00
      -3.55434120e-01 -6.74379885e-01</_>
    <_>
      4.01014417e-01 3.92166734e-01 5.82876801e-01 -8.61764789e-01
      -1.02230144e+00 -1.71776041e-01 -2.37726957e-01 6.49145424e-01
      1.41717479e-01 -8.17254111e-02 -6.00268841e-02 -8.43931884e-02
      -5.64900815e-01 -2.21268013e-01 -5.14429927e-01 7.27089942e-01
      9.17054117e-02 -1.00516379e+00 -6.12357378e-01 2.49378353e-01
      4.55396026e-01 4.83520627e-01 2.62667507e-01 -5.77202380e-01
      1.03104138e+00 1.02348793e+00 -3.47353578e-01 -9.54788089e-01
      4.15189117e-02 1.77299917e-01 1.59634364e+00 2.44519860e-01
      -1.12792337e+00 9.39770341e-01 1.88462067e+00 1.90555632e-01
      -4.56407875e-01 -6.07710719e-01 9.34888661e-01 1.35423803e+00
      5.73655963e-02 -1.53773606e+00 -1.82242200e-01 3.79138365e-02
      9.62337911e-01 -4.04379398e-01 6.43254459e-01 -3.06473464e-01
      -1.32364905e+00 3.31453115e-01 1.31068021e-01 1.87655151e-01
      2.30699897e+00 -5.55719018e-01 -1.88242006e+00 -1.30542839e+00
      -2.68644899e-01 8.69470179e-01</_>
    <_>
      -3.21866727e+00 -2.55810237e+00 -2.78552532e+00 -2.07525420e+00
      -2.23538065e+00 -1.62293351e+00 -1.29069686e+00 -1.93162429e+00
      -3.32522583e+00 -2.33490515e+00 -2.02414846e+00 -2.28818130e+00
      -2.60412097e+00 -1.90884125e+00 3.90118420e-01 -3.33850384e+00
      -2.86203599e+00 -1.01857543e+00 -9.05840755e-01 -1.22079384e+00
      -5.96415289e-02 -1.52481222e+00 -3.61214972e+00 2.60069442e+00
      2.53012300e+00 -1.38327909e+00 -1.34405172e+00 2.55698776e+00
      -2.33043885e+00 -1.28750360e+00 -1.52277005e+00 -1.61949813e+00
      -2.21482921e+00 -1.86294365e+00 -1.35506022e+00 -6.71454310e-01
      -1.91088712e+00 -2.87094283e+00 -2.24435997e+00 -3.02804184e+00
      -1.70357764e+00 -2.84386849e+00 -1.71404040e+00 -2.88422728e+00
      -3.25209546e+00 -1.29852343e+00 -4.14776623e-01 -2.68555546e+00
      -1.32364905e+00 -1.33394706e+00 -2.51541805e+00 -3.15632694e-03
      -2.16759756e-01 -2.38555551e+00 -1.73707998e+00 6.78399056e-02
      2.49202323e+00 -1.94545400e+00</_>
    <_>
      -1.88621736e+00 -1.05213523e+00 -2.82213330e-01 -7.29076684e-01
      -8.34717095e-01 3.47668946e-01 8.43483210e-01 -1.50357950e+00
      -8.70509028e-01 -1.27208257e+00 -9.27827120e-01 -8.22808862e-01
      9.71386492e-01 -7.61926472e-01 5.70908368e-01 -9.35323656e-01
      -1.15903890e+00 1.53008282e-01 1.38594902e+00 -3.72185856e-01
      -3.07301521e-01 -6.59558237e-01 -2.83933133e-01 2.84795791e-01
      1.59572172e+00 8.63543570e-01 2.12852192e+00 3.39287066e+00
      -2.57993847e-01 -9.45545971e-01 4.48058307e-01 7.51838923e-01
      4.01251614e-01 1.68827856e+00 1.53793275e+00 -3.44115555e-01
      -1.11961672e-02 -1.02228475e+00 -1.15165067e+00 6.70563757e-01
      1.25159132e+00 -6.92544639e-01 1.16753697e+00 1.47882858e-02
      -3.06451678e-01 7.98466742e-01 1.13304543e+00 5.60147762e-01
      1.52399552e+00 -6.38581932e-01 -3.11121196e-01 -1.15774967e-01
      1.56087649e+00 -3.96475315e-01 5.24519622e-01 2.60385323e+00
      3.76286507e-01 1.01402140e+00</_>
    <_>
      -5.16280591e-01 -6.00821078e-01 3.56246531e-01 1.56713068e-01
      2.38198012e-01 1.12019825e+00 1.85465920e+00 -1.68950453e-01
      5.65106750e-01 4.48271990e-01 -3.27247918e-01 1.74528497e-04
      6.96622357e-02 -5.13551384e-02 1.20877540e+00 5.89051604e-01
      4.30414081e-01 1.90294874e+00 3.95141006e-01 -5.70027530e-01
      -2.35087171e-01 7.58059263e-01 7.37081707e-01 6.52971208e-01
      1.08753562e+00 2.95275003e-01 1.06772971e+00 6.37587965e-01
      -2.13342428e-01 9.48791727e-02 1.24833155e+00 9.22791213e-02
      -5.51763058e-01 8.16106617e-01 1.55696464e+00 4.57783371e-01
      -6.42974898e-02 -6.59718990e-01 -2.75638580e-01 -2.30221197e-01
      -6.85237110e-01 -5.38852870e-01 1.12383986e+00 -3.85720521e-01
      5.46488762e-01 1.28289983e-02 -1.09329200e+00 -7.47909844e-01
      2.46862277e-01 -1.57277748e-01 -5.71079016e-01 -8.75850737e-01
      1.02189255e+00 -2.49522030e-01 1.04339756e-01 1.25597811e+00
      -3.44931394e-01 9.81487811e-01</_>
    <_>
      -1.30330265e+00 -1.10670769e+00 -1.72151792e+00 -1.64207530e+00
      -1.15768170e+00 -5.49925625e-01 5.11028230e-01 -1.87801108e-01
      -1.84073699e+00 -1.46398103e+00 -1.39509737e+00 -1.22681677e+00
      -1.83026111e+00 -1.43483472e+00 -1.54818624e-01 -1.13981867e+00
      -1.44225657e+00 -8.41583908e-01 1.70896912e+00 7.71504760e-01
      -4.63571176e-02 5.70454597e-01 9.32383657e-01 3.32158637e+00
      2.92619371e+00 2.06197977e+00 -7.99730599e-01 1.11177480e+00
      7.97306418e-01 5.92364454e+00 2.64515877e+00 -9.67538297e-01
      -1.84458590e+00 4.83274087e-02 -3.35678577e-01 3.35711884e+00
      3.23516178e+00 -9.24669266e-01 -1.63943005e+00 -1.76983964e+00
      -1.40134704e+00 -2.18887162e+00 6.30431950e-01 -2.17421893e-02
      -1.69196391e+00 -1.65382481e+00 -1.96003664e+00 -2.68555546e+00
      -1.32364905e+00 6.71824142e-02 -6.07060432e-01 -2.64089316e-01
      -8.20481122e-01 -1.69754243e+00 -1.89257002e+00 -1.69046819e-01
      1.80689290e-01 2.25119233e-01</_>
    <_>
      5.42963803e-01 8.59430313e-01 7.16826439e-01 -4.25335407e-01
      3.88343073e-02 1.12397186e-01 -1.29069686e+00 1.73210788e+00
      1.55222750e+00 1.34627014e-01 -4.45826143e-01 -2.12319627e-01
      -9.12041783e-01 1.19255990e-01 8.49859536e-01 7.23290801e-01
      -6.00535795e-02 1.85890179e-02 -2.62944072e-01 4.37812418e-01
      -5.96415289e-02 7.02807188e-01 -3.14273000e-01 -3.31846237e-01
      6.95010185e-01 -6.47387087e-01 -3.70480195e-02 2.22531363e-01
      3.32505971e-01 -2.69111276e-01 1.08409926e-01 -6.13059282e-01
      3.92131619e-02 -2.16532677e-01 -1.35506022e+00 3.88700455e-01
      -2.35776991e-01 -2.48660073e-01 -5.56816220e-01 -1.77863628e-01
      -3.35037291e-01 2.87826151e-01 -4.65026200e-01 5.48672199e-01
      2.51482427e-01 -1.53416067e-01 9.87969995e-01 -7.41156220e-01
      4.87855613e-01 5.03189981e-01 3.23478073e-01 1.53778291e+00
      1.25400555e+00 -1.56326726e-01 -7.29572847e-02 1.44361055e+00
      2.73412466e-01 2.70140678e-01</_>
    <_>
      -2.64524579e+00 -1.97592688e+00 -1.83147240e+00 -1.83311558e+00
      -1.37642026e+00 4.50842828e-01 -8.23084414e-02 -6.58356845e-01
      -2.23929620e+00 -1.87029362e+00 -1.66932964e+00 -1.45597327e+00
      -8.37563753e-01 -2.55158281e+00 -3.30252796e-02 -1.80091870e+00
      -1.84880674e+00 -7.09473252e-01 -1.64355683e+00 -2.92533469e+00
      -1.41344893e+00 -1.65588605e+00 -2.17556691e+00 1.85046911e+00
      2.82798648e-01 -1.67674708e+00 -6.68039992e-02 2.33551621e+00
      -2.40307736e+00 -1.81308317e+00 -2.27943540e+00 -1.99371600e+00
      -2.63647628e+00 -4.09765467e-02 -1.03709824e-01 -7.65208304e-01
      -2.38801503e+00 -2.00990510e+00 -1.86931515e+00 -1.88368714e+00
      -1.97000921e+00 -2.84386849e+00 6.34419143e-01 -1.99137700e+00
      -2.35414934e+00 -1.06568217e+00 -5.04386842e-01 -1.61674309e+00
      -1.32364905e+00 -9.08749461e-01 -1.87816000e+00 1.02131808e+00
      -4.36073244e-01 -1.26773012e+00 -6.24988317e-01 2.05780387e+00
      2.60119247e+00 -1.35336113e+00</_>
    <_>
      7.86250353e-01 1.60880184e+00 1.15315664e+00 1.42536569e+00
      4.60603356e-01 -3.07151079e-01 -1.29069686e+00 3.87434387e+00
      2.77634907e+00 1.51102483e+00 -7.67821744e-02 -5.19013286e-01
      -1.50290096e+00 4.32618350e-01 6.91500068e-01 2.15572977e+00
      -2.46667638e-01 -6.83235288e-01 -1.65618837e+00 -2.92533469e+00
      -1.41344893e+00 2.23881054e+00 -1.04115355e+00 -1.76289642e+00
      -2.04632020e+00 -1.11034703e+00 -2.15075597e-01 -7.39443958e-01
      -7.72761285e-01 -1.27814853e+00 -1.99642742e+00 4.13608372e-01
      -2.13464901e-01 -2.06250095e+00 -1.35506022e+00 1.88994691e-01
      -4.84291404e-01 -4.81619030e-01 -9.53202486e-01 -9.95255649e-01
      -2.05467677e+00 3.12074810e-01 -9.86604571e-01 2.42488459e-02
      -1.17449534e+00 -2.53615389e-03 -3.49047571e-01 2.56122556e-02
      2.28110164e-01 8.53364944e-01 -5.06824732e-01 -1.69831216e-01
      -3.42909336e-01 2.70438552e-01 8.88841376e-02 1.50143892e-01
      9.06614721e-01 -1.11400902e-01</_>
    <_>
      2.47868165e-01 1.96276486e+00 1.92389011e+00 1.61849535e+00
      1.12791979e+00 -1.34204662e+00 -9.73198414e-02 3.78291655e+00
      5.14304638e+00 3.54868126e+00 6.48113549e-01 -4.09165591e-01
      -1.58681273e+00 -8.36601675e-01 4.55536515e-01 2.65369081e+00
      9.05471683e-01 -1.02169096e+00 -2.38924766e+00 -1.25648713e+00
      -1.41344893e+00 2.42519855e+00 4.20510070e-03 -2.34778428e+00
      -2.64168596e+00 -2.46317506e+00 -3.20030665e+00 -1.30318797e+00
      -1.32075191e+00 -1.05111027e+00 -1.95189190e+00 -1.09538460e+00
      -7.43441343e-01 -1.87032449e+00 -8.42019171e-02 1.89950585e-01
      -1.01931047e+00 -1.05779028e+00 -1.09973681e+00 -1.99586928e+00
      -8.21629226e-01 -1.08447421e+00 -1.59950972e+00 -1.06260228e+00
      -1.58931267e+00 -1.62929356e+00 -1.12777877e+00 -8.90334368e-01
      -2.55139947e-01 2.23358244e-01 -4.49051768e-01 -2.43623793e-01
      4.07182157e-01 8.18807483e-01 -2.84666836e-01 -3.89589339e-01
      7.21099079e-01 -4.48347598e-01</_>
    <_>
      -1.46623105e-01 1.30600584e+00 8.80375862e-01 9.10039470e-02
      -4.02978301e-01 1.10190272e+00 -3.50215435e-01 6.71859443e-01
      6.37107313e-01 -7.04377651e-01 8.26930478e-02 3.82899672e-01
      -1.01365876e+00 -7.00255811e-01 8.84014964e-01 3.08323145e-01
      -3.14622253e-01 1.18142033e+00 1.04463720e+00 -9.50917065e-01
      -1.57665789e-01 -2.77541816e-01 -2.42223874e-01 2.36225173e-01
      1.00301838e+00 -4.09942299e-01 7.03252375e-01 4.63876694e-01
      -1.05930090e+00 -1.42690372e+00 -7.35908091e-01 -9.91275787e-01
      5.31673312e-01 3.27452153e-01 5.80757856e-01 -5.96985400e-01
      -1.15160513e+00 -8.93140733e-01 -8.81756023e-02 1.17933679e+00
      -1.30948591e+00 -5.68441987e-01 1.09705180e-01 1.03481986e-01
      6.75458193e-01 6.92679882e-01 1.80592775e+00 1.11802685e+00
      7.90524483e-01 9.83069092e-03 4.27162379e-01 9.47140694e-01
      1.40473807e+00 9.47460711e-01 2.25405648e-01 1.69875383e+00
      -4.18909043e-01 5.23268402e-01</_>
    <_>
      -1.37733972e+00 -9.91963029e-01 -4.64062363e-01 3.94318700e-01
      -2.82272249e-01 -1.06976044e+00 -1.29069686e+00 -8.96628797e-01
      -8.58375192e-01 1.69056877e-01 4.73030210e-02 -2.21473277e-01
      -9.28260863e-01 1.23818681e-01 -2.00867152e+00 -1.44432759e+00
      -3.57460409e-01 -1.31075485e-02 2.00978681e-01 -4.00922745e-01
      8.31526279e-01 -1.70301688e+00 -6.10603690e-01 4.65842664e-01
      1.66780448e+00 6.80930376e-01 -2.64943779e-01 4.30997729e-01
      6.78143725e-02 -4.69518125e-01 1.42289555e+00 1.50600350e+00
      4.02662575e-01 -5.25545478e-01 -1.35506022e+00 -1.26299188e-02
      5.41311409e-03 7.56086349e-01 2.20857158e-01 -6.31750748e-02
      -7.87745595e-01 3.61937261e-03 -3.08034062e-01 -4.73816007e-01
      -5.44579268e-01 2.92537302e-01 -7.52130985e-01 -1.45490682e+00
      -1.32364905e+00 -5.97205997e-01 -1.17018974e+00 2.94503599e-01
      6.59176290e-01 -1.77842855e-01 -1.30862963e+00 -7.77840078e-01
      -3.79426703e-02 -1.00519550e+00</_>
    <_>
      -1.67986381e+00 -1.31627417e+00 -1.92673433e+00 -1.45558190e+00
      -1.55409694e+00 -1.42997968e+00 7.38825947e-02 -5.70494592e-01
      -6.47635341e-01 -7.92553127e-01 -1.00080407e+00 -1.24658203e+00
      -1.13933003e+00 -1.20665669e+00 -5.30731618e-01 8.92054141e-02
      -7.98129141e-01 3.33405554e-01 1.29382956e+00 5.97257376e-01
      -1.48718372e-01 2.09442449e+00 1.39503777e+00 2.58389258e+00
      1.46406507e+00 3.61979663e-01 -6.55795097e-01 7.09437788e-01
      1.75082934e+00 4.80446434e+00 1.60850799e+00 -9.19780970e-01
      -1.66903389e+00 -1.66657639e+00 5.43237291e-02 4.54032755e+00
      2.71057558e+00 -1.02528167e+00 -1.57656169e+00 -1.90349519e+00
      -2.87657952e+00 -2.84386849e+00 9.27747428e-01 -4.66313511e-01
      -1.40138221e+00 -1.79188466e+00 -1.54816580e+00 -1.51696038e+00
      -1.32364905e+00 1.92932501e-01 -4.19602215e-01 -1.85293272e-01
      -1.25399458e+00 -1.77522016e+00 -2.61825681e+00 1.23398967e-01
      7.56589174e-01 4.45149034e-01</_>
    <_>
      -4.82698232e-01 -1.32833934e+00 -7.28329897e-01 -2.88803190e-01
      3.59840900e-01 5.38911164e-01 1.13164462e-01 -7.72393048e-01
      -8.35634589e-01 -3.88372600e-01 4.18244153e-01 1.59703362e+00
      7.62769938e-01 5.31490564e-01 1.14293337e+00 4.23471242e-01
      1.13382661e+00 7.52274156e-01 2.21256518e+00 1.48164058e+00
      8.32764506e-01 4.67486143e-01 1.39650977e+00 1.79696906e+00
      1.61692142e+00 1.44712996e+00 1.65463686e+00 1.88036287e+00
      1.33221972e+00 1.28343630e+00 7.53445148e-01 7.38367438e-01
      -3.08597684e-01 4.48094308e-01 1.06681019e-01 1.80202693e-01
      7.22993553e-01 -3.40578645e-01 -1.68241501e-01 -7.24038184e-01
      -4.25167531e-02 -9.86407027e-02 7.08861053e-01 -6.29360497e-01
      -7.77405024e-01 -1.23922110e+00 -4.64871436e-01 -3.03579628e-01
      4.38180357e-01 -9.24080551e-01 -8.77314031e-01 -9.03144717e-01
      -1.83792442e-01 -4.57911462e-01 3.57697368e-01 1.35032463e+00
      -3.68638217e-01 4.65384662e-01</_>
    <_>
      -1.28385580e+00 -1.10637844e+00 -6.91803321e-02 8.30011904e-01
      -5.61932743e-01 2.31245327e+00 2.47436285e+00 -9.81816769e-01
      -2.67998397e-01 -4.28181142e-01 -4.46511865e-01 1.83614761e-01
      3.21526229e-02 -4.81663942e-01 -7.41543472e-01 6.58817410e-01
      1.89761713e-01 6.53136730e-01 7.34247267e-01 3.09534967e-01
      -1.41344893e+00 1.12904036e+00 1.39697254e-01 5.99021196e-01
      2.09646392e+00 1.09826434e+00 1.21879712e-01 9.77774143e-01
      -8.45953286e-01 -6.17538452e-01 8.04115534e-01 5.72483897e-01
      -1.01830810e-01 -7.58540452e-01 -2.13586912e-01 -3.46070319e-01
      -8.95676792e-01 -3.11002880e-01 -1.44730136e-01 -3.35103869e-02
      -2.14220017e-01 -1.23820519e+00 8.17315698e-01 4.16392326e-01
      1.03877652e+00 4.14797276e-01 -1.07271314e+00 -1.40826368e+00
      -1.32364905e+00 8.61517668e-01 9.07582402e-01 -7.41016045e-02
      1.33336168e-02 -1.21738851e+00 -5.24918616e-01 -5.97698987e-02
      -5.87602675e-01 3.96102637e-01</_>
    <_>
      -1.18708384e+00 -6.89462066e-01 1.63858563e-01 -2.48254567e-01
      1.43105350e-02 1.51225999e-01 1.29824102e+00 -8.22332799e-01
      -9.28225815e-02 -6.72346175e-01 -3.82468402e-01 6.13888800e-01
      -5.58917165e-01 -4.71402705e-01 2.71666479e+00 1.37224361e-01
      9.01514530e-01 4.04351568e+00 2.11517048e+00 5.75029016e-01
      9.11168814e-01 -1.29406130e+00 -5.48793495e-01 4.96065468e-01
      1.13639104e+00 1.03598690e+00 2.90615916e+00 8.61483335e-01
      -1.53139877e+00 5.49605191e-02 2.79470474e-01 -2.47942090e-01
      -4.23362106e-01 5.73126316e-01 1.72173083e-01 -2.30843231e-01
      4.52176869e-01 -1.04364145e+00 -6.21514142e-01 -8.29776227e-02
      -1.07590067e+00 -8.24330986e-01 9.68878329e-01 -3.06137383e-01
      -4.39330399e-01 1.54524076e+00 -5.07008672e-01 -1.24528706e+00
      1.01946008e+00 -1.04463422e+00 -8.14093828e-01 -3.74487311e-01
      2.26224497e-01 -2.90253712e-03 5.41656613e-01 1.91773534e+00
      -7.38510668e-01 -2.58941978e-01</_>
    <_>
      1.00700593e+00 7.90689945e-01 2.92193115e-01 7.47794330e-01
      2.67365634e-01 5.75552322e-02 -1.29069686e+00 1.07312894e+00
      1.26402104e+00 1.93351233e+00 6.36622190e-01 9.22209844e-02
      -6.47057593e-01 2.23543867e-01 1.02157108e-01 8.47015917e-01
      4.57572460e-01 1.40830076e+00 -7.03182042e-01 -5.31318069e-01
      -4.61875424e-02 1.40965664e+00 4.44804966e-01 -4.91731167e-01
      -1.38823211e+00 4.21331897e-02 4.63237427e-02 -9.17089760e-01
      3.39148462e-01 -4.55540508e-01 -8.16819370e-01 3.73104483e-01
      -4.14898902e-01 -1.81931388e+00 -1.35506022e+00 8.34462047e-01
      8.10424209e-01 1.39292979e+00 -2.24730507e-01 -1.51719585e-01
      -6.56613529e-01 6.04050875e-01 -6.26249686e-02 7.52404094e-01
      4.39480633e-01 -1.39969981e+00 -1.58321726e+00 5.23549974e-01
      -1.32364905e+00 9.07801390e-01 4.40455437e-01 -1.05457592e+00
      -1.23372090e+00 -6.81384131e-02 -9.02993619e-01 -1.48943055e+00
      1.58851773e-01 5.72618306e-01</_>
    <_>
      -1.91913116e+00 -1.60456419e+00 -2.31959462e-01 3.34668726e-01
      -9.40580294e-02 -8.02556694e-01 3.50678295e-01 -1.18959892e+00
      -9.53237951e-01 1.86366725e+00 5.60101271e-02 -2.02269018e-01
      -1.61274433e-01 2.13643566e-01 -1.48868155e+00 -3.32740784e-01
      1.49766415e-01 2.84370780e-01 3.99410516e-01 -9.61662471e-01
      1.02791883e-01 -1.46792978e-01 -1.35288918e+00 4.02927727e-01
      1.14437330e+00 -6.55686975e-01 1.15719192e-01 1.46139407e+00
      -5.67077875e-01 -2.26280212e-01 7.26149738e-01 6.23224139e-01
      1.08818769e+00 -1.27740908e+00 -1.26594216e-01 -4.11716402e-01
      5.15427947e-01 1.47221839e+00 4.67191756e-01 7.58275390e-02
      -4.47122544e-01 -2.23346338e-01 -1.12026773e-01 -6.70458138e-01
      -1.52465582e-01 4.25259113e-01 9.30801451e-01 -3.19610566e-01
      -1.32364905e+00 -7.64577866e-01 -5.36489606e-01 -3.24195087e-01
      6.09923720e-01 -2.85082400e-01 4.98503685e-01 1.06952429e+00
      -1.91238627e-01 -9.64650333e-01</_>
    <_>
      1.18217051e+00 -1.91733286e-01 -1.20221388e+00 -7.76893914e-01
      -2.23538065e+00 -1.47963262e+00 -1.29069686e+00 4.48099673e-01
      -1.26503956e+00 -1.10480845e+00 -1.59383059e+00 -2.26522088e+00
      -2.60412097e+00 -9.18714821e-01 -1.12680054e+00 -1.99081254e+00
      -1.93841159e+00 -2.74038625e+00 -2.32016587e+00 -2.18655968e+00
      -1.41344893e+00 -1.66756138e-01 -1.97853851e+00 -2.34132719e+00
      -2.24978113e+00 -1.27051044e+00 -5.22394121e-01 -2.33924723e+00
      -7.99393773e-01 -5.68331599e-01 -1.15076756e+00 -6.02443755e-01
      -7.14108497e-02 -5.00537097e-01 -1.35506022e+00 9.11868513e-01
      1.18906760e+00 1.70951021e+00 7.18830705e-01 1.99919581e+00
      1.46028662e+00 3.15107822e-01 -2.96348929e-01 2.64418077e+00
      2.83916569e+00 1.91421866e+00 -3.46585140e-02 -8.07328105e-01
      -1.32364905e+00 2.05335975e+00 2.85424662e+00 1.60986781e+00
      -1.19107020e+00 -1.02604759e+00 -2.61825681e+00 -2.44638729e+00
      5.96205473e-01 -1.00276315e+00</_>
    <_>
      7.88579226e-01 2.88730597e+00 1.66602600e+00 6.88237846e-01
      8.07962775e-01 -9.36077058e-01 -1.29069686e+00 6.17655134e+00
      6.64048862e+00 2.72294068e+00 -6.07463457e-02 -7.49443948e-01
      -3.36997926e-01 -4.64349538e-01 2.09607005e+00 3.21126199e+00
      -9.96536195e-01 -2.14429569e+00 -2.65729952e+00 -1.36999381e+00
      -1.41344893e+00 3.18495059e+00 -7.43795753e-01 -2.31191230e+00
      -2.60022640e+00 -2.47005248e+00 -2.09677505e+00 -1.16762650e+00
      -1.33820844e+00 -1.56143498e+00 -2.33840656e+00 -1.57801044e+00
      -1.08669686e+00 -1.71435189e+00 -1.35506022e+00 -6.62118733e-01
      -1.84964979e+00 -1.61226523e+00 -1.72898734e+00 -1.72277200e+00
      -1.25028610e+00 4.31116402e-01 -7.43813694e-01 -1.57032502e+00
      -1.90613866e+00 -1.92804623e+00 -9.36111391e-01 7.83812284e-01
      8.86938930e-01 -4.51251529e-02 -5.68341374e-01 -2.46113807e-01
      -5.10090768e-01 1.01313758e+00 1.13053346e+00 -4.75150108e-01
      1.24954343e+00 4.01397854e-01</_>
    <_>
      -1.20121515e+00 -1.51447737e+00 -4.15851146e-01 1.69880652e+00
      4.95683700e-01 -8.98940027e-01 -1.29069686e+00 -1.24456930e+00
      -7.54490256e-01 2.78808355e+00 1.11606681e+00 2.72268891e-01
      7.17516184e-01 7.31907308e-01 -8.97946835e-01 5.79864569e-02
      3.14482093e-01 5.22381246e-01 2.06431240e-01 5.60117245e-01
      4.24475044e-01 -4.04372483e-01 3.27864677e-01 6.23340607e-01
      1.13906670e+00 5.92791319e-01 5.97234331e-02 -7.38047361e-01
      1.83626246e+00 9.92509544e-01 1.95637310e+00 3.81483436e-01
      1.17231309e-01 -5.01268208e-01 -1.02504142e-01 2.68311590e-01
      3.81145567e-01 2.23970390e-03 1.71362832e-01 -2.32479200e-01
      -3.58399659e-01 4.59831029e-01 -4.66138162e-02 -7.21277237e-01
      -1.29104567e+00 -1.19404268e+00 -9.12719190e-01 3.86922270e-01
      1.42342672e-01 -1.12023950e+00 -8.60137403e-01 -1.10291755e+00
      -9.82795238e-01 1.80916674e-02 6.15420759e-01 -1.15639055e+00
      -8.09852064e-01 -9.61935639e-01</_>
    <_>
      -2.30185743e-02 5.19419834e-02 -5.07349670e-01 5.16121536e-02
      1.79601125e-02 -4.52733524e-02 -1.29069686e+00 -1.89067945e-01
      4.19549972e-01 6.52474701e-01 6.17021620e-01 3.74736547e-01
      -6.28376752e-02 8.82917345e-01 -5.09162188e-01 -1.04483284e-01
      1.09162264e-01 -5.80552757e-01 6.82720542e-01 4.08386588e-01
      -1.41344893e+00 -1.04039289e-01 -3.07946950e-01 -5.62037468e-01
      -4.17753428e-01 6.55236959e-01 -1.71430385e+00 -6.57361388e-01
      5.18961132e-01 4.30171996e-01 7.70587102e-02 1.59761325e-01
      2.62844324e-01 1.51207614e+00 -2.29431257e-01 -1.20881498e-01
      6.11256249e-02 9.86412942e-01 6.01517498e-01 1.17355406e+00
      -1.00497775e-01 -3.87929440e-01 2.76402891e-01 6.88927889e-01
      6.89845741e-01 1.28801620e+00 3.30019355e-01 1.59199178e-01
      -1.32364905e+00 3.36417168e-01 2.24438921e-01 7.92500228e-02
      3.52748930e-01 -2.66696990e-01 -9.36976433e-01 -1.40195966e+00
      -2.22875699e-01 4.58931215e-02</_>
    <_>
      3.11972886e-01 -6.72835052e-01 -1.16115369e-01 8.82422745e-01
      6.57873929e-01 3.31780493e-01 1.50761414e+00 -8.32514346e-01
      -1.29897404e+00 5.24722755e-01 7.79021382e-01 9.43216681e-02
      4.18845452e-02 1.14846373e+00 -1.24342906e+00 -1.03671026e+00
      7.65927415e-03 -9.77312863e-01 -1.52303040e-01 -7.36276269e-01
      -3.32015932e-01 -7.63336420e-01 -1.08636463e+00 -1.04013336e+00
      6.05584085e-01 -2.13048786e-01 -1.07533813e+00 -1.17846243e-01
      -9.28049609e-02 -1.91572559e+00 -7.23531783e-01 8.41954231e-01
      -2.86131799e-01 1.69926500e+00 9.19309020e-01 -1.10414851e+00
      -7.55405426e-01 -6.51702583e-01 8.19853693e-03 -4.21838403e-01
      1.45373678e+00 2.11309147e+00 -4.35219139e-01 3.36861163e-02
      -1.09800315e+00 -1.21898377e+00 8.44363391e-01 6.92722738e-01
      1.13276863e+00 -2.49292880e-01 2.05296099e-01 -2.50710975e-02
      2.39623770e-01 5.95490217e-01 7.08923697e-01 -2.57486403e-01
      8.62914205e-01 1.28731996e-01</_>
    <_>
      2.91384506e+00 3.64945674e+00 -4.55502830e-02 -1.42063487e+00
      -2.23538065e+00 -1.71886563e+00 -1.29069686e+00 3.09130788e+00
      4.83833343e-01 -1.70280063e+00 -1.79597569e+00 -2.51611543e+00
      -2.60412097e+00 -1.39741182e+00 -1.58662891e+00 -3.33850384e+00
      -2.46330094e+00 -3.31766629e+00 -3.92998457e+00 -2.15868950e+00
      -1.41344893e+00 -1.03311682e+00 -3.61214972e+00 -2.88947296e+00
      -3.10170436e+00 -3.27024889e+00 -1.78120852e+00 -2.33924723e+00
      -2.13812566e+00 -3.16492558e+00 -2.91178703e+00 -2.01765299e+00
      -1.43299711e+00 -1.44174516e+00 -1.35506022e+00 -7.65982270e-01
      -1.77620435e+00 -6.23347998e-01 -9.46639955e-01 2.94423133e-01
      4.75630611e-01 -1.25146115e+00 -9.73960459e-01 1.94457150e+00
      1.35651100e+00 8.74086559e-01 3.05669022e+00 -5.12924135e-01
      -1.32364905e+00 3.00505352e+00 3.89690542e+00 2.58942199e+00
      3.90948355e-01 -7.75245249e-01 -2.61825681e+00 -2.44638729e+00
      1.21313608e+00 -8.43071878e-01</_>
    <_>
      -5.64206578e-02 -4.73421782e-01 4.83103186e-01 9.11446571e-01
      5.21711051e-01 1.64001715e+00 2.89260411e+00 -9.74886045e-02
      6.79991543e-01 6.99740231e-01 2.33307868e-01 2.42068276e-01
      8.71680140e-01 3.74775231e-01 8.57596874e-01 1.13109040e+00
      3.89196306e-01 1.05252969e+00 8.80949572e-02 -1.01298988e-01
      -1.41344893e+00 3.57613385e-01 6.05190694e-01 -7.95773268e-02
      1.20157492e+00 -3.11454743e-01 1.55607259e+00 2.30362821e+00
      -4.64577615e-01 -9.77394521e-01 -4.05842990e-01 -7.29033351e-01
      -1.04198575e+00 -2.04375386e-01 6.49473369e-01 -4.56620246e-01
      -3.45799357e-01 -9.09695089e-01 -4.91563976e-01 -3.51540267e-01
      -1.06523359e+00 4.71933603e-01 8.50983441e-01 1.72626823e-01
      6.52749777e-01 1.78379095e+00 -7.97000170e-01 4.16741341e-01
      -2.11945042e-01 6.39785379e-02 5.36976814e-01 1.78510040e-01
      -7.40548193e-01 -5.94485462e-01 1.11886561e+00 8.50166082e-01
      -5.65692723e-01 2.28101909e-01</_>
    <_>
      3.40673983e-01 1.32836711e+00 -5.06015360e-01 -5.13974838e-02
      -6.29241824e-01 -8.16927552e-01 -3.98847550e-01 1.80423781e-01
      -1.01728725e+00 -1.13558424e+00 -1.35565543e+00 -1.54165673e+00
      -5.77730775e-01 -3.35166126e-01 -1.33806336e+00 -1.43062937e+00
      -1.66015315e+00 1.45964515e+00 -7.30080128e-01 -2.09663463e+00
      -1.41344893e+00 -1.13243783e+00 -1.17505419e+00 3.34398985e-01
      -1.01086307e+00 -1.70253479e+00 -1.46497941e+00 1.15372705e+00
      -2.13496614e+00 -1.48926771e+00 -2.07136893e+00 -1.31199718e+00
      -1.64531469e+00 -2.03548837e+00 9.42899361e-02 -8.67627501e-01
      -1.65657520e+00 -2.22270560e+00 -6.53422296e-01 -3.73023003e-01
      -4.04871762e-01 1.73222482e+00 -1.04346955e+00 -6.40775681e-01
      9.91585553e-01 1.05291820e+00 8.79682973e-02 -1.28469467e+00
      -1.91375166e-01 2.53275156e-01 1.77071178e+00 2.07582402e+00
      -6.73433617e-02 -1.00778615e+00 -1.58926380e+00 -7.01270282e-01
      1.36682665e+00 -1.11514318e+00</_>
    <_>
      -3.21866727e+00 -3.05744028e+00 -2.09036803e+00 -1.18445301e+00
      -1.54037344e+00 -1.94252864e-01 1.54763114e+00 -1.93162429e+00
      -2.78975868e+00 -2.33490515e+00 -1.73950279e+00 -2.20959210e+00
      -8.50210011e-01 -2.55158281e+00 -5.61307907e-01 -9.35905039e-01
      -2.09807491e+00 -1.08696473e+00 -7.18754709e-01 -1.69997287e+00
      -1.41344893e+00 -9.95961368e-01 -1.55304730e+00 -3.30858603e-02
      1.32188380e-01 -1.17979443e+00 -1.87159145e+00 1.07116902e+00
      -3.01793671e+00 -2.78179002e+00 -1.50397396e+00 1.24949861e+00
      -7.29637206e-01 1.95784438e+00 1.14060521e+00 -1.76593673e+00
      -1.71281636e+00 1.56106725e-02 -5.38680971e-01 -1.02559066e+00
      -2.08651805e+00 -2.84386849e+00 -6.16740465e-01 -3.39745849e-01
      6.70568526e-01 3.09703946e+00 -1.68053651e+00 -2.01949692e+00
      -1.32364905e+00 -9.09993947e-01 -9.09517527e-01 8.40420604e-01
      -1.52625275e+00 -1.74076450e+00 -2.61825681e+00 -1.58520794e+00
      1.56075311e+00 -2.30611849e+00</_>
    <_>
      -7.57982135e-01 -3.81867856e-01 -3.51221502e-01 -4.98285070e-02
      5.83534300e-01 -4.38618779e-01 6.51550144e-02 -9.18710306e-02
      -5.90910554e-01 1.55513361e-01 1.81787097e+00 8.37052405e-01
      -5.20329356e-01 1.11395621e+00 -5.70805013e-01 -1.58134058e-01
      9.93619561e-01 8.15935373e-01 7.73503602e-01 5.16152263e-01
      4.53824878e-01 3.71206343e-01 -2.60807276e-01 1.15523763e-01
      -1.09267138e-01 7.55988359e-02 7.58164346e-01 -2.40676105e-01
      2.10014597e-01 -4.22619879e-01 -1.02323905e-01 -2.94168502e-01
      3.04301441e-01 -2.78239906e-01 -1.35506022e+00 4.17148888e-01
      2.19547495e-01 -1.35365859e-01 7.94918597e-01 -1.76342949e-01
      -5.94613850e-01 2.71908522e-01 -6.73826158e-01 -1.46256673e+00
      -2.37475261e-01 -7.52837121e-01 -5.15966058e-01 7.97626257e-01
      3.21209311e+00 -7.67918527e-01 -1.00845492e+00 -8.05659413e-01
      -2.83959895e-01 1.75286502e-01 1.00694694e-01 2.96782941e-01
      5.06548703e-01 -3.10439318e-01</_>
    <_>
      -2.25035191e+00 -2.38564277e+00 -1.91705382e+00 -9.91463661e-01
      -8.29665065e-01 -1.10051382e+00 -1.29069686e+00 -9.24788773e-01
      -1.76030946e+00 5.22846341e-01 1.09584796e+00 4.96851981e-01
      8.50138605e-01 2.58700442e+00 -2.21855044e+00 -2.51518083e+00
      -1.41196048e+00 -8.14978242e-01 3.74590814e-01 -2.04788610e-01
      -1.41344893e+00 -2.12348437e+00 7.87387371e-01 -7.81488895e-01
      -1.26248038e+00 -1.18001533e+00 -2.33061457e+00 -1.16235340e+00
      1.91254526e-01 -1.33759296e+00 -2.19505763e+00 -3.65828753e-01
      -3.78034741e-01 -3.24851632e+00 -1.35506022e+00 -1.13657176e+00
      -1.83242607e+00 -4.60731357e-01 -6.49386942e-01 -1.37182033e+00
      -2.87657952e+00 -3.29318047e-01 -2.82931924e+00 -2.36086226e+00
      -2.55429912e+00 -1.48348010e+00 -1.15322614e+00 -1.90270948e+00
      -1.32364905e+00 -1.58856797e+00 -2.51541805e+00 -1.33555138e+00
      -1.67344666e+00 -1.37232101e+00 -8.02496016e-01 4.64211851e-01
      2.58865285e+00 -2.39868903e+00</_>
    <_>
      4.09843057e-01 4.77420203e-02 -4.13173467e-01 2.99200445e-01
      5.31268835e-01 -4.10074135e-03 6.64798915e-01 1.19149990e-01
      5.25210381e-01 7.27523804e-01 8.96468282e-01 1.00008404e+00
      4.61656511e-01 9.76882696e-01 3.75816941e-01 3.79007816e-01
      7.42538154e-01 9.58688974e-01 5.65457642e-01 1.70045948e+00
      1.12698114e+00 -2.17797652e-01 6.47064626e-01 -7.24902511e-01
      6.09354302e-02 6.18221641e-01 -6.03484455e-03 -2.63152272e-01
      1.02894330e+00 3.51161838e-01 -7.52368271e-02 6.61318123e-01
      9.65150297e-01 4.32342201e-01 6.52107239e-01 4.15637225e-01
      6.00828290e-01 9.53675389e-01 6.77974224e-01 9.85981286e-01
      2.62364354e-02 8.00116777e-01 3.37421954e-01 1.34205580e-01
      -1.60357950e-03 -9.19808269e-01 3.02734077e-01 1.19285023e+00
      8.68504167e-01 -2.47255638e-01 -1.99701607e-01 -9.49547291e-01
      -1.30617484e-01 2.27973863e-01 -4.91092891e-01 -9.53532234e-02
      -4.18956131e-01 2.40759388e-01</_>
    <_>
      -1.37297297e+00 -1.24634758e-01 -4.35627431e-01 2.83498373e-02
      -9.03500676e-01 2.64771104e-01 -1.29069686e+00 1.39574662e-01
      -4.08192307e-01 -1.33276010e+00 -1.27833855e+00 -8.51825595e-01
      -8.66724491e-01 -1.07636845e+00 5.81388652e-01 -1.09237921e+00
      -1.08914268e+00 1.44825244e+00 5.31376123e-01 1.50393474e+00
      1.72792065e+00 -3.15760881e-01 -1.73459339e+00 1.15745986e+00
      1.72454989e+00 2.79366589e+00 5.38112688e+00 1.79825091e+00
      -3.95236701e-01 1.52945352e+00 2.07177448e+00 -5.80602944e-01
      1.13986719e+00 1.52074623e+00 -2.57674932e-01 1.07996976e+00
      3.31896114e+00 -3.11970472e-01 -5.41242361e-01 2.96458364e-01
      -1.93669784e+00 -1.50835836e+00 2.76363087e+00 6.46066725e-01
      5.75232744e-01 -1.79996774e-01 -7.16830671e-01 -7.70530045e-01
      3.59773248e-01 -3.14280242e-01 -4.42575365e-01 1.12413138e-01
      -7.77396500e-01 -1.55964836e-01 1.03896141e-01 -3.58077511e-02
      -3.86974275e-01 8.11161220e-01</_>
    <_>
      1.12293613e+00 1.54954982e+00 1.08530772e+00 1.20400810e+00
      2.12578252e-01 -4.46240664e-01 2.01770008e-01 4.13929582e-01
      4.15674925e-01 3.20168674e-01 1.05923760e+00 -2.86915541e-01
      -1.26506075e-01 -6.91917390e-02 -8.06320727e-01 -4.71090853e-01
      -9.67550874e-01 -1.30100310e+00 -5.85209429e-01 -1.48916796e-01
      -1.41344893e+00 -2.63538837e-01 -1.09646714e+00 -1.35120583e+00
      -6.08639717e-01 -9.23477054e-01 -5.12481689e-01 -4.38402742e-01
      1.13323367e+00 -4.86938089e-01 -8.66631031e-01 -9.10090625e-01
      -6.69839010e-02 3.24920677e-02 3.83772641e-01 -3.85068990e-02
      -1.23079523e-01 4.18192416e-01 1.36074221e+00 1.18968296e+00
      4.81919408e-01 6.50464654e-01 7.19320774e-02 2.08700344e-01
      1.41044569e+00 4.24884558e-01 1.69918072e+00 1.29583967e+00
      -1.32364905e+00 1.76004574e-01 1.19688261e+00 1.07630596e-01
      5.63284099e-01 1.02883065e+00 2.98409551e-01 -7.87965834e-01
      -4.79162335e-01 1.76931806e-02</_>
    <_>
      9.99601901e-01 -5.02080798e-01 -1.96387306e-01 -1.54728249e-01
      3.83069724e-01 5.54143429e-01 -4.58651185e-02 -5.22860110e-01
      -1.56690955e-01 8.90563190e-01 1.09068322e+00 1.03933942e+00
      1.16883647e+00 1.66802371e+00 4.32068765e-01 6.62656546e-01
      1.19569016e+00 6.93242371e-01 1.02532601e+00 6.74387217e-02
      5.98299384e-01 2.84449607e-02 4.65039700e-01 7.89412037e-02
      9.99355912e-01 -2.14255303e-01 6.24282122e-01 3.96447241e-01
      1.09240615e+00 -6.02567255e-01 4.77923363e-01 3.37429553e-01
      5.72007447e-02 5.01582026e-01 1.85358629e-01 -4.30386186e-01
      -4.90258932e-01 4.42021549e-01 8.81827533e-01 -6.12536013e-01
      9.27133679e-01 6.99733078e-01 7.71874666e-01 -2.30631232e-01
      -3.62398207e-01 -7.39067912e-01 -3.94918472e-01 -2.66855769e-02
      2.24012360e-01 -8.29266757e-02 -9.37823057e-01 -8.10445666e-01
      -5.52907050e-01 1.21947519e-01 6.75454080e-01 5.24049461e-01
      -3.91097456e-01 7.58299470e-01</_>
    <_>
      -3.21866727e+00 -2.47644281e+00 -1.94376731e+00 -2.07525420e+00
      -1.73047793e+00 -1.04777551e+00 -7.66213238e-02 -1.26515329e+00
      -1.52664399e+00 -2.05069351e+00 -1.82724535e+00 -1.70151925e+00
      -1.43182063e+00 -2.55158281e+00 -4.48533744e-01 -2.15744519e+00
      -1.46602988e+00 -6.80931449e-01 -1.55231035e+00 -2.92533469e+00
      -1.41344893e+00 -6.51984692e-01 -1.90094757e+00 2.24619770e+00
      -4.82032388e-01 -1.79736960e+00 -2.15517306e+00 1.42234898e+00
      -2.04240584e+00 -1.59652972e+00 -2.29467845e+00 -2.28784204e+00
      -1.86544895e+00 -1.94357067e-01 -1.35506022e+00 -9.13380861e-01
      -2.64266777e+00 -2.12750506e+00 -1.90582025e+00 -2.20369101e+00
      -2.87657952e+00 -2.84386849e+00 1.53031070e-02 -1.71485817e+00
      -3.25209546e+00 -1.29011214e+00 -8.13551843e-01 -2.68555546e+00
      -1.32364905e+00 -1.27438605e+00 -2.51541805e+00 8.98198307e-01
      -4.62662160e-01 -1.69165647e+00 -8.04287255e-01 2.40946579e+00
      2.73114085e+00 -1.30046940e+00</_>
    <_>
      -1.88343978e+00 -1.38152516e+00 -1.35593474e+00 -1.19064891e+00
      4.23335522e-01 -7.64595389e-01 4.37072098e-01 3.24483246e-01
      6.87989771e-01 1.73157573e+00 7.77651072e-01 2.40248418e+00
      1.27762818e+00 -2.80651212e-01 1.26250768e+00 8.28993034e+00
      3.98877239e+00 5.50228179e-01 3.13140273e-01 -1.12590516e+00
      -1.41344893e+00 9.08100700e+00 7.28952026e+00 1.22932352e-01
      -2.00055122e+00 -2.92513537e+00 -3.20030665e+00 -2.33924723e+00
      1.59642565e+00 -5.92009485e-01 -2.30577540e+00 -2.17945957e+00
      -2.56454587e+00 -3.24851632e+00 -1.35506022e+00 1.20319344e-01
      -2.34117341e+00 -2.64446568e+00 -2.53545880e+00 -4.05738783e+00
      -2.87657952e+00 -1.67034197e+00 -1.97934163e+00 -2.38283134e+00
      -2.82629490e+00 -2.85864091e+00 -3.13301325e+00 -1.78777742e+00
      -6.45530447e-02 -9.69216347e-01 -1.81968153e+00 -1.66540647e+00
      -2.12224317e+00 -2.12206936e+00 -1.51867199e+00 -1.65322924e+00
      9.65930879e-01 8.60091075e-02</_>
    <_>
      -3.00832409e-02 -2.24028707e+00 -2.17082572e+00 -1.76019132e+00
      -1.49680340e+00 -2.54834771e+00 -1.29069686e+00 -8.18175972e-02
      -1.74334681e+00 -1.30494499e+00 -1.53475451e+00 -1.58540118e+00
      -5.03231466e-01 -8.93370628e-01 -5.88368833e-01 -6.28434181e-01
      -1.43668616e+00 -1.63186264e+00 -1.44265056e+00 9.52313364e-01
      5.06561816e-01 1.78621519e+00 -4.29843590e-02 -6.44351304e-01
      -1.39522457e+00 2.07061097e-01 2.90454358e-01 -1.19473851e+00
      1.49757671e+00 1.42991233e+00 3.81343096e-01 -3.55257839e-01
      -1.89317599e-01 -7.44429767e-01 -1.35506022e+00 4.45195484e+00
      3.72362971e+00 2.24681234e+00 -7.52348661e-01 -1.10285115e+00
      -8.43489110e-01 -7.73080111e-01 2.01860857e+00 1.63882911e+00
      -9.72656727e-01 -2.36050534e+00 -2.95276237e+00 -9.49792564e-01
      -1.32364905e+00 2.10929966e+00 -4.71134365e-01 -1.75120533e+00
      -2.89383411e+00 -1.97641551e+00 -1.04453683e+00 -2.44638729e+00
      1.72923601e+00 6.40404105e-01</_>
    <_>
      8.87514830e-01 -5.13653696e-01 -2.47967988e-01 -1.30926460e-01
      1.96140662e-01 4.51368630e-01 4.96121228e-01 -2.45859280e-01
      -1.62388414e-01 8.23822856e-01 9.89061296e-01 7.71314740e-01
      5.72323263e-01 1.90097797e+00 3.75297248e-01 9.06927049e-01
      1.04467368e+00 7.27625370e-01 7.27701724e-01 8.53651226e-01
      7.79982865e-01 -3.37719433e-02 6.89781785e-01 2.21148118e-01
      1.08269477e+00 -1.59658298e-01 -9.28849503e-02 6.66525781e-01
      1.17800379e+00 -3.73624384e-01 4.88747567e-01 5.11892617e-01
      -2.13261545e-01 5.55020988e-01 3.43776137e-01 -3.81174982e-01
      -6.59010231e-01 7.48328090e-01 5.19095242e-01 -4.04331863e-01
      9.32537854e-01 1.05960500e+00 1.85035095e-01 -6.11221313e-01
      -4.34340239e-01 -7.47181058e-01 -8.73650551e-01 -3.32621634e-01
      1.37881815e+00 -2.69842803e-01 -5.67114294e-01 -8.77056479e-01
      -4.28115755e-01 2.36426130e-01 8.57257605e-01 7.46596873e-01
      -3.44484538e-01 8.40802670e-01</_>
    <_>
      -4.67868268e-01 -2.51146674e-01 2.04011142e-01 1.69065669e-01
      4.29588646e-01 1.08343601e+00 1.04271221e+00 -6.19082510e-01
      -2.37761401e-02 -1.10833600e-01 4.31201071e-01 7.60720074e-01
      8.01160693e-01 1.30574822e+00 1.30192995e+00 3.56519282e-01
      3.19575459e-01 1.43471813e+00 1.47042716e+00 1.48330295e+00
      7.92272508e-01 1.05404533e-01 3.16974968e-02 -3.78750414e-01
      6.55345798e-01 1.84169328e+00 1.66819894e+00 -2.69287735e-01
      7.34638274e-01 1.28737703e-01 6.73331499e-01 4.25831020e-01
      1.46533000e+00 1.47999156e+00 1.32374918e+00 6.43396154e-02
      1.17956117e-01 -3.19357842e-01 1.58340856e-01 9.29857314e-01
      1.11244887e-01 1.88103288e-01 6.86869681e-01 -3.54178756e-01
      -6.02182329e-01 -1.10838866e+00 6.80621028e-01 2.02822852e+00
      4.89223152e-01 -2.41967604e-01 -2.78712541e-01 -9.11779583e-01
      1.14684284e+00 9.39904988e-01 1.27687955e+00 -2.98991501e-01
      -4.50523883e-01 7.44456410e-01</_>
    <_>
      6.11047387e-01 2.26877376e-01 5.34357965e-01 1.57165647e+00
      8.03300619e-01 1.69913995e+00 1.69266558e+00 -3.49681735e-01
      2.49538749e-01 1.01025212e+00 1.46022928e+00 8.92083406e-01
      1.34435868e+00 1.12536681e+00 6.22799039e-01 9.57568884e-01
      -2.36342065e-02 5.48466400e-04 5.87086737e-01 1.17700756e+00
      3.47384900e-01 3.39578331e-01 3.48696321e-01 -5.48751652e-01
      3.60659838e-01 5.52832842e-01 -9.99617517e-01 5.71923494e-01
      1.25102139e+00 -1.66211501e-01 4.19307917e-01 1.09168641e-01
      -2.88257599e-01 3.67306232e-01 4.17258352e-01 -5.39604187e-01
      -8.12810779e-01 1.05075762e-01 2.32148796e-01 -1.19120814e-01
      2.32241124e-01 2.54910946e-01 -6.29267991e-01 -7.44202256e-01
      -1.00686789e+00 -9.91605639e-01 6.76277876e-01 4.55063641e-01
      2.32296929e-01 -3.89113843e-01 -8.55810821e-01 -7.28380740e-01
      -4.65897135e-02 1.15290725e+00 2.14982599e-01 2.57557690e-01
      -4.24830526e-01 5.43665826e-01</_>
    <_>
      -2.53774953e+00 -1.81478131e+00 -1.54267168e+00 -7.15658903e-01
      2.11322546e-01 -2.54834771e+00 -4.19127107e-01 -2.23463535e-01
      -7.34785378e-01 5.89713478e+00 4.15306234e+00 -5.69048464e-01
      -1.02763736e+00 1.25416422e+00 -1.19891942e+00 5.14722824e+00
      2.52043414e+00 -2.61362344e-01 -1.81319749e+00 -1.28359175e+00
      3.88658375e-01 2.70081139e+00 1.25986731e+00 -6.50813401e-01
      -2.25904560e+00 -2.31808233e+00 -3.20030665e+00 -1.19231641e+00
      -4.81742956e-02 2.50030786e-01 -1.21034348e+00 -1.76640868e+00
      -2.19717121e+00 -3.24851632e+00 -1.35506022e+00 9.25283355e-04
      -7.89132774e-01 -3.07117879e-01 4.99410093e-01 -3.18052316e+00
      -1.93376899e+00 -9.00361955e-01 -2.82931924e+00 -2.33152437e+00
      -2.73510385e+00 -2.77787805e+00 -2.94279003e+00 -2.68555546e+00
      -1.32364905e+00 -1.58856797e+00 -1.83582115e+00 -2.25999713e+00
      -2.00357389e+00 -1.67583001e+00 -2.61825681e+00 -1.08551490e+00
      -5.09400606e-01 -1.42043149e+00</_>
    <_>
      1.88427663e+00 1.46058559e+00 -1.16583931e+00 -1.78017223e+00
      -1.79357541e+00 -2.54834771e+00 -1.29069686e+00 2.40793109e+00
      -9.30347919e-01 -1.69878304e+00 -1.77347624e+00 -2.32196331e+00
      -2.60412097e+00 -1.89192402e+00 -1.20087397e+00 -1.80964184e+00
      -2.27296591e+00 -2.75164247e+00 -3.23330307e+00 -2.92533469e+00
      -1.41344893e+00 -4.07789975e-01 -1.92891657e+00 -2.52181244e+00
      -2.99728870e+00 -2.93113351e+00 -3.20030665e+00 -1.58349335e+00
      -1.83726060e+00 -2.28541851e+00 -2.51769757e+00 -1.90965688e+00
      -1.96917915e+00 -8.71127486e-01 4.61250216e-01 -2.20329136e-01
      -1.58643401e+00 -1.46695602e+00 -1.27425933e+00 -5.99855781e-01
      1.08274543e+00 -1.71658385e+00 -2.81530738e-01 1.48177195e+00
      2.41550297e-01 -8.72275904e-02 6.28136635e-01 -1.00812793e+00
      8.40235293e-01 3.83782983e+00 2.51008630e+00 2.08807373e+00
      -9.42239583e-01 -1.57620311e+00 -1.26149631e+00 -1.56606829e+00
      2.08740091e+00 -4.20491189e-01</_>
    <_>
      -3.21866727e+00 -3.05744028e+00 -2.78552532e+00 -2.07525420e+00
      -2.23538065e+00 -1.70312524e+00 -1.29069686e+00 -1.93162429e+00
      -3.32522583e+00 -2.05277252e+00 -2.02414846e+00 -2.07581568e+00
      -2.60412097e+00 -2.55158281e+00 -1.02426398e+00 -2.26711535e+00
      -2.52286577e+00 -7.42798984e-01 -1.10776466e-03 -2.15336657e+00
      -1.41344893e+00 -1.34368694e+00 -2.57829809e+00 2.36125851e+00
      1.37884319e+00 -3.27007747e+00 -2.11058760e+00 2.23126769e+00
      -2.28293228e+00 -2.32770324e+00 -2.71160817e+00 -2.50527406e+00
      -3.12924457e+00 -1.82248902e+00 -1.35506022e+00 -1.02070022e+00
      -2.49507904e+00 -3.23077559e+00 -2.53545880e+00 -4.05738783e+00
      -2.87657952e+00 -2.84386849e+00 -6.74934983e-01 -2.88422728e+00
      -2.87601781e+00 -1.32921612e+00 -8.65582600e-02 -2.68555546e+00
      -1.32364905e+00 -1.23100579e+00 -2.51541805e+00 3.09614033e-01
      -8.88304552e-04 -2.44328880e+00 -2.61825681e+00 2.53302002e+00
      2.67333269e+00 -1.40176666e+00</_>
    <_>
      -9.29151893e-01 -8.26045871e-01 -2.42116049e-01 2.21444771e-01
      -3.60708237e-01 -7.50844836e-01 -1.29069686e+00 -1.19849369e-01
      -9.57757175e-01 7.64945894e-02 1.14525057e-01 -1.64486766e-01
      -1.39253485e+00 -1.39639467e-01 -1.36028385e+00 -1.65943933e+00
      -3.98218900e-01 1.47585394e-02 4.01700288e-01 -1.74287409e-01
      1.72398424e+00 -8.64428341e-01 -6.17453337e-01 5.23083389e-01
      1.58508348e+00 3.39225471e-01 7.78130233e-01 3.73102546e-01
      1.55157134e-01 -4.30659592e-01 1.39299369e+00 1.52336669e+00
      2.76547045e-01 -4.29983109e-01 4.75074708e-01 -5.57231195e-02
      9.29612368e-02 6.75054908e-01 2.85903692e-01 -6.36777103e-01
      -1.32960081e+00 -4.03008511e-04 -8.84353101e-01 -4.95451897e-01
      -3.14429969e-01 3.44663382e-01 -6.11732863e-02 -8.09109569e-01
      -1.32364905e+00 -4.25457656e-01 -9.24742520e-01 3.04165959e-01
      5.54629624e-01 -1.48563832e-01 -1.63270116e+00 -4.08426672e-01
      -7.54379183e-02 -1.08288538e+00</_>
    <_>
      -6.52001143e-01 -1.45220995e+00 -2.22391295e+00 -2.07525420e+00
      -2.23538065e+00 -2.54834771e+00 -1.29069686e+00 -5.09747803e-01
      -2.75226927e+00 -2.33490515e+00 -2.02414846e+00 -3.08343410e+00
      -2.03333640e+00 -1.84798789e+00 -2.03109288e+00 -2.75854707e+00
      -2.43822432e+00 -1.41983044e+00 -3.20077658e-01 -1.55497181e+00
      9.06778634e-01 -3.83094907e-01 -1.16711986e+00 3.26051235e+00
      1.27462363e+00 -3.40483397e-01 -1.00011754e+00 -1.59455526e+00
      -4.53205347e-01 2.34569573e+00 1.13240755e+00 6.41625881e-01
      -2.30272591e-01 -8.36536705e-01 -1.35506022e+00 2.82992148e+00
      1.96502244e+00 1.88760471e+00 -2.61032820e-01 -6.30356610e-01
      -1.30226171e+00 -2.84386849e+00 4.11888897e-01 1.08270359e+00
      -5.02153397e-01 1.01388717e+00 -8.92425597e-01 -2.68555546e+00
      -1.32364905e+00 1.24590504e+00 6.33004487e-01 1.13460994e+00
      -1.84069383e+00 -3.06892204e+00 -2.61825681e+00 -2.44638729e+00
      2.50620991e-01 -1.57153392e+00</_>
    <_>
      -3.21866727e+00 -3.05744028e+00 -2.78552532e+00 -2.07525420e+00
      -2.23538065e+00 -2.54834771e+00 -1.29069686e+00 -1.93162429e+00
      -3.32522583e+00 -2.33490515e+00 -2.02414846e+00 -3.08343410e+00
      -2.60412097e+00 -2.55158281e+00 -3.26373911e+00 -3.33850384e+00
      -2.86203599e+00 -3.31766629e+00 -3.92998457e+00 -2.92533469e+00
      -1.41344893e+00 -2.12348437e+00 -3.61214972e+00 -3.14442205e+00
      -3.30057931e+00 -3.99373937e+00 -3.20030665e+00 -2.33924723e+00
      -3.01793671e+00 -3.16492558e+00 -3.43896270e+00 -2.50527406e+00
      -3.12924457e+00 -3.24851632e+00 -1.35506022e+00 -1.76593673e+00
      -3.18435287e+00 -3.23077559e+00 -2.53545880e+00 -4.05738783e+00
      -2.87657952e+00 -2.84386849e+00 -2.82931924e+00 -2.88422728e+00
      -3.25209546e+00 -3.03281736e+00 -3.76836896e+00 -2.68555546e+00
      -1.32364905e+00 -1.58856797e+00 -2.51541805e+00 -2.48617935e+00
      -3.21776199e+00 -3.06892204e+00 -2.61825681e+00 -2.44638729e+00
      3.84386826e+00 -4.45342064e+00</_>
    <_>
      -3.21866727e+00 -3.05744028e+00 -2.09036803e+00 -1.25521934e+00
      -1.74613535e+00 -8.70530605e-01 1.96319664e+00 -1.93162429e+00
      -2.78975892e+00 -2.33490515e+00 -2.02414846e+00 -2.02752876e+00
      -1.32845116e+00 -2.55158281e+00 -2.98144221e-01 -1.35414720e+00
      -1.98352718e+00 -1.00752008e+00 -2.08038747e-01 -2.92533469e+00
      -1.41344893e+00 -1.22771227e+00 -1.82324171e+00 -1.05100814e-02
      2.40849435e-01 -1.18414831e+00 -1.12547469e+00 6.86300278e-01
      -3.01793671e+00 -3.16492558e+00 -1.05200636e+00 1.37582707e+00
      1.77255169e-01 2.87479544e+00 -3.35678577e-01 -1.44225490e+00
      -1.71952128e+00 1.24782071e-01 -4.97100502e-01 -1.88796043e+00
      -2.08651829e+00 -2.15957212e+00 9.12349671e-02 -8.69661927e-01
      7.15380609e-01 3.05954552e+00 -7.91211367e-01 -2.01949692e+00
      -1.32364905e+00 -8.63773048e-01 -1.25322163e+00 7.98918724e-01
      -1.59287727e+00 -1.82490325e+00 -2.61825681e+00 -1.02334774e+00
      1.50651240e+00 -2.46862102e+00</_>
    <_>
      5.15664518e-01 1.83834851e-01 5.41292846e-01 3.08756560e-01
      -1.76883340e-01 -3.71762276e-01 7.14532197e-01 -2.55105019e-01
      -2.46355832e-01 2.94987828e-01 9.64622438e-01 9.05311644e-01
      1.74283791e+00 1.50556099e+00 5.95483065e-01 -1.49849102e-01
      1.37224698e+00 1.04419224e-01 1.32898414e+00 7.32843518e-01
      -2.71029443e-01 -1.44255206e-01 1.34427100e-01 -8.04892302e-01
      -4.63807315e-01 1.28742719e+00 6.80002332e-01 -5.96206307e-01
      1.59102964e+00 3.76311421e-01 6.97694197e-02 9.00423646e-01
      1.28072262e+00 4.95408416e-01 1.54330122e+00 1.40291527e-01
      8.78750682e-02 8.23750794e-01 1.00788069e+00 6.02628350e-01
      1.48706901e+00 8.53962421e-01 -2.72124618e-01 -4.46774334e-01
      -4.21805143e-01 -9.15937066e-01 1.21176273e-01 2.24593687e+00
      9.40453827e-01 -7.27961242e-01 -3.40251178e-01 -1.35078657e+00
      -4.56325889e-01 1.05812263e+00 1.45072377e+00 5.79907261e-02
      -5.65423131e-01 1.11371505e+00</_>
    <_>
      -8.99379551e-01 -1.03868771e+00 1.07494093e-01 1.98993251e-01
      -2.10029129e-02 1.00292528e+00 5.59706807e-01 -1.11200964e+00
      -3.24772120e-01 -9.76778567e-01 -8.13070118e-01 -3.13420206e-01
      -4.07556035e-02 -2.40265325e-01 9.16714072e-01 -3.93351853e-01
      -1.08495712e+00 7.70177320e-02 1.95946622e+00 -1.15279603e+00
      -1.09272517e-01 -2.31214195e-01 -1.68607354e-01 -1.81532964e-01
      1.48700392e+00 1.12099659e+00 1.15323198e+00 2.08830094e+00
      -6.76642954e-01 -8.78889501e-01 5.20088255e-01 1.55224049e+00
      4.88467634e-01 1.80841160e+00 -2.32923001e-01 -1.21584213e+00
      3.70270073e-01 -9.80258524e-01 -1.11393380e+00 3.92340988e-01
      7.16218174e-01 -1.05252075e+00 1.07146072e+00 2.22705841e-01
      -8.41730773e-01 -9.50574800e-02 1.08730447e+00 1.74790949e-01
      4.37828481e-01 -4.41659480e-01 -4.76940215e-01 2.41879579e-02
      1.36321843e+00 3.75447363e-01 5.12270927e-01 2.69145274e+00
      2.04213768e-01 8.44294608e-01</_>
    <_>
      2.92246491e-01 -7.29284585e-01 -2.00682834e-01 -6.62916243e-01
      -1.02880609e+00 -4.66824323e-01 6.71047211e-01 -4.66020435e-01
      -4.69069272e-01 -3.85288149e-01 1.84339419e-01 4.36107635e-01
      4.80436683e-01 2.18586087e-01 -5.89794040e-01 -4.40774590e-01
      4.42847639e-01 1.23639905e+00 2.62332821e+00 1.11843884e+00
      -1.41344893e+00 1.33228868e-01 8.82816315e-01 1.03503108e+00
      1.03658164e+00 1.61719370e+00 -7.56062388e-01 -8.57594371e-01
      7.48524606e-01 2.60353982e-01 1.29771399e+00 2.21983865e-02
      -3.27677913e-02 -9.28214967e-01 6.36099800e-02 -6.20960034e-02
      -3.49887431e-01 -3.85832906e-01 4.41764563e-01 9.25070226e-01
      3.91771466e-01 -9.68108833e-01 -4.58070427e-01 -7.87439287e-01
      -7.51105370e-03 6.48214519e-01 2.39703751e+00 -6.52669013e-01
      -4.39315178e-02 -7.29843557e-01 -2.44917065e-01 2.51838863e-01
      1.24546266e+00 -9.90939960e-02 -5.01953661e-01 -1.28133774e+00
      -6.26470566e-01 -4.25147235e-01</_>
    <_>
      -1.87497139e-02 -1.50003254e-01 5.56122839e-01 -8.70259762e-01
      -5.75003207e-01 2.82279074e-01 -1.29069686e+00 -3.80296409e-01
      9.29991305e-02 -4.95917410e-01 -1.41135797e-01 7.79321492e-01
      4.89033423e-02 8.70285630e-01 -5.03756821e-01 2.35861897e-01
      7.93724000e-01 1.13264358e+00 2.28184676e+00 3.61289471e-01
      5.64967334e-01 -5.09820104e-01 1.66348779e+00 8.53227496e-01
      8.31234157e-01 1.19865072e+00 -2.30982494e+00 -7.18557537e-01
      3.88244003e-01 9.16146159e-01 7.34442770e-01 -3.70832682e-01
      2.47157887e-01 -1.49493217e+00 -1.35506022e+00 -9.60200652e-02
      3.96428108e-01 -3.95883247e-02 6.62252545e-01 7.27821887e-01
      6.21085577e-02 4.38533545e-01 -6.53356731e-01 -6.22478664e-01
      5.58671057e-01 6.41826689e-01 1.67748988e+00 5.85620224e-01
      -1.32364905e+00 -6.35461152e-01 -8.10421258e-02 1.17191583e-01
      1.10456920e+00 -8.01753923e-02 -1.54064369e+00 -2.17249811e-01
      -5.99817276e-01 -1.27737880e-01</_>
    <_>
      3.45142543e-01 -3.58568490e-01 5.14378846e-01 1.14101148e+00
      6.20655179e-01 1.57577646e+00 2.42865777e+00 1.02107087e-02
      3.74641865e-01 1.12109017e+00 2.40004823e-01 -3.15894037e-01
      1.38241541e+00 1.97510004e-01 1.04737306e+00 1.05254447e+00
      3.91773999e-01 7.72450507e-01 -1.00701439e+00 -9.59139526e-01
      7.40258140e-04 6.03909671e-01 4.84402955e-01 5.61114728e-01
      1.05432415e+00 9.54131037e-02 5.68997443e-01 1.60852933e+00
      -8.43562007e-01 -7.25998998e-01 -1.10005307e+00 -1.15141273e+00
      -5.46841264e-01 3.51700336e-01 8.44724476e-01 -5.41402996e-01
      -5.55278063e-01 -4.78914559e-01 -1.90904707e-01 -3.82746369e-01
      6.53424338e-02 9.39259827e-02 4.35136497e-01 5.33545375e-01
      1.01621234e+00 1.21451271e+00 -6.20912969e-01 2.82160431e-01
      -1.32364905e+00 2.97423005e-01 6.40350997e-01 6.80192560e-02
      -7.32163310e-01 -4.16766554e-01 8.02172840e-01 1.13739836e+00
      -5.28817713e-01 2.88537532e-01</_>
    <_>
      -3.21866727e+00 -3.05744028e+00 -2.02947712e+00 -1.53930116e+00
      -1.40506136e+00 -5.73000789e-01 -1.29069686e+00 -1.93162429e+00
      -2.61952806e+00 -3.77266973e-01 6.43743336e-01 -1.67743945e+00
      -2.60412097e+00 2.77919918e-01 -3.26373911e+00 -1.11932707e+00
      -1.29511642e+00 -1.06662214e+00 -2.30098152e+00 -8.14494044e-02
      -1.41344893e+00 -9.99261558e-01 -2.75369191e+00 -1.44478917e+00
      -2.28808379e+00 -1.96788824e+00 -3.20030665e+00 -1.24519420e+00
      -2.19340158e+00 -2.28502870e+00 -2.29669404e+00 -8.75290751e-01
      -1.48476636e+00 -3.24851632e+00 -1.35506022e+00 -1.76593673e+00
      -2.05626130e+00 -2.22771257e-01 -4.40111220e-01 -2.12826133e+00
      -2.14053440e+00 -7.58397818e-01 -2.82931924e+00 -2.41207051e+00
      -2.47586608e+00 -2.29933858e+00 -2.59304476e+00 -2.54718333e-01
      -1.32364905e+00 -1.28394818e+00 -2.51541805e+00 -2.12772799e+00
      -2.35615802e+00 -1.27827525e+00 -1.90765631e+00 -1.45284295e+00
      3.14938116e+00 -2.37511444e+00</_>
    <_>
      -1.29771125e+00 -1.59179378e+00 -4.56034094e-01 1.70291185e+00
      5.84619820e-01 -1.42234170e+00 -1.29069686e+00 -8.44703555e-01
      -7.49596059e-01 2.58839846e+00 1.08507252e+00 5.21670938e-01
      9.42284405e-01 3.98076743e-01 -1.06391716e+00 1.98725194e-01
      2.45240986e-01 3.09799135e-01 7.36573815e-01 6.89429224e-01
      8.27669740e-01 -2.83079296e-01 3.99512261e-01 7.65719771e-01
      1.27614450e+00 4.60550606e-01 -4.41188365e-01 -8.58080149e-01
      1.53645253e+00 8.02603424e-01 1.68823099e+00 4.39259827e-01
      -3.44565243e-01 -1.09736013e+00 5.17063916e-01 2.23792166e-01
      5.18390357e-01 1.25136077e-01 1.25964135e-01 -2.92056113e-01
      -8.57158080e-02 2.36283183e-01 -1.92423731e-01 -9.00054038e-01
      -1.14693940e+00 -1.40695834e+00 -5.44008136e-01 5.80647886e-01
      -1.32364905e+00 -8.75117660e-01 -7.29955018e-01 -8.76076639e-01
      -9.15019870e-01 3.31823349e-01 -1.22337632e-01 -2.36680448e-01
      -7.44639397e-01 -9.31397438e-01</_>
    <_>
      1.09652388e+00 -6.22820199e-01 -2.43587300e-01 2.98680425e-01
      -2.82145530e-01 5.93496263e-01 6.51548728e-02 -4.48274493e-01
      -3.12397361e-01 4.81033266e-01 -1.10402219e-02 5.85476100e-01
      6.85247838e-01 1.00700402e+00 -1.49622947e-01 -2.43990228e-01
      6.78271830e-01 5.82709074e-01 9.44366097e-01 6.08568728e-01
      -1.41344893e+00 7.39322156e-02 1.49176431e+00 1.41630173e+00
      8.27042818e-01 -2.71278352e-01 1.56906188e-01 1.16064870e+00
      7.71084487e-01 3.45251590e-01 5.04021406e-01 9.51828599e-01
      -2.32326314e-02 -9.59013104e-01 -2.58087724e-01 -2.45435938e-01
      3.51298720e-01 8.96479368e-01 -3.59949768e-01 -4.29044485e-01
      -3.16978902e-01 8.59414160e-01 -8.06786001e-01 -2.88396895e-01
      -7.57990062e-01 -3.61623645e-01 1.02213860e+00 -1.92144588e-01
      6.04692221e-01 -5.98356724e-01 -8.14776301e-01 -2.85353392e-01
      6.83632851e-01 -1.38393611e-01 -1.71220992e-02 1.58534753e+00
      -3.48686844e-01 3.06823641e-01</_>
    <_>
      -1.72318578e+00 -1.76124799e+00 -1.86500478e+00 -1.79655302e+00
      -1.52670610e+00 -2.54834771e+00 -1.29069686e+00 -1.12508929e+00
      -1.98012936e+00 -7.25152850e-01 -9.28222895e-01 -1.01374054e+00
      -7.07442999e-01 -1.39729154e+00 -2.29486212e-01 -3.16366553e-01
      -1.54611266e+00 -1.15397680e+00 1.52812099e+00 1.24852717e+00
      -1.41344893e+00 1.10270250e+00 9.41332102e-01 2.76457357e+00
      2.06865883e+00 1.53841734e+00 -1.43571913e-01 1.30158150e+00
      1.55015981e+00 5.32373428e+00 2.58731079e+00 -8.77311707e-01
      -5.25266767e-01 -6.30108535e-01 -1.35506022e+00 4.19196272e+00
      3.20080471e+00 -5.79945326e-01 -1.08508277e+00 -1.89347827e+00
      -2.87657952e+00 -2.16911054e+00 1.45954347e+00 -2.18595862e-01
      -1.53916883e+00 -1.62585354e+00 -1.06619632e+00 -1.10377717e+00
      -1.32364905e+00 3.26906562e-01 -4.84339446e-01 -2.38611326e-01
      -1.22658551e+00 -1.88990247e+00 -1.44781578e+00 6.34310126e-01
      4.29439157e-01 1.84263453e-01</_>
    <_>
      -1.91137576e+00 4.74291295e-01 -2.68219084e-01 -1.18030918e+00
      -1.02848780e+00 -1.19040084e+00 -1.29069686e+00 8.25265944e-01
      8.01515520e-01 7.04911479e-04 -4.90641385e-01 3.11781853e-01
      4.31012586e-02 -6.42489076e-01 3.00263286e+00 3.27093840e+00
      1.60059786e+00 1.26709294e+00 -1.31690294e-01 -1.32092762e+00
      -1.41344893e+00 4.91102123e+00 3.48892212e+00 1.71848869e+00
      -4.81303722e-01 -2.56681824e+00 -1.29115832e+00 1.87531233e+00
      2.99827337e-01 -9.37555730e-01 -1.84718668e+00 -1.97131097e+00
      -1.84326613e+00 -1.35694623e+00 -1.35506022e+00 3.11590314e-01
      -1.56180191e+00 -2.46763563e+00 -1.57062614e+00 -2.75336623e+00
      -2.16505170e+00 -7.40873337e-01 1.43890309e+00 -2.12765813e+00
      -2.08569145e+00 -1.35423467e-01 1.81877649e+00 -8.93000066e-01
      -1.32364905e+00 -8.38524401e-01 -1.07218444e+00 2.12980843e+00
      7.52844572e-01 -1.25044692e+00 -1.82371581e+00 3.58351636e+00
      4.75999504e-01 7.70371497e-01</_>
    <_>
      -9.66524661e-01 -3.72052342e-01 -2.73339719e-01 -4.54696327e-01
      -8.23375523e-01 -3.06177199e-01 -1.29069686e+00 6.01672947e-01
      -2.87763983e-01 -1.12896883e+00 -7.86002934e-01 -9.26141381e-01
      -1.26512313e+00 -1.19596124e+00 1.25631243e-01 -7.82270193e-01
      -5.95160902e-01 -1.83509141e-01 -1.77507067e+00 -1.21732032e+00
      2.36611530e-01 -4.94964629e-01 -9.14867342e-01 -5.32476246e-01
      8.78598928e-01 -5.41617990e-01 1.01476324e+00 1.06867529e-01
      -1.17053270e+00 1.22833900e-01 4.33964938e-01 1.15850878e+00
      5.66673100e-01 4.48054266e+00 2.71754050e+00 7.49560744e-02
      4.38140363e-01 1.13088679e+00 3.24296981e-01 6.29714012e-01
      5.89195728e-01 -1.21513212e+00 7.42478311e-01 1.47519910e+00
      5.99173605e-01 -4.23216224e-02 2.06384912e-01 -1.01311934e+00
      7.82376230e-01 5.72718680e-01 4.58495885e-01 7.24891782e-01
      2.50586700e+00 -4.44064826e-01 2.99052596e-01 -3.56458485e-01
      -4.78292823e-01 7.31686294e-01</_>
    <_>
      -1.23551393e+00 -5.51831961e-01 1.13760149e+00 -2.01547876e-01
      -6.50454879e-01 2.11949754e+00 1.20951092e+00 -7.47270525e-01
      -5.82994461e-01 -1.16634417e+00 -1.42482030e+00 -4.84594852e-01
      5.99473715e-01 -1.87249279e+00 1.61403871e+00 7.23140389e-02
      -1.46171236e+00 -1.63558698e+00 -1.07457638e+00 -1.95074189e+00
      3.67533773e-01 1.03146327e+00 4.54942524e-01 -4.46956336e-01
      2.97693610e+00 1.35787678e+00 -1.75534105e+00 9.88862991e-01
      -1.07772028e+00 -2.27910802e-01 2.87483191e+00 3.96328956e-01
      -5.30409396e-01 4.63133192e+00 3.03148794e+00 -2.53577620e-01
      2.17198864e-01 -7.85395384e-01 -1.67859077e+00 2.21180648e-01
      7.04313099e-01 -2.07176447e+00 1.62435579e+00 1.28305852e+00
      -1.56802833e+00 -1.20879221e+00 -1.50719917e+00 -1.61224711e+00
      -1.32364905e+00 1.00299132e+00 9.48930502e-01 -2.87548453e-02
      2.78908944e+00 -1.27792716e-01 -8.43557060e-01 1.18926978e+00
      -3.16950023e-01 1.34651136e+00</_>
    <_>
      -3.21866727e+00 -3.05744028e+00 -2.78552532e+00 -2.07525420e+00
      -2.23538065e+00 -2.54834771e+00 -1.29069686e+00 -1.93162429e+00
      -3.32522583e+00 -2.33490515e+00 -1.36384344e+00 -1.61845160e+00
      -2.60412097e+00 -2.55158281e+00 -3.26373911e+00 -3.33850384e+00
      -1.37852967e+00 7.36502826e-01 -7.54676759e-01 -2.08775282e+00
      -1.41344893e+00 -1.56198704e+00 -3.11901116e+00 2.12002903e-01
      1.78652644e+00 -8.47338378e-01 -2.27578139e+00 -2.33924723e+00
      -3.01793671e+00 -9.64640498e-01 1.38301957e+00 -9.27146375e-01
      -2.58332849e+00 -3.24851632e+00 -1.35506022e+00 -1.29134560e+00
      -2.14064097e+00 -2.94637465e+00 -2.53545880e+00 -4.05738783e+00
      -2.87657952e+00 -2.84386849e+00 -2.82931924e+00 -2.88422728e+00
      -3.25209546e+00 -3.03281736e+00 -3.76836896e+00 -2.68555546e+00
      -1.32364905e+00 -1.58856797e+00 -2.51541805e+00 -2.48617935e+00
      -3.21776199e+00 -3.06892204e+00 -2.61825681e+00 -2.44638729e+00
      2.99215722e+00 -4.09779978e+00</_>
    <_>
      1.88680828e+00 1.41434634e+00 1.15555322e+00 1.37133777e+00
      1.67340904e-01 1.19617553e-02 7.39880383e-01 -8.46946146e-03
      -3.58297616e-01 6.97709203e-01 1.34860063e+00 -5.23300469e-01
      4.33897495e-01 -1.90337658e-01 -1.20351839e+00 -6.40123010e-01
      -6.70677245e-01 -1.52231824e+00 -5.54416418e-01 -6.05726540e-01
      -1.41344893e+00 -5.66614509e-01 -1.06893170e+00 -1.30097902e+00
      -9.48442519e-01 -1.25893617e+00 -5.64200759e-01 -1.41635191e+00
      1.30315399e+00 -5.86034954e-01 -9.79393661e-01 -6.93018138e-01
      1.11381434e-01 -1.18399656e+00 -2.37370223e-01 5.23543311e-03
      -6.61358908e-02 6.18067801e-01 1.57610655e+00 1.11833310e+00
      1.96414196e+00 1.04764140e+00 -5.19002438e-01 2.92286068e-01
      1.15742397e+00 -2.02876449e-01 1.51481271e+00 1.37620962e+00
      3.83800536e-01 4.63015586e-01 1.17695117e+00 2.01676358e-02
      4.37805653e-01 1.00652468e+00 -1.79863840e-01 -1.54912019e+00
      -5.36015332e-01 -2.04894036e-01</_>
    <_>
      3.04397774e+00 2.62074423e+00 3.90510798e-01 -8.10785592e-01
      -1.27389538e+00 -8.60535681e-01 4.88806069e-01 4.81795502e+00
      3.27379704e+00 1.46437421e-01 -1.10025930e+00 -1.59059787e+00
      -4.73873109e-01 -7.77851820e-01 1.78942811e+00 1.56634223e+00
      -9.98257339e-01 -2.51792121e+00 -2.26771164e+00 -1.27414477e+00
      -1.41344893e+00 3.00489473e+00 -1.11331314e-01 -2.22862840e+00
      -2.79781485e+00 -2.21539593e+00 -2.00709867e+00 -8.94700646e-01
      1.08303475e+00 -9.10463154e-01 -1.93926585e+00 -1.99144351e+00
      -1.87658596e+00 -1.42423844e+00 -1.35506022e+00 8.51288497e-01
      -4.82609868e-01 -1.33646595e+00 -1.37760997e+00 -1.33720279e+00
      1.48342222e-01 -7.78205320e-02 2.92448938e-01 7.09063113e-01
      -1.28277278e+00 -1.40949631e+00 -3.43985200e-01 5.80863714e-01
      9.07027364e-01 2.10415220e+00 6.95516884e-01 -9.65586379e-02
      -7.62573779e-01 -1.12212822e-01 2.14011714e-01 -1.07042134e+00
      1.81465626e+00 1.36603093e+00</_>
    <_>
      -2.14784575e+00 -3.05744028e+00 -2.78552532e+00 -2.07525420e+00
      -2.23538065e+00 -1.85396302e+00 -1.29069686e+00 -1.93162429e+00
      -3.32522583e+00 -2.33490515e+00 -2.02414846e+00 -2.48135543e+00
      -1.80718446e+00 -1.19044101e+00 7.49169111e-01 -3.33850384e+00
      -2.30430293e+00 -6.06808364e-01 -1.54928952e-01 -9.63602424e-01
      -1.41344893e+00 -2.12348437e+00 -2.66374993e+00 2.71326756e+00
      2.04328442e+00 -1.53420174e+00 1.68025807e-01 1.25423813e+00
      -3.01793671e+00 -1.40057778e+00 -1.63550758e+00 -1.65239501e+00
      -1.94065595e+00 -1.62282968e+00 -1.35506022e+00 -1.05245161e+00
      -3.18435287e+00 -3.23077559e+00 -2.36763859e+00 -2.06579280e+00
      -2.27124476e+00 -1.73860705e+00 -1.16060066e+00 -2.88422728e+00
      -2.86342120e+00 -1.54604113e+00 -8.29808354e-01 -2.68555546e+00
      -1.32364905e+00 -1.22560322e+00 -2.51541805e+00 -8.23407173e-02
      -3.62320453e-01 -2.49687052e+00 -2.61825681e+00 8.78208995e-01
      2.52692580e+00 -1.10642469e+00</_>
    <_>
      -1.40276468e+00 -8.28797936e-01 -1.69061542e-01 -1.61027980e+00
      -2.23538065e+00 -1.93531632e-01 4.78149503e-01 -7.26319432e-01
      -1.23898292e+00 -2.07317543e+00 -2.02414846e+00 -2.11138916e+00
      -1.79812312e+00 -2.55158281e+00 7.13611782e-01 -1.64136386e+00
      -1.94615078e+00 -5.04539847e-01 -1.64975429e+00 -2.92533469e+00
      -1.41344893e+00 5.96211478e-02 -1.48199427e+00 4.20191050e-01
      3.43171358e+00 -5.12047946e-01 -1.55570471e+00 2.06372094e+00
      -2.19497275e+00 -5.42118669e-01 1.64801645e+00 6.69428051e-01
      -4.45207119e-01 1.96376777e+00 2.04536581e+00 -1.72473267e-01
      3.35138410e-01 -2.11248487e-01 -1.42777050e+00 -5.33014297e-01
      1.24419808e-01 -2.84386849e+00 2.44555449e+00 5.23640990e-01
      -1.11204600e+00 -1.09034383e+00 -5.09845078e-01 -1.61711848e+00
      -1.32364905e+00 8.57581079e-01 6.10773042e-02 5.42743504e-01
      4.81147814e+00 -1.34083200e+00 -1.77615547e+00 5.83645403e-01
      -3.95098180e-01 3.72605920e-01</_>
    <_>
      -7.32794583e-01 -7.04086483e-01 -3.50279689e-01 1.53709543e+00
      -3.54115367e-01 -6.16564989e-01 -1.29069686e+00 -1.84653848e-01
      -9.50818717e-01 -3.29713047e-01 -1.10672402e+00 -5.35777330e-01
      -7.52170086e-01 -7.84571171e-01 4.81684595e-01 5.14722109e-01
      -9.24518466e-01 1.34696567e+00 5.46571687e-02 -7.04055786e-01
      -3.75900775e-01 6.03265107e-01 2.69356549e-01 2.98199439e+00
      -4.14006382e-01 -8.97994339e-01 -3.52158576e-01 5.57049572e-01
      9.51481089e-02 1.23387194e+00 6.21580005e-01 1.32239193e-01
      -5.32408237e-01 -9.45373356e-01 -1.35506022e+00 8.55481923e-01
      4.52817053e-01 -2.36562639e-01 -7.83558130e-01 -3.28663108e-03
      -1.04340971e+00 -1.03282559e+00 4.53949273e-02 -1.04185534e+00
      -4.75990534e-01 1.58892739e+00 2.13416829e-03 -4.44326907e-01
      -1.62736252e-01 -3.95916194e-01 -5.13309717e-01 1.74392834e-01
      -4.95951861e-01 3.05274934e-01 5.41867495e-01 5.64269023e-03
      -1.88295171e-01 -7.82543182e-01</_>
    <_>
      2.83317566e-01 2.76964493e-02 -2.74643302e-01 1.44481301e-01
      9.92664814e-01 1.91162992e+00 1.67937195e+00 -1.22999772e-01
      3.94406587e-01 -2.77182728e-01 4.40810144e-01 1.03237855e+00
      1.63879633e+00 1.35334682e+00 1.40039074e+00 6.51953220e-01
      4.21430230e-01 3.30929458e-01 1.89328694e+00 9.29821730e-01
      1.06303024e+00 2.33886810e-03 7.74579644e-01 -2.26383924e-01
      5.42731166e-01 1.09262204e+00 6.83454037e-01 1.30843472e+00
      9.61361349e-01 4.18124735e-01 -1.21320672e-01 1.00012988e-01
      9.16936219e-01 7.24521577e-01 -2.49180689e-01 1.55097783e-01
      2.53863126e-01 -9.29084301e-01 4.11066264e-01 1.23853505e+00
      -3.76684889e-02 1.16183901e+00 8.34279776e-01 3.58604677e-02
      -2.92227715e-01 -4.92319256e-01 9.67157125e-01 1.96023607e+00
      1.67764497e+00 -4.97800708e-01 -1.85866226e-02 -9.48725045e-01
      3.24608088e-01 5.52682936e-01 1.93064320e+00 1.70130479e+00
      -2.83174127e-01 1.31281042e+00</_>
    <_>
      9.76442993e-01 2.11787057e+00 5.61568558e-01 -4.07454222e-01
      -7.80859113e-01 -3.43671948e-01 -1.29069686e+00 1.34440291e+00
      1.66928613e+00 -2.53271997e-01 -9.89315987e-01 1.75096244e-01
      3.80592165e-03 -5.05470872e-01 1.09067798e+00 7.37243176e-01
      -5.19743264e-01 -1.11167204e+00 -1.13558340e+00 -6.35024965e-01
      -9.88906622e-02 9.24926877e-01 9.17041898e-01 -1.37999177e-01
      -1.10859060e+00 -1.03785312e+00 -8.71115983e-01 4.58537012e-01
      -3.55150610e-01 3.88329685e-01 -6.03159487e-01 -8.41828644e-01
      -5.09237170e-01 4.14834529e-01 1.75825208e-01 6.03790879e-01
      -2.95227557e-01 -5.35166442e-01 -1.22621167e+00 2.41658017e-01
      3.33748036e-03 -4.11210120e-01 1.18667591e+00 9.08319294e-01
      6.20755196e-01 6.84987068e-01 1.12486994e+00 4.28147018e-01
      6.60161734e-01 8.22087884e-01 1.35882103e+00 2.41546655e+00
      1.39422214e+00 4.50268924e-01 1.73796579e-01 9.86203253e-01
      7.26094544e-02 6.90595090e-01</_>
    <_>
      -1.66371930e+00 -1.51955676e+00 -1.02898979e+00 -2.07525420e+00
      -1.59123600e+00 -1.74985945e+00 -1.29069686e+00 -1.04751694e+00
      -1.56240535e+00 -2.33490515e+00 -2.02414846e+00 -3.08343410e+00
      -1.33734322e+00 -2.55158281e+00 1.44537437e+00 -1.74500251e+00
      -1.79680622e+00 9.15084839e-01 -5.22813678e-01 -2.16367269e+00
      -1.41344893e+00 -1.95275128e-01 -1.26618302e+00 6.17784202e-01
      3.31706095e+00 -3.71059030e-01 -1.76590055e-01 3.17691755e+00
      -1.80609703e+00 -7.79582858e-01 1.98451602e+00 2.50701427e-01
      -5.93772769e-01 2.70082355e+00 1.54905021e+00 -5.96800685e-01
      4.64592159e-01 -8.99173260e-01 -1.48247612e+00 -5.58497235e-02
      -1.87756583e-01 -2.84386849e+00 2.54334021e+00 2.24401891e-01
      -1.10213077e+00 2.91845769e-01 -6.70755327e-01 -2.68555546e+00
      -1.32364905e+00 2.26115301e-01 2.61813670e-01 6.87525272e-01
      4.15683222e+00 -2.21889734e+00 -2.61825681e+00 1.32428324e+00
      -5.06233752e-01 2.26400882e-01</_>
    <_>
      1.87639654e+00 1.49108386e+00 1.88105702e-01 5.59547305e-01
      7.45405555e-01 4.36492354e-01 -8.01272243e-02 8.57689977e-01
      8.03419471e-01 1.48499191e+00 6.50608420e-01 -1.41843492e-02
      -1.65660053e-01 7.20567226e-01 -7.70205796e-01 1.17499113e+00
      1.84883982e-01 -1.27216005e+00 -1.25960886e+00 -5.07994175e-01
      3.53786871e-02 9.55388129e-01 8.12520444e-01 -1.24723542e+00
      -1.20635819e+00 -1.15032697e+00 -5.20677686e-01 -1.34368300e+00
      1.97200507e-01 -2.75755435e-01 -1.21198106e+00 -8.07325363e-01
      -1.44120917e-01 -1.22701275e+00 2.00567871e-01 -8.25940296e-02
      -6.75834566e-02 1.13141823e+00 1.36453521e+00 1.71623492e+00
      1.12847888e+00 1.02966797e+00 -1.72434613e-01 1.19265234e+00
      1.84178352e+00 -4.35926080e-01 3.15588742e-01 1.70809937e+00
      6.52690887e-01 9.63212848e-01 1.58622921e+00 -5.06793857e-01
      -1.24762022e+00 1.05339825e+00 -2.16435134e-01 -1.09924388e+00
      -2.29825467e-01 5.57763875e-01</_>
    <_>
      -5.76693475e-01 -4.14672971e-01 -2.82638669e-01 1.44817512e-02
      1.99216932e-01 2.30980635e-01 -1.29069686e+00 -1.06281489e-02
      5.73708490e-02 8.50672796e-02 1.78064895e+00 5.04752696e-01
      -9.37367320e-01 1.02973998e+00 -3.45068127e-01 -5.27391791e-01
      5.44022083e-01 5.28794050e-01 3.91581565e-01 1.34639394e+00
      9.84115362e-01 -3.58413421e-02 -2.61084825e-01 -2.98538953e-01
      -8.89333859e-02 -1.05736688e-01 3.24685782e-01 1.11861914e-01
      -6.26685917e-01 -7.07475841e-02 -1.72141984e-01 -4.34657604e-01
      1.59814641e-01 -2.41869003e-01 -1.35506022e+00 1.98581085e-01
      2.49467120e-01 3.78548592e-01 2.48674202e+00 -3.76873687e-02
      -5.48165679e-01 4.66064125e-01 -1.49095103e-01 -7.93501735e-01
      -8.28849971e-02 -6.37084961e-01 -8.39244545e-01 1.64014295e-01
      1.86120248e+00 -4.12032753e-01 -9.05564547e-01 -8.58701944e-01
      -2.11488351e-01 5.25557660e-02 4.26902831e-01 2.04783872e-01
      -1.39862746e-01 -2.88910687e-01</_>
    <_>
      3.23096126e-01 -2.48785168e-01 1.25539660e+00 2.32845917e-02
      -1.29065633e+00 9.87911224e-01 2.74208260e+00 -1.17392039e+00
      -1.50202918e+00 -5.14778614e-01 -8.10597062e-01 -1.06207800e+00
      1.47635117e-01 -7.76313245e-01 -5.54695949e-02 -2.83439487e-01
      -9.90094662e-01 -8.66466463e-01 -9.40427899e-01 -1.20153582e+00
      -3.46250772e-01 -2.50919491e-01 -6.95392787e-01 -8.59266937e-01
      9.15877461e-01 9.84408915e-01 -8.95692468e-01 -5.90143740e-01
      -1.70774847e-01 -2.98438996e-01 2.57026744e+00 1.27679479e+00
      1.04982066e+00 3.68851614e+00 3.38721442e+00 -1.97526291e-01
      -1.62364598e-02 -6.03247285e-01 -3.72682452e-01 1.07340050e+00
      2.64076829e+00 -9.69167888e-01 4.69235182e-01 1.46013415e+00
      -4.74700123e-01 -4.26021188e-01 1.33930814e+00 -2.03301609e-01
      -1.32364905e+00 8.36969495e-01 9.09487844e-01 4.68952283e-02
      2.37329769e+00 4.51374531e-01 -2.98493207e-01 -7.91727841e-01
      -4.93324488e-01 1.18845046e+00</_>
    <_>
      -5.64524770e-01 -6.39640391e-01 4.77607697e-01 7.80534863e-01
      -3.88588458e-01 3.36772501e-02 1.54478920e+00 1.42940611e-01
      9.25818324e-01 4.97688651e-01 -7.27743581e-02 5.94172120e-01
      3.36842149e-01 -8.35441709e-01 -2.47057840e-01 7.20224261e-01
      1.02088380e+00 1.93332255e+00 -1.10395983e-01 -3.43880415e-01
      4.52293843e-01 6.18333995e-01 9.23837900e-01 -2.26687506e-01
      1.03339338e+00 2.88614426e-02 -2.52893806e-01 4.14289743e-01
      -1.08106863e+00 -2.41052955e-01 8.20433438e-01 2.98088074e-01
      -8.14593077e-01 -4.36533749e-01 2.76441026e+00 -1.58158779e-01
      -6.76443994e-01 -8.94227386e-01 -6.99077845e-01 -4.26612198e-01
      -1.89347997e-01 -2.17975235e+00 3.58964622e-01 1.63260493e-02
      -4.97743934e-01 1.12520301e+00 -2.40340531e-01 -7.47840762e-01
      9.28449929e-01 2.04687163e-01 -1.23196557e-01 -5.54641545e-01
      8.72124255e-01 -2.05402419e-01 1.52444553e+00 1.31446707e+00
      -5.02806604e-01 5.97521961e-01</_>
    <_>
      -1.51655090e+00 -1.97127020e+00 -2.78552532e+00 -2.07525420e+00
      -2.23538065e+00 -2.54834771e+00 -1.29069686e+00 -1.17270279e+00
      -2.34917998e+00 -2.33490515e+00 -2.02414846e+00 -2.71120381e+00
      -2.60412097e+00 -2.55158281e+00 -1.96212983e+00 -2.23664069e+00
      -2.21971726e+00 -5.45168161e-01 9.76227283e-01 -6.42455757e-01
      -1.41344893e+00 -6.78555429e-01 -1.68895733e+00 4.15572405e+00
      2.30353928e+00 5.37472486e-01 -1.18670928e+00 -1.08977449e+00
      -1.80627018e-01 1.97214329e+00 1.51177371e+00 3.77855003e-01
      -8.78309071e-01 -8.97996068e-01 -1.52671233e-01 1.55283725e+00
      1.24572492e+00 9.33375239e-01 -5.19264698e-01 -7.92896152e-01
      -2.18490267e+00 -2.84386849e+00 -7.71122947e-02 -9.66706276e-02
      -1.03996265e+00 1.52433097e+00 3.23427409e-01 -2.68555546e+00
      -1.32364905e+00 -7.20363436e-03 3.81219089e-01 1.66084325e+00
      -1.59959543e+00 -3.06892204e+00 -2.61825681e+00 -1.73223221e+00
      -2.52236217e-01 -1.88404357e+00</_>
    <_>
      -2.65970564e+00 -1.67856729e+00 -8.27172995e-01 -1.76557410e+00
      -2.23538065e+00 -1.42277253e+00 -1.29069686e+00 -8.24315250e-01
      -1.91340530e+00 -2.08585525e+00 -1.85110235e+00 -2.35768270e+00
      -1.30427456e+00 -2.55158281e+00 9.11291063e-01 -1.62656629e+00
      -1.67047215e+00 8.99368584e-01 -1.06485605e+00 -2.12656403e+00
      -1.41344893e+00 -3.37340146e-01 -1.71237779e+00 8.24425757e-01
      3.37289095e+00 -1.87085092e-01 2.99879730e-01 3.41828346e+00
      -1.65768158e+00 -8.53573918e-01 1.98813081e+00 -5.70523404e-02
      -8.98605771e-03 2.97073221e+00 4.32605624e-01 -2.22122297e-01
      3.04693192e-01 -8.48870218e-01 -1.58959031e+00 -2.47013137e-01
      -8.07896316e-01 -2.84386849e+00 2.29631281e+00 4.76672441e-01
      -8.58117759e-01 3.75506729e-01 -4.93351191e-01 -1.94783854e+00
      -1.32364905e+00 2.67720520e-01 3.90337676e-01 8.76863480e-01
      3.92633796e+00 -2.27798271e+00 -2.61825681e+00 8.50901186e-01
      -4.43270206e-01 -2.07592119e-02</_>
    <_>
      -2.11974573e+00 -2.08207774e+00 -1.85731196e+00 -2.07525420e+00
      -1.11126804e+00 -3.89873624e-01 -1.29069686e+00 -1.93162429e+00
      -1.99473155e+00 -1.93272507e+00 -1.73545671e+00 -1.67822254e+00
      -2.60412097e+00 -2.55158281e+00 -4.35611784e-01 -1.50477719e+00
      -2.05159664e+00 6.76770270e-01 -5.37211895e-01 -2.17987990e+00
      -1.41344893e+00 -1.75449800e+00 -3.61214972e+00 1.07449567e+00
      -1.39318228e+00 -2.38080597e+00 5.90639226e-02 1.83456874e+00
      -3.01793671e+00 -2.72821379e+00 -2.29135537e+00 -1.94451988e+00
      -1.79704797e+00 -1.13939023e+00 -1.35506022e+00 -1.31615674e+00
      -1.68570220e+00 -2.35253930e+00 -1.88090062e+00 -2.02798843e+00
      -2.87657952e+00 -2.84386849e+00 7.99098313e-02 -1.50371289e+00
      -2.18675923e+00 6.00602627e-02 8.55143666e-02 -2.68555546e+00
      -1.32364905e+00 -1.14132845e+00 -1.84481514e+00 -1.74821988e-01
      -1.46408546e+00 -2.08341312e+00 2.61213034e-01 1.91681302e+00
      2.86410236e+00 -1.39747369e+00</_>
    <_>
      -9.68891680e-01 3.37187409e-01 -2.74137765e-01 1.94696531e-01
      -9.44083929e-01 -1.34513402e+00 -1.29069686e+00 7.38653719e-01
      1.34313297e+00 1.77794480e+00 -7.37948641e-02 -7.58579671e-01
      -2.46827826e-01 8.14361513e-01 -3.45381141e-01 2.07007861e+00
      -2.55949348e-01 -1.92002130e+00 -1.36582088e+00 -1.10287583e+00
      -1.41344893e+00 1.49250388e+00 9.95747089e-01 -1.43368828e+00
      -2.09082937e+00 -1.90163529e+00 -3.20030665e+00 -2.33924723e+00
      -2.09827423e-01 2.56220758e-01 -9.59426463e-01 4.96463358e-01
      -2.02886391e+00 -2.38598490e+00 -1.35506022e+00 -1.25995547e-01
      -8.82202610e-02 -4.80936468e-01 -1.53054547e+00 -1.86682117e+00
      -9.63654399e-01 -4.22277421e-01 -1.52332664e+00 -4.73638326e-01
      -1.27143097e+00 1.42369673e-01 -2.88682508e+00 -1.23282611e+00
      8.02749768e-03 6.12735093e-01 1.89767867e-01 -8.53597760e-01
      -2.40444040e+00 -1.07927084e+00 -1.72636342e+00 -2.44638729e+00
      1.88991261e+00 -6.88684988e-04</_>
    <_>
      -2.30330968e+00 -7.69128144e-01 -7.96082497e-01 -4.07346338e-01
      -1.73754752e+00 -2.54834771e+00 -1.18634187e-01 -1.11131108e+00
      -2.09539175e+00 -1.86047864e+00 -2.02414846e+00 -2.45748973e+00
      -2.60412097e+00 -2.55158281e+00 -2.47795296e+00 -3.33850384e+00
      -2.54363418e+00 -1.50708055e+00 -2.55847716e+00 -2.92533469e+00
      -1.41344893e+00 -2.12348437e+00 -3.61214972e+00 -1.60112214e+00
      -1.50204718e+00 -3.48782635e+00 -3.20030665e+00 -8.15330327e-01
      -3.01793671e+00 -2.78504205e+00 -3.08904266e+00 -2.50527406e+00
      -3.12924457e+00 -2.32718992e+00 -4.88287397e-02 -1.76593673e+00
      -3.18435287e+00 -2.99843884e+00 -2.18328381e+00 -2.39239526e+00
      -1.36765790e+00 -2.27401829e+00 -1.96788907e+00 -1.94633734e+00
      -2.72815704e+00 -2.24323940e+00 -1.32228720e+00 -2.04279923e+00
      -1.32364905e+00 -8.83325875e-01 -1.58919930e+00 -8.46879959e-01
      1.99354386e+00 -6.66145504e-01 -2.61825681e+00 -1.04650855e+00
      3.25100350e+00 -3.05887556e+00</_>
    <_>
      -1.42671251e+00 -2.15464973e+00 -1.86037111e+00 -1.60084498e+00
      -2.23538065e+00 -6.99398518e-01 -1.29069686e+00 -8.11408937e-01
      -1.65523994e+00 -1.53046048e+00 -1.42555940e+00 -5.99656880e-01
      -4.08529907e-01 -6.04402840e-01 -8.81288707e-01 2.13497654e-01
      -6.48921072e-01 -4.72302824e-01 2.03106904e+00 1.17410791e+00
      5.15031278e-01 1.56930423e+00 1.55228496e+00 1.87975645e+00
      4.09594107e+00 2.49962020e+00 1.09164398e-02 -2.56961256e-01
      1.08389533e+00 4.54907370e+00 3.10463262e+00 -5.30605257e-01
      -6.04464173e-01 -1.51146066e+00 -1.35506022e+00 2.42083669e+00
      2.28194022e+00 -4.12114084e-01 -1.44122458e+00 -1.99365032e+00
      -1.41618192e+00 -9.73002791e-01 5.44165254e-01 -2.34229907e-01
      -2.14590049e+00 -2.21604633e+00 -2.38678813e+00 -1.81064129e+00
      -1.32364905e+00 -1.87165529e-01 -1.16423786e+00 -1.72590137e+00
      -2.61577868e+00 -2.47929335e+00 -2.61825681e+00 -1.68915236e+00
      5.59766948e-01 -1.04924338e-02</_>
    <_>
      -1.27629399e+00 -1.04073739e+00 -6.83289647e-01 3.59024376e-01
      -4.39989179e-01 -1.26784563e+00 -1.29069686e+00 -2.08939016e-01
      -8.52676868e-01 9.37064439e-02 8.10463428e-02 -6.23751320e-02
      -8.95348012e-01 -4.52485859e-01 -1.67101407e+00 -1.29517460e+00
      -3.35102916e-01 8.32524151e-03 -5.19698024e-01 -6.92153096e-01
      1.48007214e+00 -8.09117436e-01 -5.80514252e-01 4.48432058e-01
      1.67444742e+00 6.27643704e-01 -1.56963080e-01 4.82276469e-01
      2.09419116e-01 -3.98583829e-01 1.28989708e+00 1.58618760e+00
      2.29961276e-01 -1.13275163e-01 -3.48342061e-01 -1.21963792e-01
      9.53456610e-02 7.15419948e-01 2.51628786e-01 -1.20821506e-01
      -1.13686633e+00 -2.10054234e-01 -5.09440064e-01 -5.24753749e-01
      -3.28725249e-01 1.52336374e-01 -8.57578337e-01 -2.84896314e-01
      -1.32364905e+00 -6.74848557e-01 -1.27213073e+00 4.93782729e-01
      6.81284845e-01 -3.48967731e-01 -1.22536790e+00 -3.64003450e-01
      -8.61386135e-02 -9.18880641e-01</_>
    <_>
      9.28468525e-01 -7.42038488e-01 -2.66000945e-02 -1.00131072e-01
      4.25395221e-01 6.09041214e-01 -1.71338528e-01 -4.78038698e-01
      -1.79855317e-01 6.87044203e-01 8.62154245e-01 9.64368641e-01
      1.27179956e+00 1.75745952e+00 2.16713287e-02 2.90418595e-01
      1.01444829e+00 8.33455980e-01 9.05480564e-01 4.83620137e-01
      1.27584755e+00 -2.53366679e-01 7.40464509e-01 2.87550520e-02
      1.17953205e+00 -1.39375791e-01 7.01137662e-01 1.12118030e+00
      1.20457315e+00 -4.02145445e-01 3.07821035e-01 5.04907131e-01
      5.04715741e-01 1.42149672e-01 4.92230028e-01 -2.34150454e-01
      -5.69393113e-03 5.81170261e-01 4.68652278e-01 -5.10272682e-01
      3.66200000e-01 1.41103351e+00 6.93969786e-01 -3.56976986e-01
      -7.31616735e-01 -6.27424121e-01 -3.52142006e-01 2.24928573e-01
      -8.68945271e-02 -1.49392843e-01 -5.08693397e-01 -7.46805549e-01
      -5.20472288e-01 1.67655423e-01 3.31806600e-01 4.81679350e-01
      -2.97771126e-01 6.66821599e-01</_>
    <_>
      1.35075942e-01 1.17241848e+00 4.78404909e-01 1.22579455e+00
      -8.77990946e-02 -1.89413559e+00 -1.29069686e+00 3.34403372e+00
      3.62436461e+00 1.87244868e+00 2.23790899e-01 -8.34203303e-01
      -1.32464480e+00 -5.81726134e-01 6.62109926e-02 1.06154621e+00
      6.72745466e-01 -6.92208052e-01 -1.22784781e+00 -1.78626573e+00
      -1.41344893e+00 1.20219350e+00 -9.92767632e-01 -8.37814391e-01
      -1.52784908e+00 -1.27108002e+00 -1.27177513e+00 -1.07829130e+00
      -1.19507861e+00 -1.40519166e+00 -1.97797811e+00 -5.23882389e-01
      -1.76315415e+00 -1.38211381e+00 -1.35506022e+00 -4.33271825e-01
      -1.11666322e+00 1.22007799e+00 -7.98945785e-01 -8.86696041e-01
      -1.16455781e+00 -1.15289819e+00 -1.50004363e+00 2.10190669e-01
      -1.58593035e+00 -1.00227809e+00 -1.04854620e+00 -7.46926129e-01
      -8.25185776e-02 7.23774731e-01 -1.52253807e-01 1.04404330e+00
      1.91789579e+00 -6.72146901e-02 1.87556483e-02 3.12291265e-01
      5.99552751e-01 -4.92007971e-01</_>
    <_>
      -1.18469882e+00 4.86387968e-01 7.17761099e-01 -4.15861040e-01
      -8.98151696e-01 5.46602130e-01 -1.29069686e+00 1.71746343e-01
      1.09381068e+00 -8.26047421e-01 -3.80017400e-01 4.62907672e-01
      -1.42272484e+00 -9.69875455e-01 2.01500845e+00 -2.51563489e-02
      1.18787622e+00 3.13502383e+00 6.02087080e-01 -7.72413015e-01
      2.24585161e-01 -3.61979216e-01 -6.64151073e-01 4.87297237e-01
      -8.66031647e-02 -1.16627562e+00 1.26759267e+00 1.31212378e+00
      -1.38279092e+00 -8.78866017e-01 -6.19667768e-01 -1.05021238e+00
      -9.06561971e-01 4.44064945e-01 -1.35506022e+00 -1.25831962e-01
      -5.25605619e-01 -1.79156506e+00 -1.43388402e+00 -4.94297057e-01
      -1.45894945e+00 -8.45287085e-01 8.14866185e-01 -6.23446226e-01
      -3.70303571e-01 2.50361037e+00 1.38623571e+00 9.65292513e-01
      1.39866245e+00 -8.66109192e-01 -2.92531252e-01 7.36890018e-01
      9.23639715e-01 2.43529752e-01 2.55620885e+00 1.65421999e+00
      -4.85161185e-01 9.12603021e-01</_>
    <_>
      3.87132972e-01 -9.94053185e-01 8.77254382e-02 8.42500806e-01
      2.59097636e-01 2.05891073e-01 5.61053038e-01 -7.56940424e-01
      -6.18372023e-01 4.52474117e-01 6.44633591e-01 -1.92541271e-01
      2.58044422e-01 8.97039533e-01 -7.66379118e-01 -5.87148070e-01
      -7.97471255e-02 -1.13766134e+00 -5.06335378e-01 -1.57855654e+00
      -3.32015932e-01 -7.13583052e-01 -6.16991043e-01 -1.33410048e+00
      7.08436728e-01 -5.39259315e-01 -1.41580963e+00 2.94134527e-01
      -2.59543151e-01 -2.07639432e+00 -3.89964163e-01 7.50987291e-01
      1.40525505e-01 1.32669842e+00 2.46605563e+00 -1.06073391e+00
      -1.09205341e+00 -1.02969015e+00 -9.89901125e-02 -1.76037908e-01
      1.46764088e+00 2.34916472e+00 -2.18717590e-01 2.13523462e-01
      -7.01652586e-01 -8.23923051e-01 1.46755591e-01 3.25020611e-01
      1.13276863e+00 -4.79524508e-02 5.65955676e-02 2.23825932e-01
      3.22122604e-01 6.04300380e-01 9.78885174e-01 2.59334981e-01
      8.57835710e-01 1.42897412e-01</_>
    <_>
      -2.36588454e+00 -1.40941334e+00 -1.31922019e+00 -1.03261721e+00
      -1.06748152e+00 -2.56738454e-01 -1.86100468e-01 -1.57546961e+00
      -2.20101452e+00 -1.68063724e+00 -1.48022318e+00 -1.10280585e+00
      -1.16683543e+00 -1.79035068e+00 7.03662932e-01 -2.22888160e+00
      -2.05915928e+00 -6.40070975e-01 1.45558906e+00 -2.31512141e+00
      -1.41344893e+00 -1.61320806e+00 -1.97225201e+00 2.54643649e-01
      9.96539891e-01 -1.34240294e+00 -5.28169096e-01 2.03311205e+00
      -2.44344091e+00 -2.35502791e+00 -2.05797648e+00 -1.07602942e+00
      -1.23009312e+00 -3.79588827e-02 1.26962161e+00 -1.41919696e+00
      -1.82316744e+00 -2.56623554e+00 -1.97279346e+00 -1.13837969e+00
      -1.38617428e-02 -1.62480009e+00 -7.17455864e-01 -1.86238813e+00
      -1.83764338e+00 -3.50978643e-01 1.76561630e+00 -1.41635334e+00
      -1.38048843e-01 -1.21228790e+00 -1.48338330e+00 9.80650365e-01
      2.32658935e+00 -3.38515192e-01 -2.27093801e-01 4.15212917e+00
      2.04907799e+00 -5.61468780e-01</_>
    <_>
      -2.44697285e+00 -2.31881738e+00 -2.05694890e+00 -1.13732278e+00
      -5.91649413e-01 -1.56844151e+00 -3.87904316e-01 -5.59463322e-01
      -1.29810750e+00 2.07425380e+00 1.50074124e+00 -7.75773466e-01
      -7.37243712e-01 -3.82835001e-01 -1.00575244e+00 3.48691440e+00
      2.55921721e-01 -7.62278855e-01 -2.14008522e+00 -7.77257457e-02
      -1.41344893e+00 2.94358873e+00 -1.23317027e+00 -1.27470565e+00
      -2.10833955e+00 -1.69384384e+00 -1.93915045e+00 -1.71173084e+00
      -1.98398829e+00 -2.11272073e+00 -2.49893713e+00 -9.58437085e-01
      -1.04442465e+00 -2.31519103e+00 -1.35506022e+00 -9.51620519e-01
      -1.73641431e+00 3.95639718e-01 -2.66357809e-01 -2.65239358e+00
      -2.32833579e-01 -4.38997835e-01 -2.37344599e+00 -1.74040091e+00
      -2.56030416e+00 -1.92091179e+00 -3.76836896e+00 -8.85218918e-01
      -1.32364905e+00 -8.98293614e-01 -2.00092220e+00 -1.51001656e+00
      -2.37905550e+00 -1.66403329e+00 -7.61580348e-01 -1.44698203e+00
      2.38597679e+00 -1.75819635e+00</_>
    <_>
      6.34775698e-01 -2.44763225e-01 -2.26078677e+00 -1.77806401e+00
      -2.23538065e+00 -2.54834771e+00 -1.29069686e+00 8.73973846e-01
      -1.03077519e+00 -1.59381664e+00 -1.80019796e+00 -2.32034421e+00
      -1.42840493e+00 -2.52211928e-01 -1.01163578e+00 -1.17569053e+00
      -1.86515903e+00 -2.60153151e+00 -2.67468619e+00 -1.21955121e+00
      4.04872634e-02 5.70651472e-01 -1.91739821e+00 -2.09696770e+00
      -2.55268288e+00 -1.19149625e+00 -2.05350065e+00 -9.30066526e-01
      8.20233896e-02 -4.47050035e-02 -1.17701018e+00 -8.44474912e-01
      -2.60321144e-02 -9.47051823e-01 -1.65289924e-01 2.46238327e+00
      2.32589269e+00 1.80279243e+00 -4.20799077e-01 1.55165493e-02
      -7.06081390e-02 3.62029709e-02 1.11266577e+00 3.68839002e+00
      -6.12555351e-03 -1.24986553e+00 -1.81899774e+00 -1.88005519e+00
      5.97409189e-01 3.75334144e+00 1.52957284e+00 -6.66783571e-01
      -1.98293972e+00 -2.26610017e+00 -1.50818694e+00 -1.62144983e+00
      1.89406800e+00 4.66767907e-01</_>
    <_>
      -1.32775617e+00 5.62799335e-01 -4.22626972e-01 -1.24858558e+00
      -9.19169366e-01 -1.16048110e+00 -1.29069686e+00 1.33433485e+00
      4.53124166e-01 -3.23573202e-01 -7.32935488e-01 -4.88933350e-04
      -2.85276055e-01 -1.00165379e+00 2.82262444e+00 2.66845012e+00
      1.05472827e+00 1.44797075e+00 1.64840639e+00 -6.24478340e-01
      -1.41344893e+00 4.99293280e+00 3.38703275e+00 2.30846143e+00
      -9.48996902e-01 -2.39210892e+00 -3.20030665e+00 1.30214584e+00
      2.62479782e-01 -6.60057366e-01 -2.15719461e+00 -2.12428975e+00
      -1.77376342e+00 -1.93610942e+00 -1.35506022e+00 1.68278277e-01
      -1.44176674e+00 -2.42893314e+00 -1.61310315e+00 -2.58998728e+00
      -2.13412666e+00 -8.82149339e-01 8.45946968e-01 -1.75791907e+00
      -1.95416820e+00 -3.33625525e-01 7.84103036e-01 -2.03999591e+00
      -1.32364905e+00 -4.23603833e-01 -8.76948118e-01 1.91028070e+00
      6.42905235e-01 -1.37584913e+00 -1.20791638e+00 3.63258195e+00
      6.86280012e-01 8.68703008e-01</_>
    <_>
      5.02308570e-02 -4.70955223e-01 -4.38979156e-02 5.69018364e-01
      5.21926761e-01 3.74101251e-01 -1.29069686e+00 -1.10244676e-01
      -2.46293068e-01 9.48666811e-01 9.36196685e-01 3.86079431e-01
      1.26634550e+00 1.30594051e+00 1.57796383e-01 -2.39371862e-02
      1.51751414e-01 2.52440453e-01 6.80793405e-01 4.29213941e-01
      1.28902626e+00 -5.75161159e-01 1.49749070e-01 -2.70922840e-01
      4.86045986e-01 1.13696635e-01 5.93941450e-01 1.40524077e+00
      6.19571745e-01 -4.08272088e-01 6.02023780e-01 5.61059892e-01
      4.87395711e-02 8.23576868e-01 6.07356191e-01 -2.83885956e-01
      1.52244136e-01 4.01839375e-01 5.25378287e-01 -1.83771551e-01
      4.47323531e-01 9.43266273e-01 4.62151200e-01 8.07232484e-02
      -4.52972382e-01 -3.60069811e-01 2.12976530e-01 6.01051271e-01
      2.93701142e-01 -2.89842952e-03 -7.71620691e-01 -7.25990534e-01
      -1.74749885e-02 3.40013914e-02 1.50370985e-01 8.77887607e-01
      -2.34449118e-01 8.56516361e-01</_>
    <_>
      2.36215878e+00 3.08214235e+00 -7.16718316e-01 -1.54154623e+00
      -2.23538065e+00 -2.54834771e+00 1.23876624e-01 2.48199058e+00
      4.22465146e-01 -7.73430407e-01 -1.30916607e+00 -1.20185113e+00
      -2.60412097e+00 -6.81771576e-01 -5.87933064e-01 3.05562168e-01
      -1.17842555e+00 -2.26449800e+00 -1.93748331e+00 -1.42292893e+00
      -1.41344893e+00 1.35613537e+00 9.02303904e-02 -1.49086010e+00
      -2.79206061e+00 -2.53383279e+00 -1.72395682e+00 -1.35997200e+00
      -6.49776459e-01 -1.01077878e+00 -2.31412268e+00 -2.03616858e+00
      -2.17892694e+00 -8.55814278e-01 5.00626326e-01 -3.49242166e-02
      -8.99994731e-01 -1.38748860e+00 -1.38492334e+00 5.47018409e-01
      4.83087331e-01 3.78304138e-03 -5.65023065e-01 1.73084402e+00
      1.46805310e+00 1.35191107e+00 3.00352931e+00 -7.45970383e-02
      -1.32364905e+00 2.85145712e+00 3.94613910e+00 3.23834229e+00
      1.55960009e-01 -1.18380296e+00 -1.88799095e+00 -2.44638729e+00
      5.64274609e-01 -4.22757506e-01</_>
    <_>
      -4.19966549e-01 -7.06969321e-01 -1.60441339e+00 -1.24210608e+00
      -8.11584711e-01 -2.54834771e+00 6.73399210e-01 1.10270607e+00
      7.39846155e-02 -7.33024180e-01 -1.23600566e+00 -9.07651484e-01
      9.94912814e-03 2.61891812e-01 6.23398423e-01 1.02853739e+00
      -1.08392322e+00 -1.24323702e+00 7.01535046e-02 1.65734637e+00
      1.32736516e+00 3.21571112e+00 1.83469105e+00 -6.38993382e-02
      -1.04387939e+00 8.70505646e-02 -9.41726327e-01 -1.03352499e+00
      2.57936335e+00 2.64283299e+00 1.44111052e-01 -9.08585310e-01
      -1.23692560e+00 -9.10014868e-01 7.93036819e-01 3.97159696e+00
      3.04356098e+00 3.79915982e-01 -1.56976271e+00 -2.25794172e+00
