<?xml version="1.0"?>
<opencv_storage>
<my_svm type_id="opencv-ml-svm">
  <svm_type>C_SVC</svm_type>
  <kernel><type>RBF</type>
    <gamma>2.2500000000000003e-03</gamma></kernel>
  <C>1.2500000000000000e+01</C>
  <term_criteria><epsilon>1.1920928955078125e-07</epsilon>
    <iterations>1000</iterations></term_criteria>
  <var_all>232</var_all>
  <var_count>232</var_count>
  <class_count>2</class_count>
  <class_labels type_id="opencv-matrix">
    <rows>1</rows>
    <cols>2</cols>
    <dt>i</dt>
    <data>
      -1 1</data></class_labels>
  <sv_total>435</sv_total>
  <support_vectors>
    <_>
      4.20103520e-01 -1.34377515e+00 3.89928281e-01 -7.56238282e-01
      1.39404821e+00 6.43859386e-01 5.04446507e-01 8.54955986e-02
      1.10642982e+00 3.57091784e-01 2.68850118e-01 -5.74907303e-01
      -6.05921149e-01 -8.17927778e-01 -1.08895981e+00 -1.25705385e+00
      1.14498341e+00 6.34025186e-02 -2.77891099e-01 -1.11326635e+00
      2.34408140e+00 2.05183935e+00 5.19747064e-02 3.99921060e-01
      6.13388836e-01 1.55664280e-01 -9.35269475e-01 -9.05812562e-01
      7.39624023e-01 -2.66769510e-02 6.40229404e-01 -9.99502093e-02
      3.07438970e+00 2.91129637e+00 1.31120408e+00 9.66025233e-01
      -1.66898742e-01 -2.41536364e-01 -8.95181775e-01 -1.06505322e+00
      -7.07512021e-01 -9.27242160e-01 -1.15410733e+00 -1.38554609e+00
      4.56528276e-01 5.94087020e-02 -5.20615757e-01 -8.88059437e-01
      -9.08728614e-02 1.27904296e-01 1.07809389e-02 -4.30042565e-01
      -1.00917912e+00 -5.57699442e-01 -1.71625113e+00 -1.57895803e+00
      3.78889060e+00 3.78381014e+00 2.02693009e+00 1.86743641e+00
      2.22165179e+00 1.56666040e+00 7.07379043e-01 4.62583870e-01
      5.10507226e-01 4.77275997e-01 -5.61918020e-01 -3.65559399e-01
      1.62004888e-01 6.97200179e-01 -2.15843901e-01 7.37741590e-01
      -5.01676738e-01 2.00644046e-01 3.88533682e-01 1.59831142e+00
      -1.23725557e+00 -1.67605138e+00 -1.16902018e+00 -9.47864056e-01
      4.18388247e-01 -1.00688231e+00 2.93809865e-02 -9.92997348e-01
      3.78708303e-01 5.68239689e-01 8.90226886e-02 -5.18651426e-01
      1.21458340e+00 1.19476664e+00 1.11472625e-02 -2.81347424e-01
      5.39225996e-01 1.20004559e+00 7.89158404e-01 1.06298423e+00
      -2.04442561e-01 3.18606824e-01 3.39778215e-01 4.14553940e-01
      -8.47584963e-01 -1.27577269e+00 -6.81863427e-01 -1.39773881e+00
      3.81819993e-01 -9.31839645e-02 7.58230925e-01 9.83947873e-01
      1.36014867e+00 1.92069089e+00 2.17706084e+00 2.31536627e+00
      1.01505592e-01 -2.44794711e-01 -1.96226865e-01 -4.24050838e-01
      1.04837932e-01 -8.49244833e-01 3.31748009e-01 -3.49449784e-01
      -8.03661585e-01 -7.05071032e-01 -3.53905588e-01 -4.71147656e-01
      -1.54593551e+00 -1.83816540e+00 -1.16180682e+00 -1.59435463e+00
      -1.20705616e+00 -1.46144211e+00 -7.91984439e-01 -9.34360802e-01
      1.17568302e+00 -8.71853158e-02 1.05711579e+00 5.23731351e-01
      -9.94521141e-01 -9.08797503e-01 -9.69526172e-01 -9.59133565e-01
      1.14802092e-01 -7.01969713e-02 1.61459923e-01 -1.95481256e-01
      -1.86186329e-01 -1.12741280e+00 3.26232016e-01 -1.63725510e-01
      -1.58322310e+00 -1.51553500e+00 -8.19230199e-01 -1.41700077e+00
      -1.56080055e+00 -1.59243047e+00 -1.23380303e+00 -1.59977591e+00
      -1.29280376e+00 -1.60569465e+00 7.43091047e-01 -3.76772881e-01
      -8.23594779e-02 -1.11414826e+00 -2.39123359e-01 -1.59718430e+00
      -8.34467232e-01 -4.76116806e-01 -9.90235567e-01 -1.88687670e+00
      1.31372249e+00 9.06784475e-01 1.65008533e+00 1.43309891e+00
      -2.39617944e-01 -5.67823887e-01 6.23665333e-01 1.94223389e-01
      -6.77058697e-01 -1.19624650e+00 3.47468883e-01 -6.22860670e-01
      -7.49330297e-02 -5.02106488e-01 4.79272336e-01 3.82419288e-01
      1.70286131e+00 1.11096704e+00 1.79761815e+00 2.07279634e+00
      7.75074244e-01 -9.34576094e-01 2.93421954e-01 -1.00574505e+00
      -8.84303927e-01 -9.79813457e-01 -9.30907369e-01 -9.52329338e-01
      -1.87369413e-04 -4.75299239e-01 2.77088761e-01 -1.21489856e-02
      1.81027576e-01 -5.41758358e-01 8.59917402e-01 -4.39285822e-02
      1.36044025e+00 1.65355158e+00 2.05082989e+00 2.61077714e+00
      1.63417351e+00 3.55666161e+00 1.47359812e+00 2.37498951e+00
      1.49315691e+00 3.24855834e-01 1.20491111e+00 -7.94355333e-01
      1.57522953e+00 1.36498773e+00 -1.54009312e-01 5.36153972e-01
      1.77748621e+00 3.56526995e+00 2.20301390e+00 3.07364035e+00
      -9.91581008e-02 -1.26293510e-01 -2.88616288e-02 4.37055044e-02
      1.38095200e+00 9.03683126e-01 5.73708534e-01 8.45640302e-01</_>
    <_>
      8.16117153e-02 8.00234377e-01 7.35775158e-02 7.44675934e-01
      -3.49062264e-01 -8.01826775e-01 -5.17988324e-01 1.00404304e-02
      1.87991515e-01 -5.01174450e-01 -5.05721867e-02 4.97374654e-01
      -1.10379748e-01 3.20162177e-02 3.80033046e-01 9.20975447e-01
      -7.63899982e-01 -7.94257343e-01 -2.09383026e-01 2.81131804e-01
      7.54627585e-01 -5.15823543e-01 5.80756426e-01 4.75238681e-01
      -9.77933228e-01 -8.13693285e-01 -2.76581854e-01 6.14919603e-01
      -4.52612519e-01 4.16649312e-01 -2.28088543e-01 -1.59880638e-01
      -5.31058669e-01 2.82536242e-02 -3.43367308e-01 8.71582806e-01
      1.06005058e-01 8.26809108e-01 1.39056668e-01 1.34082866e+00
      6.30518436e-01 -5.26344538e-01 6.12850130e-01 -3.78109634e-01
      5.61122417e-01 6.20274171e-02 9.74565208e-01 4.87202168e-01
      4.40767795e-01 -1.42620606e-02 1.27859235e+00 9.58836317e-01
      1.07472551e+00 1.55899251e+00 1.25184834e+00 1.34147689e-01
      -1.54715374e-01 -2.57100463e+00 2.74567544e-01 -1.51030707e+00
      -7.70781219e-01 -4.12754476e-01 -5.16285777e-01 4.98497903e-01
      1.27949655e+00 4.30282533e-01 4.01146084e-01 9.14033689e-03
      1.48252892e+00 -5.24357677e-01 8.04065764e-01 -2.72474229e-01
      8.50534856e-01 8.02355230e-01 1.34480512e+00 7.04742968e-01
      1.46671021e-02 -5.49615622e-02 4.62424576e-01 6.11176252e-01
      -9.36215758e-01 7.65178561e-01 -9.89118159e-01 -9.92997348e-01
      -1.15280521e+00 -7.95778155e-01 -7.35248506e-01 -6.11230016e-01
      9.85802352e-01 9.69997108e-01 1.59337974e+00 3.29382747e-01
      1.89307296e+00 1.23806655e+00 1.49693930e+00 1.48268715e-01
      1.03804684e+00 8.69027674e-02 1.43538344e+00 2.91580737e-01
      -4.59870666e-01 2.75597125e-01 6.44018710e-01 4.16987479e-01
      1.02634060e+00 -1.03718674e+00 5.04251458e-02 -1.15853858e+00
      9.68301058e-01 1.32999003e+00 4.17038918e-01 1.04705560e+00
      1.61458719e+00 5.51410794e-01 1.03403640e+00 1.21416855e+00
      3.99321049e-01 7.30536222e-01 1.23091288e-01 -5.63154697e-01
      7.02502728e-01 8.14956248e-01 9.82122302e-01 8.01328897e-01
      6.97210550e-01 1.04770589e+00 1.02649474e+00 8.53027821e-01
      -8.93376231e-01 -4.43778276e-01 -1.36309281e-01 -4.44316149e-01
      -1.17053166e-02 -8.99607360e-01 -1.11687875e+00 -2.29052830e+00
      -2.11096406e-02 -9.08797503e-01 2.79701680e-01 7.26696491e-01
      -4.90941226e-01 1.94551554e-02 -7.93245971e-01 -3.09823811e-01
      5.94475120e-02 1.48634747e-01 -1.54659927e-01 -3.70503873e-01
      2.37145647e-01 1.48348546e+00 5.52108921e-02 8.88458967e-01
      -1.07216440e-01 2.22032025e-01 -4.04494494e-01 -4.17462140e-01
      -1.24042594e+00 -3.40513557e-01 -6.20207548e-01 -9.98366177e-02
      -7.84574330e-01 7.33756721e-02 3.94667804e-01 1.12168217e+00
      1.95167470e+00 8.06546390e-01 4.54270184e-01 -6.97269678e-01
      1.89090461e-01 -5.90870008e-02 -3.01745504e-01 6.99580759e-02
      -8.32105696e-01 -3.80821377e-01 -2.35486701e-01 -3.39242011e-01
      -7.23444343e-01 -3.79806221e-01 -4.77466136e-01 -4.66686368e-01
      -7.83627555e-02 -1.45341530e-01 -2.13173240e-01 -1.91650808e-01
      -3.12836379e-01 -5.25113285e-01 -9.99096036e-02 2.67705202e-01
      3.04382950e-01 -2.69427001e-01 1.05029933e-01 -4.92623597e-02
      8.91044438e-01 -6.20230675e-01 -9.30907369e-01 -9.52329338e-01
      -8.13270748e-01 -4.30113934e-02 -5.23917139e-01 -3.29236835e-01
      -1.26451743e+00 -4.79524255e-01 -7.62289166e-01 -5.32729328e-01
      -7.66142249e-01 -2.30696470e-01 -4.00761425e-01 -3.32648456e-02
      2.64717907e-01 9.67951238e-01 3.30499560e-01 1.21714139e+00
      -1.11837380e-01 -7.71801531e-01 -3.47185954e-02 -6.96554959e-01
      8.54717374e-01 2.87524223e-01 4.93377507e-01 -9.69603181e-01
      1.22212172e+00 1.15055549e+00 7.71031201e-01 1.77236950e+00
      -5.49632728e-01 4.92144488e-02 -6.39556527e-01 -2.88035154e-01
      4.92587149e-01 3.25975835e-01 1.63913757e-01 2.10472077e-01</_>
    <_>
      -5.68143189e-01 1.46580875e-01 -7.38659501e-01 -4.30736721e-01
      -4.55968320e-01 -2.81951994e-01 5.87592065e-01 2.21373856e-01
      -1.33578718e+00 -4.03433770e-01 -8.16648155e-02 2.61535108e-01
      -1.11770928e+00 -8.70435163e-02 -8.63589525e-01 1.43881679e+00
      -9.09389317e-01 3.79760087e-01 -8.74608636e-01 5.24221659e-01
      -7.95705557e-01 -6.33499980e-01 -1.54561102e+00 -8.93790960e-01
      -9.77933228e-01 -8.13693285e-01 -9.35269475e-01 -9.05812562e-01
      -7.89299726e-01 -1.16319764e+00 -2.79506803e-01 4.99633104e-01
      -1.30709267e+00 -1.19047952e+00 9.78135645e-01 2.27646708e+00
      -1.11598754e+00 -1.69476822e-01 -2.57860184e-01 2.97703981e+00
      -1.97984010e-01 9.07924533e-01 -3.41939926e-01 1.26861620e+00
      1.92832753e-01 8.95180881e-01 -4.91113901e-01 3.22159588e-01
      -3.61710072e-01 6.45181775e-01 5.71983218e-01 3.07181507e-01
      2.35303313e-01 2.09155703e+00 -7.32189834e-01 -8.75035167e-01
      -6.10356271e-01 -1.96907908e-01 1.24292538e-01 -6.49687694e-03
      -1.28475022e+00 -5.09672582e-01 1.59304127e-01 1.59658992e+00
      -1.20988928e-01 5.05468667e-01 -5.17538190e-01 -8.23915526e-02
      -5.18578649e-01 1.81344271e-01 -1.11397791e+00 -2.69434899e-01
      -3.95804644e-01 1.39296567e+00 -1.02856541e+00 -4.96084273e-01
      1.39233685e+00 1.78389692e+00 1.86450705e-02 1.42802179e-01
      -9.36215758e-01 -1.00688231e+00 9.29952800e-01 -2.21478567e-01
      -1.87194332e-01 -2.79887080e-01 5.07307649e-01 5.64933240e-01
      -6.13764226e-01 4.59862292e-01 1.83948100e-01 9.58289579e-02
      -7.02121437e-01 -5.07258996e-02 -5.26062310e-01 -1.01751518e+00
      -8.00059080e-01 -1.97124153e-01 1.87464595e-01 -9.64650095e-01
      6.24719024e-01 7.84034550e-01 8.78179908e-01 -5.44312596e-01
      5.04678395e-03 1.26806676e-01 6.41174018e-01 1.54087231e-01
      -1.90224931e-01 -1.34108889e+00 5.55574894e-01 -7.84312308e-01
      5.69765151e-01 1.17281985e+00 3.62448663e-01 -5.72525039e-02
      6.88037097e-01 5.15574574e-01 5.48449457e-01 -3.31214190e-01
      4.98001307e-01 -7.00792670e-03 8.35139990e-01 -1.08617318e+00
      1.88379839e-01 7.96762347e-01 -4.11002815e-01 -5.95724940e-01
      1.15008426e+00 1.25003171e+00 3.94580364e-01 -6.31196558e-01
      9.96070981e-01 -2.80244768e-01 1.95072579e+00 2.53883690e-01
      3.93161595e-01 1.59213567e+00 1.00966406e+00 2.87890643e-01
      1.34711206e-01 -3.19383778e-02 2.40029588e-01 2.98513193e-02
      9.18102384e-01 2.38518432e-01 1.28544331e+00 -1.38757244e-01
      1.07689869e+00 1.35882676e+00 5.60908496e-01 1.60726511e+00
      1.63159764e+00 8.27495515e-01 -4.85811651e-01 2.95437366e-01
      1.05966973e+00 1.81714848e-01 1.43040442e+00 -2.87266016e-01
      -5.99921346e-01 1.51740149e-01 5.33908606e-01 -2.49916002e-01
      -7.41646051e-01 1.98553741e-01 -9.27113816e-02 -1.57635927e+00
      5.47059655e-01 1.38523781e+00 1.06034303e+00 -1.17188647e-01
      2.76855290e-01 -2.76909530e-01 1.07066333e+00 2.75771972e-02
      1.35457182e+00 1.59740806e-01 -1.31613365e-03 -9.74542946e-02
      2.64737058e+00 3.35928857e-01 1.28525245e+00 9.36652839e-01
      -2.97928214e-01 4.71685469e-01 1.11516607e+00 -5.50223351e-01
      -5.07510722e-01 3.86522472e-01 -8.96698415e-01 3.36629540e-01
      -8.84303927e-01 -9.79813457e-01 -9.30907369e-01 -9.52329338e-01
      2.43748724e-01 1.96804315e-01 2.94465452e-01 1.69151071e-02
      1.44136310e-01 -4.23731089e-01 8.22251022e-01 -4.47105139e-01
      9.93223488e-02 -6.93619549e-01 9.25330639e-01 -2.18967199e-01
      -2.83277899e-01 -3.84385735e-01 8.59726608e-01 -3.05374622e-01
      -1.37585711e+00 -4.48476896e-03 -2.70340234e-01 2.33283073e-01
      -1.41518641e+00 1.71274804e-02 -1.51232898e+00 -8.41794789e-01
      -1.67817026e-01 1.60845205e-01 6.60022259e-01 -1.13081789e+00
      -1.73209794e-02 -2.94294745e-01 -1.16092540e-01 -3.60546023e-01
      -8.17730367e-01 -1.36496937e-02 8.81897867e-01 -5.54199696e-01</_>
    <_>
      -2.24162960e+00 -2.18694115e+00 -1.13512039e+00 -7.69592345e-01
      4.48804051e-01 9.75992441e-01 1.18435836e+00 9.55183506e-01
      1.92467356e+00 1.34481692e+00 7.36238003e-01 3.74585092e-01
      1.93711197e+00 1.20859361e+00 -8.26418221e-01 -1.13789904e+00
      -8.41223001e-02 -7.02676475e-02 -4.67156917e-01 -2.89166570e-01
      5.11471927e-01 6.46235943e-01 3.41533184e-01 2.24618149e+00
      1.53890276e+00 -8.13693285e-01 -1.05476461e-01 -9.05812562e-01
      1.02302444e+00 1.88657761e-01 6.84762061e-01 8.92167568e-01
      1.77945244e+00 2.37761545e+00 1.69648182e+00 2.14552164e+00
      -2.18124643e-01 2.80738831e-01 -3.07957143e-01 -2.34972825e-03
      -6.51831985e-01 -5.16154110e-01 -8.51380289e-01 -6.01490855e-01
      -5.30671179e-01 2.54807860e-01 -8.15759182e-01 3.55912149e-02
      -1.08312869e+00 -1.99532163e+00 -5.15315592e-01 -6.50067329e-01
      -1.38387787e+00 -1.51157796e+00 -1.34039199e+00 -1.59064090e+00
      1.33606136e+00 2.92441750e+00 3.09446406e+00 3.66329598e+00
      1.66949713e+00 1.53166342e+00 1.77767622e+00 1.96226120e+00
      9.97357428e-01 1.37713873e+00 7.35358119e-01 1.13227344e+00
      1.43795788e+00 1.86802959e+00 9.11454797e-01 2.90712142e+00
      -1.87067688e-01 -5.17381847e-01 -2.76084781e-01 -1.33915022e-01
      -2.05456805e+00 -8.60426724e-01 -1.18069839e+00 -3.80253941e-01
      -9.36215758e-01 1.82704628e+00 -9.89118159e-01 1.42981315e+00
      1.18614507e+00 5.50673485e-01 1.21228647e+00 6.68301105e-01
      1.18795931e+00 6.88512564e-01 6.51226282e-01 -4.46604252e-01
      1.77297723e+00 -3.76535147e-01 1.52111053e+00 3.74096453e-01
      -7.03061998e-01 -8.38255584e-01 -2.84138858e-01 -9.34314609e-01
      -1.34865725e+00 -1.88815618e+00 -7.59645581e-01 -6.27927721e-01
      -3.06577206e-01 5.06842315e-01 -4.88900393e-03 7.68171847e-02
      6.31881952e-02 4.04560834e-01 2.02787185e+00 2.13626120e-03
      -1.84485805e+00 -1.64722717e+00 -4.86058086e-01 -2.51021564e-01
      1.49847597e-01 -1.37432790e+00 8.40811506e-02 -7.39422798e-01
      -1.86758709e+00 -1.63489377e+00 -1.31640482e+00 -1.51380265e+00
      -1.78121221e+00 -2.02761936e+00 -1.95974135e+00 -1.97386742e+00
      -1.55599046e+00 -2.09042478e+00 -1.41055977e+00 -2.01354194e+00
      -2.85832956e-02 -1.28089607e+00 1.59470415e+00 -1.00485945e+00
      -9.94521141e-01 -9.08797503e-01 -9.69526172e-01 -9.59133565e-01
      -1.98680516e-02 -1.35925245e+00 8.79216716e-02 -3.87245119e-02
      -9.37660515e-01 -2.40183568e+00 -8.69549036e-01 -1.69886243e+00
      -1.55498064e+00 -2.08772612e+00 -1.88080716e+00 -2.14703941e+00
      -1.73753250e+00 -1.84857917e+00 -1.65426433e+00 -1.90973711e+00
      -1.57998145e+00 -1.34928322e+00 -1.30445674e-01 -4.39521670e-01
      -1.53428876e+00 -1.52695882e+00 -1.43648577e+00 -1.53587043e+00
      -2.16181326e+00 -2.13706517e+00 -2.22439432e+00 -2.19407821e+00
      3.29291940e-01 -5.08309662e-01 2.68020725e+00 1.27390909e+00
      -1.30386055e+00 -5.98052800e-01 -1.13797224e+00 -8.21243763e-01
      -1.33377624e+00 -1.49150121e+00 -8.29394758e-01 -7.46608853e-01
      -4.79364723e-01 1.44964945e+00 1.82555139e-01 1.81909704e+00
      -1.84940183e+00 2.26378255e-02 -1.16173577e+00 -2.37261727e-01
      -3.47856551e-01 7.25504383e-02 -6.90377891e-01 -9.43092480e-02
      6.21742010e-01 2.47158575e+00 -8.24916810e-02 1.68837869e+00
      -1.67937800e-01 -1.02166247e+00 -2.58407474e-01 -9.32059348e-01
      -5.81449986e-01 -8.66695344e-01 -6.12237155e-01 -9.89545703e-01
      8.34947824e-01 1.74998629e+00 1.51898289e+00 1.77822018e+00
      1.73340654e+00 1.63092291e+00 2.91416597e+00 1.59791350e+00
      3.95434499e-01 1.01311183e+00 3.30797076e-01 7.66571999e-01
      1.38659680e+00 3.71286106e+00 1.30905628e+00 2.82214522e+00
      2.11535501e+00 1.67730868e+00 2.52097154e+00 1.50810373e+00
      1.00373417e-01 -3.26972812e-01 -5.10732420e-02 -1.48683339e-01
      2.17603520e-01 -5.29210530e-02 7.37541437e-01 3.62886399e-01</_>
    <_>
      2.87927017e-02 -5.10225356e-01 -1.08033311e+00 -7.15082169e-01
      -3.22947294e-01 2.43472029e-02 -7.29907513e-01 -6.69946909e-01
      -3.88518989e-01 6.23595595e-01 -1.47961974e+00 -4.14397687e-01
      -8.55490267e-02 6.10825896e-01 -3.15973848e-01 -5.43504298e-01
      6.45824969e-01 1.01038885e+00 4.00691569e-01 -1.52149796e-01
      -9.96496260e-01 3.79052430e-01 -1.35941792e+00 5.57792902e-01
      5.81874311e-01 1.36467233e-01 -4.39288020e-02 -3.41979086e-01
      -2.86209404e-01 -3.18790734e-01 1.62120447e-01 1.49715766e-01
      -3.34740490e-01 -3.82537305e-01 -8.04635286e-01 -6.70224071e-01
      3.19452792e-01 1.64171737e-02 5.65276682e-01 -4.42551523e-01
      1.57378364e+00 1.61890113e+00 1.21831465e+00 1.88445294e+00
      6.07933640e-01 9.94335890e-01 -6.09360673e-02 1.15067625e+00
      -2.02926710e-01 -3.50146294e-01 -6.95230842e-01 -1.93489686e-01
      1.42787313e+00 9.56645966e-01 -9.45929587e-02 1.22674096e+00
      -9.76998985e-01 -3.69627804e-01 -4.88429338e-01 2.39120409e-01
      -5.98203957e-01 5.43572128e-01 -4.22275603e-01 -2.92921513e-01
      9.54102159e-01 7.85138428e-01 4.06920910e-01 1.23899043e+00
      4.07230318e-01 7.19187200e-01 -1.40283510e-01 1.49388289e+00
      8.29571187e-02 7.42875516e-01 -6.75197542e-02 1.68573236e+00
      4.17363614e-01 8.07124615e-01 -6.46917164e-01 8.89680088e-01
      8.63548517e-01 1.27160475e-01 3.16963285e-01 2.89490044e-01
      -4.46405321e-01 -5.38330317e-01 1.14536059e+00 6.12076581e-01
      -8.96470189e-01 -6.17947817e-01 8.03697705e-02 2.24712148e-01
      -8.04879367e-02 -1.03524849e-01 5.21623671e-01 4.51690376e-01
      -5.16927838e-02 5.68181798e-02 -3.88392001e-01 4.88366187e-01
      -1.70035899e-01 6.38291538e-02 -6.71343803e-01 9.60873425e-01
      1.31547272e+00 5.65228462e-01 1.99143887e-02 9.91390407e-01
      -1.33862066e+00 -1.80623531e-01 -1.82364464e-01 8.86705637e-01
      -3.97146046e-01 1.20336004e-01 3.44448894e-01 5.15191734e-01
      -8.50928247e-01 -9.17281687e-01 -1.29690826e-01 2.13091284e-01
      6.29659772e-01 -1.01883553e-01 -2.57197976e-01 -2.33345002e-01
      2.44494170e-01 -3.13728273e-01 -8.80458951e-01 -1.50793105e-01
      2.64796436e-01 5.09302616e-01 -3.06760967e-01 9.16621149e-01
      5.39004862e-01 4.08976257e-01 -1.01435232e+00 -3.58441561e-01
      -9.94521141e-01 -9.08797503e-01 -9.69526172e-01 -9.59133565e-01
      -1.04105651e-01 -1.09269671e-01 1.10454464e+00 4.67887670e-01
      -6.11900628e-01 2.13420354e-02 -1.08775809e-01 1.09040165e+00
      1.59547913e+00 -5.89691401e-01 -1.08814836e+00 -8.20569813e-01
      1.74435925e+00 1.05568635e+00 -6.07758701e-01 5.52452579e-02
      -1.04595520e-01 1.42146006e-01 -6.09073341e-01 2.28875220e-01
      3.72589797e-01 -9.97274816e-01 -4.73537892e-01 -8.95610154e-01
      7.87688673e-01 6.91870153e-01 -5.15629470e-01 -1.02706879e-01
      -1.19375885e+00 -1.80998713e-01 -7.80469358e-01 6.37405738e-02
      -1.58323252e+00 -7.11495519e-01 -1.70920146e+00 -9.31891203e-01
      -7.96856210e-02 3.47582966e-01 -1.17501473e+00 3.25691134e-01
      -9.26706195e-01 1.69223640e-02 -1.31104612e+00 -2.05614492e-02
      -8.63599539e-01 -7.59068429e-01 -4.01537746e-01 5.30702710e-01
      -1.45946033e-02 7.16874719e-01 1.53748527e-01 1.23224461e+00
      2.49980021e+00 2.05318332e+00 2.34758282e+00 2.92707348e+00
      -1.24042749e+00 -2.77729124e-01 -7.98301876e-01 -4.40174818e-01
      -1.35215211e+00 -1.89035892e-01 -1.62957585e+00 -6.01165056e-01
      -9.12840903e-01 -3.60350281e-01 -1.28193676e+00 -7.86284432e-02
      -3.29771668e-01 3.04939151e-01 -3.35090965e-01 -2.10264459e-01
      2.73847252e-01 2.57543325e-01 8.11053514e-01 -1.11132920e+00
      -9.00529623e-01 5.35802364e-01 -5.74592590e-01 7.93900669e-01
      -8.61949384e-01 1.75823972e-01 1.32377148e-01 1.58196473e+00
      2.35650897e-01 -5.53805888e-01 1.93419039e+00 -3.42125207e-01
      -4.46063071e-01 3.56173068e-01 -1.34932578e+00 1.23582289e-01</_>
    <_>
      8.07496071e-01 7.42555737e-01 -2.53413618e-01 -4.66406494e-01
      -6.82635486e-01 9.11584049e-02 -1.48112968e-01 -2.98452944e-01
      9.45367813e-02 5.28389663e-02 9.21436608e-01 8.61496329e-01
      1.10029745e+00 1.52662849e+00 1.78188848e+00 1.58303714e+00
      -3.21245044e-01 5.23781359e-01 1.17823100e+00 1.24372077e+00
      -5.50174952e-01 -5.22015929e-01 -2.37806812e-01 -2.94786066e-01
      3.48334461e-01 5.91818281e-02 -9.35269475e-01 -9.05812562e-01
      2.56721944e-01 -4.12423909e-01 8.40602040e-01 1.99016854e-01
      2.60318786e-01 -7.36852407e-01 6.19784653e-01 2.54522949e-01
      1.06974530e+00 1.20757926e+00 1.81974804e+00 1.59358048e+00
      -4.64211375e-01 4.70965542e-02 1.38633215e+00 1.99382991e-01
      1.09828087e-02 4.88799095e-01 7.54333019e-01 2.57213473e-01
      -6.07698143e-01 -7.12538600e-01 4.56490546e-01 -1.35929823e+00
      1.64666921e-01 7.87773669e-01 1.42405838e-01 -2.83418119e-01
      1.32503152e-01 1.44004881e-01 1.03701460e+00 6.05572164e-01
      2.78271049e-01 8.20625573e-02 7.28672668e-02 -1.86907724e-01
      7.93596134e-02 2.50752509e-01 3.28688353e-01 -4.57634479e-01
      4.42147881e-01 -5.17675579e-01 6.15462735e-02 -7.24290729e-01
      -5.77803887e-02 -8.52132589e-02 1.24085791e-01 -8.93276870e-01
      2.29923442e-01 7.36715674e-01 5.56645691e-01 -1.54716492e+00
      -9.36215758e-01 -1.00688231e+00 -9.89118159e-01 -9.92997348e-01
      7.66408265e-01 3.80961716e-01 7.89738715e-01 -6.43888235e-01
      6.23041391e-01 -2.64404953e-01 5.56360245e-01 -1.69078171e+00
      1.44711792e+00 -3.30395177e-02 1.20285980e-01 -7.83399820e-01
      3.41244519e-01 -1.83350906e-01 -6.79121375e-01 -3.57658148e-01
      3.24777544e-01 3.23913008e-01 -7.69316375e-01 -1.84489036e+00
      -2.34436050e-01 -7.21320868e-01 -9.83753741e-01 1.47815570e-01
      4.42448527e-01 8.28989148e-02 -3.96812350e-01 -2.18600817e-02
      7.81717598e-01 7.03177452e-01 1.39005756e+00 -3.41221392e-01
      7.80046642e-01 5.72186470e-01 2.22127840e-01 -9.49900448e-01
      6.01999104e-01 5.22458673e-01 2.74334885e-02 -5.65605879e-01
      6.73218071e-01 1.30372846e+00 3.42621386e-01 -4.09756064e-01
      -4.46883619e-01 8.70563209e-01 -1.09736025e+00 1.65062845e+00
      -1.56223071e+00 -2.34152868e-01 -6.76915407e-01 1.10961664e+00
      3.36444229e-01 1.01045460e-01 5.18113911e-01 -9.59133565e-01
      6.52769923e-01 -3.04498583e-01 2.09500045e-01 -7.06959367e-01
      5.74177027e-01 -7.45833367e-02 4.35211271e-01 1.16608953e+00
      1.41178334e+00 1.45855105e+00 9.89917457e-01 6.75814211e-01
      -1.17092383e+00 -4.06538695e-01 -3.30397338e-01 2.46371460e+00
      -8.65055263e-01 -1.45755076e+00 -1.26597977e+00 -7.50947118e-01
      1.68468077e-02 8.88318956e-01 -1.73747838e-01 -6.51926935e-01
      3.63024294e-01 2.83739972e+00 -6.23615503e-01 -8.63740861e-01
      -3.50702196e-01 -1.18190683e-01 -1.60646069e+00 -1.43496962e-02
      8.01440254e-02 2.13393152e-01 9.48131457e-02 1.41843140e-01
      -3.28692287e-01 -2.30476171e-01 -7.07919478e-01 8.12061310e-01
      -4.75795209e-01 -8.29848826e-01 -8.23957503e-01 1.26420736e-01
      4.43514884e-01 3.87438923e-01 1.07464403e-01 1.27134830e-01
      -1.09478951e-01 -1.04510319e+00 5.70651829e-01 -3.50901395e-01
      -8.84303927e-01 -9.79813457e-01 -9.30907369e-01 -9.52329338e-01
      1.94884479e-01 1.13351293e-01 -8.55946094e-02 -5.71483076e-01
      -1.02021646e+00 4.46603782e-02 -1.35150063e+00 -5.79816341e-01
      8.56490880e-02 -3.24866503e-01 -2.18694299e-01 -2.42664397e-01
      -2.53125191e-01 4.15616930e-01 4.33618963e-01 4.30969864e-01
      -4.45762247e-01 -3.78088653e-01 9.30716515e-01 1.06942844e+00
      -4.81662482e-01 -4.36759651e-01 8.80091012e-01 5.02028167e-01
      5.98465689e-02 -3.82599473e-01 2.69252241e-01 3.27291220e-01
      2.95926630e-02 -2.00970843e-01 -3.05844218e-01 -5.36714733e-01
      4.20322567e-01 -1.57450631e-01 1.88263506e-01 -8.53976071e-01</_>
    <_>
      5.44814527e-01 -4.09696102e-01 1.72121376e-01 6.89663962e-02
      1.89760327e+00 1.52666950e+00 1.73737621e+00 1.73032689e+00
      1.32793665e+00 1.70242321e+00 1.72657657e+00 1.20653987e+00
      -5.58731616e-01 -5.90984464e-01 -4.34150547e-01 -9.45283651e-01
      2.73480177e-01 -1.10024142e+00 -5.80460668e-01 -6.57195926e-01
      -1.93859696e-01 2.64429927e-01 -3.53483588e-01 3.62867892e-01
      -1.62113264e-01 6.32589161e-01 9.66691673e-01 8.31859589e-01
      5.78488648e-01 1.94895029e-01 8.51821125e-01 -2.57495344e-01
      1.55540991e+00 1.43580091e+00 8.67361903e-01 1.22297072e+00
      5.59824824e-01 2.06336230e-02 7.03328967e-01 4.69662786e-01
      -5.32791674e-01 -1.08791363e+00 -4.95007038e-01 -6.63609385e-01
      5.62860191e-01 -5.57408988e-01 -1.10934243e-01 -4.16752130e-01
      -2.16732666e-01 -7.54899144e-01 9.51699317e-01 4.81325746e-01
      1.86861724e-01 4.95260000e-01 7.33250141e-01 7.05756664e-01
      8.28198612e-01 8.47527742e-01 1.04457891e+00 9.70389605e-01
      9.25174415e-01 8.65636170e-01 1.23810458e+00 1.52341235e+00
      2.02737761e+00 3.39599371e-01 1.92052853e+00 8.22620153e-01
      -4.37567085e-01 -1.01246107e+00 -4.35099334e-01 1.59707607e-03
      -1.45272031e-01 -2.15086460e-01 1.98067352e-02 1.04961872e+00
      -1.05089143e-01 -2.07005426e-01 2.50789464e-01 8.94931078e-01
      -9.36215758e-01 -1.00688231e+00 4.59237039e-01 -1.96584478e-01
      1.91429526e-01 -5.32937706e-01 3.15272242e-01 -6.78646445e-01
      1.46807683e+00 1.15958226e+00 2.53893590e+00 1.26890147e+00
      4.20602709e-01 1.58482611e-01 6.50802135e-01 7.82628179e-01
      -9.78909791e-01 -2.95983523e-01 -1.12268901e+00 -5.44198155e-01
      2.99994737e-01 9.16546881e-01 7.85920382e-01 4.89087671e-01
      -6.07789397e-01 -1.45013884e-01 -1.20185494e+00 9.26536918e-02
      -9.81971145e-01 4.28078711e-01 -9.47719932e-01 -1.12983251e+00
      7.28961051e-01 7.77493715e-01 8.65648925e-01 6.04138494e-01
      1.29416931e+00 9.05985653e-01 2.26391888e+00 1.88330877e+00
      1.94329453e+00 1.53124297e+00 1.62657022e+00 1.06835008e+00
      -5.72852254e-01 1.07982986e-01 -5.62033534e-01 -5.22261858e-01
      -5.60513079e-01 -1.84037462e-01 -1.15857422e+00 -8.97008240e-01
      -1.83681703e+00 1.87863302e+00 -3.55590999e-01 -3.09862703e-01
      -3.68454397e-01 7.71523833e-01 -4.55460221e-01 3.15663487e-01
      3.28866661e-01 4.04069752e-01 2.10365042e-01 6.23800814e-01
      5.23878336e-01 6.37703359e-01 9.22782779e-01 5.68577886e-01
      1.06963921e+00 9.58205879e-01 1.33342135e+00 3.95865083e-01
      -7.34182656e-01 -7.01105773e-01 -8.66786778e-01 -1.06164348e+00
      9.05955434e-01 1.52165937e+00 1.49885401e-01 3.66732925e-01
      1.57481277e+00 1.06000209e+00 1.87567815e-01 1.36488393e-01
      6.04597092e-01 8.79874408e-01 1.35530043e+00 1.49861202e-01
      -7.31311440e-01 9.19800580e-01 -6.51109517e-01 1.83411732e-01
      7.75463104e-01 4.88850594e-01 2.49313816e-01 1.30718827e-01
      5.10658920e-01 7.25846648e-01 2.86867201e-01 8.09465647e-01
      -1.01344061e+00 1.17716379e-01 -1.41443360e+00 -6.42157257e-01
      -4.43009108e-01 7.67044425e-01 -6.76570058e-01 -2.09514145e-02
      8.74498844e-01 3.99043649e-01 1.08641803e+00 -3.72217208e-01
      9.86959517e-01 5.64128816e-01 7.87286401e-01 1.03910661e+00
      4.98923892e-03 -9.07160267e-02 1.81318298e-01 5.07704355e-02
      1.32891595e+00 5.95536053e-01 1.70269501e+00 1.14742315e+00
      2.21656203e-01 4.48655218e-01 4.91050296e-02 5.68943083e-01
      -9.00548041e-01 -1.70263037e-01 -9.00864661e-01 8.08592364e-02
      8.17453980e-01 1.29312336e+00 6.33889198e-01 7.94798791e-01
      9.27723110e-01 5.40368855e-01 1.98997915e-01 3.10702324e-01
      -2.01350242e-01 2.23380849e-01 -1.22480422e-01 -4.29864138e-01
      -2.89834887e-01 -2.64820188e-01 -3.24921459e-01 -8.54377896e-02
      2.65242529e+00 2.19633937e+00 2.53950787e+00 2.27807784e+00</_>
    <_>
      1.19280005e+00 -8.72762203e-01 -3.70929837e-01 -4.99327704e-02
      -3.76749396e-01 -7.87975430e-01 -1.16423953e+00 -5.92611134e-01
      -4.77455139e-01 -1.16173780e+00 -1.58685088e+00 -1.27202141e+00
      -4.04797137e-01 -1.24681079e+00 -1.34401810e+00 -1.39223719e+00
      -3.41479003e-01 -3.21993411e-01 -1.27246368e+00 -1.06117439e+00
      -1.96256626e+00 -1.78505695e+00 -1.88371742e+00 -1.93041265e+00
      -9.77933228e-01 -8.13693285e-01 -9.35269475e-01 -9.05812562e-01
      -2.92570174e-01 6.11509047e-02 -6.79895759e-01 4.93035734e-01
      -5.28228998e-01 -1.19113076e+00 -7.05433249e-01 -4.30151910e-01
      7.09473908e-01 -5.35785496e-01 -9.99733567e-01 -1.01213682e+00
      5.17885387e-01 -2.42503628e-01 -8.71830434e-02 -8.93565357e-01
      -8.48573327e-01 -1.28311765e+00 -1.54814506e+00 -1.18448973e+00
      -1.73461333e-01 -1.17650783e+00 -8.03133667e-01 -1.79530442e+00
      8.21037531e-01 -3.95708561e-01 -1.71759203e-01 -8.13589156e-01
      -1.42669880e+00 -1.32726049e+00 -2.56950688e+00 -7.71149158e-01
      -1.26061296e+00 -1.18215525e+00 -1.83502471e+00 -6.84237003e-01
      -1.10794199e+00 -1.69331110e+00 -1.38615406e+00 -1.52569509e+00
      -7.08300591e-01 -1.39493775e+00 -1.23658502e+00 -1.94701517e+00
      -1.28463104e-01 -6.71631455e-01 -1.50666833e+00 -1.38857865e+00
      2.98348129e-01 -1.04129088e+00 8.55518937e-01 -1.26305580e-01
      -9.36215758e-01 -1.00688231e+00 -9.89118159e-01 -9.92997348e-01
      -9.06151175e-01 -6.19165301e-01 -1.18665445e+00 6.24051392e-01
      -1.77182364e+00 -1.82317543e+00 -1.45479131e+00 -1.13555956e+00
      1.16961157e+00 2.73063570e-01 5.40649056e-01 -1.21510279e+00
      1.37374234e+00 8.68917525e-01 2.37351441e+00 -5.79570793e-03
      6.27165884e-02 -1.03428662e+00 -8.62719953e-01 -8.75724077e-01
      -3.99690233e-02 -3.63381416e-01 -6.71189249e-01 -6.75853014e-01
      3.51504743e-01 1.14416301e-01 2.02493891e-01 -6.42651439e-01
      -1.44028819e+00 -9.33441937e-01 -1.19810723e-01 -3.63148034e-01
      5.97478807e-01 -5.28601885e-01 -1.32396424e+00 -5.37829578e-01
      6.97447956e-01 5.15234992e-02 2.11054778e+00 1.41941562e-01
      1.16450414e-02 -6.68660700e-01 1.47656369e+00 2.81518435e+00
      -1.43892854e-01 -4.93590117e-01 -2.31683612e-01 -2.50764072e-01
      -2.12764621e-01 -7.80410469e-01 -7.17545152e-01 -1.38506949e+00
      -2.02453792e-01 7.94487000e-01 -3.99294555e-01 1.73858434e-01
      3.00748616e-01 2.17962474e-01 -8.21084440e-01 9.04146850e-01
      -1.72793213e-02 2.95096129e-01 -1.11193085e+00 1.25587296e+00
      1.66704309e+00 1.08218205e+00 1.97709870e+00 2.41745496e+00
      1.76775730e+00 1.01526272e+00 2.62041640e+00 3.48375350e-01
      -5.14980018e-01 -6.41338974e-02 -6.06475651e-01 2.95878261e-01
      -1.62614322e+00 -1.01209569e+00 -2.03761220e+00 -1.75236583e+00
      2.28054702e-01 4.60486352e-01 -1.52789223e+00 -7.96059072e-01
      7.38216102e-01 5.35856783e-01 -1.88692677e+00 -7.30203569e-01
      8.56983364e-01 1.57610023e+00 -5.65059967e-02 2.77905345e+00
      1.28844547e+00 1.80378175e+00 1.35289085e+00 1.24412477e+00
      2.68775642e-01 2.83082747e+00 3.74393195e-01 -1.82063743e-01
      -1.04007566e+00 -1.31927538e+00 -8.30782831e-01 -1.02073133e+00
      -7.41118729e-01 4.97800440e-01 -1.54863465e+00 -7.13815093e-01
      -8.84303927e-01 -9.79813457e-01 -9.30907369e-01 -9.52329338e-01
      1.00373471e+00 1.30810475e+00 5.01962081e-02 2.03004336e+00
      1.95187464e-01 1.29906869e+00 -3.03448662e-02 1.43126738e+00
      -1.23832226e-01 1.54611611e+00 3.62055331e-01 -3.09038777e-02
      -1.34122324e+00 -1.25908422e+00 -7.72305489e-01 -1.87958908e+00
      -1.01407158e+00 -9.12530422e-01 -2.20856714e+00 -1.26797926e+00
      -1.91671562e+00 -1.03010154e+00 -1.94946849e+00 -8.22947264e-01
      -9.15472090e-01 -1.74375081e+00 2.77201504e-01 -7.49300361e-01
      -1.55228347e-01 -4.87823971e-02 -7.72325754e-01 5.33586979e-01
      -4.70178336e-01 -8.32208753e-01 -1.04636526e+00 -7.69862711e-01</_>
    <_>
      -1.05811477e+00 -1.95136178e+00 -9.92101192e-01 -7.15184093e-01
      -4.06587571e-01 -2.04350567e+00 -7.20506847e-01 -1.71753275e+00
      1.35993689e-01 -4.96578097e-01 -6.08122885e-01 -5.21370411e-01
      -6.28958195e-02 -6.47916138e-01 1.94505572e+00 6.68369412e-01
      -1.15152383e+00 -2.12228775e-01 2.87749052e-01 8.73510122e-01
      -4.30952847e-01 6.70302868e-01 -4.55568731e-01 8.11647654e-01
      -9.77933228e-01 2.28924051e-01 -9.35269475e-01 1.71702647e+00
      -1.58871031e+00 -1.62042928e+00 -1.91369367e+00 -1.67143774e+00
      -1.08778632e+00 -1.82518721e+00 -5.58523178e-01 -1.35940659e+00
      3.30532134e-01 5.10792732e-02 3.50585365e+00 2.86219049e+00
      -4.10445780e-01 -3.66201729e-01 7.59115994e-01 1.00081122e+00
      -1.21274126e+00 2.43499696e-01 -5.70737183e-01 1.29590011e+00
      -1.53026104e-01 -8.44170302e-02 -1.94747016e-01 1.21750367e+00
      -5.73537171e-01 -6.94493771e-01 -2.00342730e-01 -3.37931573e-01
      -9.77903187e-01 -5.42661071e-01 -2.03554511e+00 -7.98505664e-01
      -3.85414153e-01 -3.75262678e-01 -7.17066944e-01 7.87127078e-01
      1.71583310e-01 9.79044437e-02 -9.98120427e-01 6.42782032e-01
      -4.10142899e-01 3.81570071e-01 -8.40182841e-01 7.50849247e-01
      -9.15803552e-01 -1.95544630e-01 -1.19078696e+00 1.19809830e+00
      -1.23801661e+00 -2.23646808e+00 -2.31381345e+00 -2.31493425e+00
      -9.36215758e-01 -1.00688231e+00 -9.89118159e-01 -9.92997348e-01
      -8.30645680e-01 -6.87543511e-01 -3.95599186e-01 -1.24479449e+00
      -1.26252580e+00 -1.06682718e+00 -8.48558724e-01 5.58894813e-01
      6.56902790e-01 1.36285245e+00 -6.52633667e-01 3.29642028e-01
      7.02335060e-01 2.31716037e+00 -1.47424459e-01 2.44272187e-01
      -4.81182598e-02 1.12952113e+00 -6.80665195e-01 -5.72584212e-01
      -1.80063576e-01 -1.17395490e-01 -9.68481123e-01 -5.05300425e-02
      2.44040757e-01 1.27056706e+00 2.98691839e-01 9.32143807e-01
      -8.05338398e-02 -1.34367645e+00 9.50028121e-01 1.38817117e-01
      1.01610683e-01 -6.83708251e-01 -8.09834540e-01 5.61968274e-02
      1.44008672e+00 1.87378848e+00 -3.56800765e-01 2.04743758e-01
      9.31222379e-01 7.42699325e-01 9.98353601e-01 8.04860651e-01
      1.75945973e+00 9.35730517e-01 5.35256982e-01 -6.36187196e-01
      -1.09065819e+00 2.98213623e-02 -7.53205717e-01 -9.67505753e-01
      -9.94521141e-01 -9.08797503e-01 -9.69526172e-01 -9.59133565e-01
      6.05332017e-01 1.51095420e-01 -1.12489192e-02 -6.93030179e-01
      1.08287930e+00 6.53229117e-01 2.75987804e-01 -4.46253549e-03
      1.45030653e+00 5.72694600e-01 2.28670168e+00 1.71356249e+00
      1.11883366e+00 -2.83219367e-01 6.30661547e-02 -8.27177465e-02
      1.78076518e+00 -1.47088602e-01 -4.99077916e-01 -4.91656512e-01
      2.81809390e-01 -4.84856755e-01 -9.39232647e-01 -1.97869587e+00
      -4.90595579e-01 -5.23932755e-01 -6.21976614e-01 -4.95275736e-01
      -1.82683945e-01 9.26015079e-01 -6.47151351e-01 -5.24447143e-01
      3.38127874e-02 -4.18558925e-01 1.35054961e-01 -6.82892084e-01
      1.20887733e+00 4.84222203e-01 7.55705833e-02 -3.92133594e-02
      1.01407397e+00 3.35996032e-01 -2.02015154e-02 -7.53547773e-02
      9.54130471e-01 -3.66762221e-01 9.00984406e-01 -2.90410072e-01
      3.23960155e-01 -1.47803053e-01 -2.00240508e-01 8.57001692e-02
      -8.84303927e-01 -9.79813457e-01 -9.30907369e-01 -9.52329338e-01
      -2.36349046e-01 -6.96244538e-01 2.33543530e-01 -7.41622448e-01
      -1.00941992e+00 -7.22017050e-01 -4.42484111e-01 -1.06974351e+00
      3.16212513e-02 2.23706812e-01 -5.47395349e-01 -5.08820832e-01
      1.05548047e-01 -4.16433156e-01 6.84425533e-01 -5.89178622e-01
      2.32478622e-02 -9.57699597e-01 7.89723516e-01 -5.10492504e-01
      2.67916739e-01 3.91117245e-01 6.03276074e-01 7.91892856e-02
      -1.84343249e-01 9.81379390e-01 -7.48489276e-02 8.50772202e-01
      -4.94306594e-01 2.92815473e-02 -4.52264547e-01 -5.00298381e-01
      -1.12878799e+00 -6.94266796e-01 -1.12707973e+00 -1.02337313e+00</_>
    <_>
      1.68202817e-01 8.72796118e-01 6.41789973e-01 1.79244292e+00
      3.60616028e-01 6.54354870e-01 1.71697628e+00 2.64298201e-01
      -9.67473567e-01 3.30140680e-01 1.25735164e+00 2.74337977e-01
      -5.40450633e-01 8.91982794e-01 1.73467994e+00 4.65735137e-01
      -7.37738073e-01 -4.06750202e-01 1.21576858e+00 5.71296453e-01
      -2.28950828e-01 -5.36793768e-01 8.89752030e-01 7.06574544e-02
      -9.77933228e-01 -8.13693285e-01 -9.35269475e-01 -9.05812562e-01
      5.89045465e-01 1.01680458e+00 4.82789993e-01 1.92000747e+00
      -5.23285806e-01 1.10728109e+00 1.34466588e+00 2.00062919e+00
      6.77676737e-01 1.87005448e+00 2.75577044e+00 1.56747186e+00
      1.31663993e-01 2.28895366e-01 1.38377535e+00 4.67832863e-01
      1.73164517e-01 -1.94040462e-01 2.04573736e-01 -2.57553011e-02
      -7.70819306e-01 -6.36220872e-01 1.40426634e-02 -1.07373607e+00
      -8.09544995e-02 1.81265667e-01 1.20064008e+00 -4.62425023e-01
      -3.45822155e-01 -6.99231625e-01 5.38121760e-01 8.76408815e-01
      -4.84959811e-01 4.29227263e-01 8.61528337e-01 1.84566104e+00
      2.89631307e-01 -2.32105836e-01 7.47023463e-01 7.48511851e-01
      2.76941109e+00 -7.68126667e-01 9.71822500e-01 1.58314896e+00
      -4.07187551e-01 -1.74830198e+00 1.05650432e-01 -5.00192046e-01
      -6.96834922e-01 -7.18076468e-01 3.11804675e-02 -2.34873965e-01
      -9.36215758e-01 4.73730624e-01 -9.89118159e-01 5.78930020e-01
      3.85821536e-02 1.26590574e+00 5.67640603e-01 2.73452401e+00
      1.53881535e-01 1.43048957e-01 1.01767704e-01 1.15188134e+00
      2.92579293e-01 -9.59062040e-01 -2.57783145e-01 -5.27456701e-01
      -7.23253727e-01 -1.42780578e+00 -9.88037765e-01 -1.20025420e+00
      8.69211674e-01 -3.79937679e-01 -6.91871047e-01 5.66835962e-02
      1.59707761e+00 -8.40367913e-01 -4.04369891e-01 -7.84738421e-01
      -5.34605622e-01 -1.51356649e+00 -5.85489810e-01 -2.24111512e-01
      -1.67738885e-01 4.21947956e-01 -1.40986174e-01 9.28610802e-01
      -2.13428393e-01 -7.45376706e-01 -7.98409224e-01 4.43895161e-01
      -7.81474292e-01 -3.68763268e-01 -1.32019472e+00 -6.07134461e-01
      -5.62349707e-02 1.40788054e+00 -7.42879868e-01 2.83959985e-01
      3.94631654e-01 -3.10519248e-01 -4.62342560e-01 -1.24777079e+00
      -1.01207650e+00 -1.57897484e+00 -1.36320519e+00 -1.50532401e+00
      -9.94521141e-01 -9.08797503e-01 -9.69526172e-01 -9.59133565e-01
      1.19360471e+00 5.90018511e-01 -1.48367345e-01 1.48132730e+00
      1.17720211e+00 6.07707500e-01 -3.43543254e-02 1.04781008e+00
      1.08355820e+00 2.96794415e+00 1.39471591e-01 5.27543008e-01
      1.42574653e-01 -5.72725125e-02 -7.34503493e-02 -8.83257627e-01
      7.85872221e-01 -3.60879004e-01 -7.19041005e-02 -1.23992658e+00
      -2.69379407e-01 -6.52148902e-01 -2.64081806e-01 -7.26678610e-01
      2.96017945e-01 9.06754076e-01 8.94036531e-01 -1.23221129e-01
      1.21225536e+00 -2.40113288e-01 -1.03407896e+00 -1.45547062e-01
      1.50724578e+00 6.93784416e-01 2.37679631e-01 2.74012744e-01
      2.05172205e+00 -1.14174716e-01 8.66009388e-03 -1.33431494e+00
      -2.63797939e-01 -1.32354081e+00 -1.24682117e+00 -2.00429845e+00
      -1.51796532e+00 -1.28640747e+00 -4.92163539e-01 -1.31404734e+00
      6.45108640e-01 6.33398890e-01 -6.52906746e-02 6.75899982e-02
      -8.84303927e-01 -9.79813457e-01 -9.30907369e-01 -9.52329338e-01
      1.32136810e+00 6.84362054e-01 6.13784969e-01 1.02607799e+00
      1.41956222e+00 3.73529606e-02 3.05700481e-01 -7.01673329e-01
      -8.14766467e-01 -7.82426178e-01 -6.71090841e-01 -1.23374796e+00
      -1.52263701e+00 -1.23662698e+00 3.64409089e-02 -1.36920965e+00
      -7.39999294e-01 1.27590299e-01 9.75306094e-01 -6.86511695e-01
      -1.91671562e+00 1.94613021e-02 -5.03201663e-01 -1.91062117e+00
      -1.50058353e+00 -1.74375081e+00 -3.42823803e-01 -1.78107917e+00
      -1.93023942e-02 2.17885897e-01 -3.52346539e-01 8.41008723e-01
      7.82400370e-01 7.01416850e-01 2.45719519e-03 5.35766184e-01</_>
    <_>
      5.61978698e-01 -1.78231195e-01 2.62055099e-01 3.91848803e-01
      1.14570379e+00 1.44636929e+00 2.18627691e+00 1.78767419e+00
      -3.59932929e-01 -9.21415746e-01 -5.64868212e-01 2.72505730e-01
      -1.06730032e+00 -1.30906272e+00 -1.27829111e+00 1.19774044e-01
      -7.32117176e-01 -7.53147364e-01 -1.02430177e+00 -9.38389301e-01
      -7.18894601e-01 -2.57193476e-01 -1.15929365e+00 -2.82132953e-01
      4.37349617e-01 3.75118911e-01 9.39538717e-01 2.21994781e+00
      2.09012699e+00 1.40812206e+00 1.99110460e+00 1.68790162e+00
      7.45173752e-01 3.42629015e-01 1.53360999e+00 7.29859412e-01
      -5.85510015e-01 -9.36655879e-01 -6.10407889e-01 -6.87254071e-01
      -1.17489767e+00 -1.38174188e+00 -1.32564926e+00 -1.25450647e+00
      -8.36751163e-01 -1.19767129e+00 -1.18918717e+00 -7.54133224e-01
      -1.12591791e+00 -3.31645638e-01 -2.07301331e+00 -3.37688506e-01
      -7.99794495e-01 -1.05698013e+00 -1.33618319e+00 -1.21605527e+00
      4.90022719e-01 -1.27269387e-01 5.13598979e-01 2.30109110e-01
      2.58335590e-01 -3.04518593e-03 1.16341043e+00 7.13110626e-01
      -7.89107621e-01 -4.02979791e-01 -3.66519779e-01 -4.40540552e-01
      -1.24836490e-01 -4.47475523e-01 -6.74908698e-01 -6.54657185e-01
      3.38712394e-01 -8.04319456e-02 -4.04880285e-01 -9.02345002e-01
      -6.99946940e-01 -7.22905993e-01 -1.16854596e+00 -6.63146257e-01
      -5.61678410e-01 -2.62467891e-01 -1.74184129e-01 7.84789145e-01
      1.98152900e+00 2.59234166e+00 1.46586525e+00 1.96669233e+00
      1.17061520e+00 2.42300558e+00 1.12526429e+00 1.67163360e+00
      1.29103351e+00 6.52601182e-01 1.60184598e+00 5.53709924e-01
      -9.09070671e-02 -6.61765218e-01 -5.74125238e-02 -8.27337205e-01
      -5.29356539e-01 -7.74401248e-01 -8.50481868e-01 -7.73663104e-01
      -1.37756240e+00 5.24195552e-01 -9.80369687e-01 1.21909223e-01
      -2.33327821e-01 1.67182177e-01 5.81593633e-01 -1.06807776e-01
      1.12141028e-01 1.01370431e-01 -4.03704464e-01 -6.26242399e-01
      1.46889150e+00 1.64487946e+00 1.29335725e+00 1.54527938e+00
      -2.71929372e-02 -3.59521836e-01 -4.42927957e-01 -6.93534732e-01
      -1.11730528e+00 -1.42793691e+00 -1.01421237e+00 -1.57802880e+00
      -6.34305656e-01 -1.63472128e+00 -1.04618514e+00 -1.36263263e+00
      -1.16299856e+00 -7.40624845e-01 2.44178414e-01 -3.10166597e-01
      -9.94521141e-01 -9.08797503e-01 -9.69526172e-01 -9.59133565e-01
      2.16767168e+00 2.28348303e+00 1.96754813e+00 1.99549496e+00
      7.61071146e-01 4.37918484e-01 1.34426939e+00 6.06061161e-01
      -8.06663036e-01 -7.60017753e-01 -4.76646453e-01 -1.21689093e+00
      -1.28433895e+00 -1.50079250e+00 -1.09390783e+00 -1.58254802e+00
      -9.55994308e-01 -5.33504665e-01 -4.25416589e-01 -7.75082588e-01
      -2.54350603e-01 -9.70195830e-01 -6.23300314e-01 -1.46901119e+00
      -1.98529840e-01 -1.77715731e+00 -2.15144217e-01 -2.48747781e-01
      1.73886225e-01 4.58406694e-02 8.64130795e-01 3.08684379e-01
      7.45383501e-01 8.18874359e-01 1.05485964e+00 5.26344061e-01
      1.90312639e-02 -4.07559246e-01 -2.30003253e-01 -2.84635246e-01
      -2.59482056e-01 2.33825043e-01 -6.50373995e-01 2.42110908e-01
      -3.83727252e-01 -1.83846116e-01 -3.89072210e-01 -9.31675017e-01
      -1.48747051e+00 -4.64617908e-01 -1.30353975e+00 -5.45784056e-01
      -8.84303927e-01 -9.79813457e-01 -9.30907369e-01 -9.52329338e-01
      1.66299474e+00 1.27570248e+00 1.65907490e+00 1.28088677e+00
      1.43907917e+00 1.83500433e+00 1.61262667e+00 2.08198142e+00
      1.12373984e+00 1.89262247e+00 7.38390744e-01 1.14184582e+00
      -1.05287564e+00 -4.24791723e-01 -4.34841186e-01 -3.04899216e-01
      -7.53399372e-01 -6.87655330e-01 -1.61589459e-01 -5.52767515e-01
      7.35239983e-01 -6.88000023e-01 9.90906239e-01 -1.20222306e+00
      -7.50191331e-01 -3.70946899e-02 3.88217479e-01 3.12952220e-01
      1.01347125e+00 1.18269789e+00 8.80355656e-01 1.10609961e+00
      1.19465566e+00 6.59526706e-01 1.15279210e+00 1.47607493e+00</_>
    <_>
      8.69955719e-02 7.66578689e-02 3.75393718e-01 1.10994466e-01
      1.53167605e+00 1.85069120e+00 2.53112411e+00 1.97320652e+00
      -2.08646834e-01 4.24646914e-01 1.78864598e-01 3.18570048e-01
      -1.20381761e+00 -1.12575090e+00 -1.08123410e+00 -9.28256273e-01
      -9.55445349e-01 -8.16795349e-01 -4.05174434e-01 -8.04926395e-01
      8.05892587e-01 3.49014968e-01 4.64732088e-02 6.52194396e-02
      -9.77933228e-01 -8.13693285e-01 -9.35269475e-01 -9.05812562e-01
      1.40951681e+00 2.23442507e+00 2.14536357e+00 2.09583139e+00
      6.05284810e-01 7.63764322e-01 1.73002863e+00 1.65630448e+00
      -1.14689445e+00 -1.22911525e+00 -8.26933444e-01 -1.20876300e+00
      -1.19079542e+00 -1.68438876e+00 -1.39935172e+00 -1.43010223e+00
      -8.29861343e-01 -6.25108063e-01 -3.96989316e-01 2.35004872e-02
      -1.07629693e+00 -1.08411551e+00 -9.20678258e-01 1.44192325e-02
      -1.34217036e+00 -3.92077714e-01 -1.03912580e+00 5.11926040e-02
      1.02482855e+00 1.54008853e+00 8.86946857e-01 1.06832588e+00
      2.57668942e-01 4.40385789e-01 6.19590759e-01 1.19802272e+00
      -8.24087008e-04 -4.18107063e-01 -3.44662040e-01 -5.02926409e-01
      3.86130780e-01 -9.44942892e-01 -2.49638289e-01 -7.79810309e-01
      7.30416924e-02 -4.39097285e-01 -5.39665878e-01 -5.79488158e-01
      -1.34397590e+00 -1.91161346e+00 -5.33067226e-01 -1.34317648e+00
      -9.36215758e-01 -1.00688231e+00 -9.89118159e-01 -9.92997348e-01
      1.84859836e+00 2.15686822e+00 1.97854829e+00 2.83764529e+00
      1.54265499e+00 1.43056929e+00 1.57274711e+00 1.92287993e+00
      2.25446439e+00 7.48856723e-01 1.69525468e+00 4.63559568e-01
      1.61740959e-01 -5.63232481e-01 -6.58320844e-01 -9.22126472e-01
      -8.21802020e-01 -2.98050284e-01 -9.19264019e-01 -3.46688628e-01
      -3.42897832e-01 -1.70844209e+00 -1.77373791e+00 -1.23436904e+00
      9.31835413e-01 1.06293547e+00 -1.00648546e+00 1.18441951e+00
      -2.12985992e-01 6.91839337e-01 4.68900889e-01 8.66582751e-01
      1.49138927e+00 1.54658639e+00 7.08153784e-01 1.51384771e+00
      -6.37398660e-01 -5.78083396e-01 -3.94550681e-01 -4.73067731e-01
      -1.57905960e+00 -1.78041697e+00 -1.40985358e+00 -1.58256328e+00
      -1.32287014e+00 -1.47667909e+00 -5.61736703e-01 -1.18289709e+00
      8.47332999e-02 3.09616238e-01 -5.57075799e-01 -3.72031957e-01
      -9.94521141e-01 -9.08797503e-01 -9.69526172e-01 -9.59133565e-01
      1.35414279e+00 1.65137386e+00 1.09278119e+00 1.83566940e+00
      3.49202812e-01 6.92901373e-01 -4.45871465e-02 -8.72591697e-03
      -1.25813794e+00 -4.73885119e-01 -1.53881431e+00 -9.98530746e-01
      -1.20539320e+00 -1.06145871e+00 -1.30907536e+00 -1.50126278e+00
      -4.80266213e-01 -5.35912991e-01 -3.90671104e-01 -6.58271015e-01
      -9.12040055e-01 -8.10271025e-01 -1.55394042e+00 -9.41182971e-01
      -1.02211070e+00 -5.12274802e-01 -1.00718784e+00 -1.04534602e+00
      1.25043869e+00 1.03402543e+00 1.17894447e+00 7.74923861e-01
      4.78419334e-01 1.51131451e+00 5.78252733e-01 4.12799537e-01
      -1.29751578e-01 -1.76206648e-01 6.85879961e-02 -5.10115862e-01
      1.16414838e-01 -4.85120893e-01 -7.50542462e-01 -3.21283340e-01
      -2.09050909e-01 4.77452755e-01 1.37319362e+00 -9.47703794e-02
      -5.90525627e-01 -1.18116689e+00 -4.00820345e-01 -6.93958998e-01
      1.22399724e+00 -5.52793741e-01 -9.30907369e-01 -9.52329338e-01
      1.54274583e+00 2.05179930e+00 1.85773206e+00 1.25485587e+00
      1.63591290e+00 1.78165102e+00 1.86906385e+00 1.49794209e+00
      1.42768407e+00 1.08242798e+00 1.11390507e+00 1.26821029e+00
      -2.68891782e-01 1.81333691e-01 4.34424803e-02 -3.27717006e-01
      -5.34070909e-01 -5.08456767e-01 3.18547398e-01 -6.10282898e-01
      6.33925050e-02 -9.67938662e-01 3.89216572e-01 1.46545961e-01
      4.94707346e-01 3.29297960e-01 -6.41419411e-01 7.81867385e-01
      4.93854642e-01 1.08677948e+00 8.00908864e-01 1.17512465e+00
      1.23562002e+00 1.11327660e+00 9.68537688e-01 1.55497944e+00</_>
    <_>
      -2.56188512e-01 -5.80898464e-01 -6.42996013e-01 -7.80405045e-01
      1.39579922e-01 -5.18888235e-01 -1.42583013e-01 1.88448459e-01
      -6.58993840e-01 -5.44106007e-01 3.23255867e-01 2.51396346e+00
      -5.23869753e-01 -9.93868113e-01 -4.48072940e-01 4.30510342e-01
      -9.31374133e-01 -1.06751716e+00 -3.93293858e-01 -5.76246917e-01
      -5.11379659e-01 -1.24888194e+00 -9.34382454e-02 2.47196138e-01
      -9.77933228e-01 1.19341469e+00 -9.35269475e-01 -6.34601891e-01
      1.51042879e+00 7.98069715e-01 9.83886123e-01 8.19144011e-01
      1.20749271e+00 1.09551799e+00 3.32742780e-01 1.25749826e+00
      9.02129263e-02 -1.24381473e-02 -1.44246465e-03 7.13178515e-01
      2.14119887e+00 9.39942598e-01 1.72382557e+00 7.14411497e-01
      4.66000676e-01 5.54186702e-01 -9.45172831e-02 7.18496084e-01
      -1.98171234e+00 -1.00466919e+00 -6.67129517e-01 9.93540809e-02
      -1.23842120e+00 -1.59031951e+00 -5.40018439e-01 -1.00418437e+00
      1.56900719e-01 -4.02353168e-01 -6.38518393e-01 -1.31429553e+00
      1.86223373e-01 1.14207305e-01 5.04152477e-01 1.91944313e+00
      2.85865450e+00 2.09691286e+00 2.63565898e+00 2.97535300e+00
      2.18682051e+00 7.89107144e-01 9.79609132e-01 1.19642043e+00
      -1.25521004e+00 5.72806895e-01 -3.16023231e-01 -2.46606156e-01
      4.71893698e-01 -1.95943105e+00 8.66548002e-01 -1.13556302e+00
      2.71278769e-01 -1.00688231e+00 5.31699002e-01 -9.92997348e-01
      6.68203771e-01 7.43996143e-01 8.25407684e-01 1.49449456e+00
      2.06622154e-01 -5.54287672e-01 2.34784007e+00 7.40340948e-01
      -3.61558080e-01 2.88396955e-01 -2.42097545e-02 -2.75612384e-01
      -1.43455660e+00 1.16589677e+00 -1.55722618e-01 -8.89604568e-01
      -1.64205194e+00 -1.12820745e-01 2.28631664e-02 -1.42240536e+00
      -5.55416167e-01 -1.13529098e+00 -1.22342956e+00 -2.35247397e+00
      -4.69950080e-01 5.34871340e-01 -1.14410090e+00 -1.00508571e+00
      -2.07341567e-01 -8.20141912e-01 -5.68264872e-02 -3.63148034e-01
      1.19478755e-01 -1.77473116e+00 1.52332354e+00 7.88909644e-02
      -1.07804251e+00 1.02342315e-01 2.05103087e+00 1.13547720e-01
      -1.33447540e+00 1.12692542e-01 -4.65608239e-02 -6.53906047e-01
      -2.00085044e+00 2.08023619e-02 -1.63738000e+00 -1.69996107e+00
      -2.33995533e+00 -8.41548502e-01 -8.35975826e-01 1.41843885e-01
      -9.94521141e-01 1.32332432e+00 -9.69526172e-01 -9.59133565e-01
      6.61521316e-01 -5.28561845e-02 1.20464408e+00 1.25963360e-01
      9.82813537e-02 -3.75875145e-01 6.30977631e-01 -9.37661946e-01
      -7.20185399e-01 -9.68647838e-01 1.07554221e+00 -1.13282323e+00
      1.23639297e+00 -8.58039141e-01 6.48795784e-01 -1.06026053e+00
      -4.37144458e-01 -1.36082515e-01 -9.68447149e-01 6.72259986e-01
      -2.28018498e+00 -2.12897348e+00 -1.09497058e+00 -4.93365198e-01
      -5.57014167e-01 -1.17466950e+00 -1.39304185e+00 -9.22785163e-01
      -2.93351591e-01 3.88152868e-01 -2.85617888e-01 1.09885439e-01
      -2.48113468e-01 2.35921159e-01 -3.77822757e-01 -1.77545354e-01
      1.10525131e+00 5.88616468e-02 -2.06199661e-01 -4.35061216e-01
      1.24776006e+00 1.93323779e+00 -4.49446321e-01 3.04673582e-01
      -1.14654195e+00 -6.48824871e-01 -1.54179585e+00 -3.88611794e-01
      2.43791223e+00 -5.71106136e-01 1.16909528e+00 -3.66599262e-02
      1.25487709e+00 1.76083416e-01 7.06475452e-02 2.40365580e-01
      3.72639718e-03 -6.23480260e-01 -1.38151914e-01 -5.26471734e-01
      -4.91691589e-01 -4.55609679e-01 -4.03231382e-01 2.81137437e-01
      -7.56810009e-01 6.28120005e-01 -9.89544511e-01 6.36539936e-01
      -1.47388518e+00 5.16289532e-01 -6.89151943e-01 1.83958697e+00
      4.99596328e-01 3.02039266e-01 1.24192104e-01 8.86709273e-01
      2.12819862e+00 1.99466383e+00 9.65211153e-01 5.11220038e-01
      -1.27363000e-02 1.02892101e+00 -9.51510310e-01 -1.21965384e+00
      -3.69753808e-01 -1.94162264e-01 -3.17954302e-01 -3.12989384e-01
      -1.15681380e-01 -9.61626053e-01 2.49028534e-01 -2.61432171e-01</_>
    <_>
      -1.86663836e-01 1.26092136e-01 -7.82396942e-02 -1.17847538e+00
      -6.56820834e-03 -4.44413304e-01 1.26258743e+00 4.26158577e-01
      -2.46175289e-01 5.50298095e-01 5.15949488e-01 1.38728869e+00
      -5.23203552e-01 -1.99987546e-01 -3.95069778e-01 5.70473850e-01
      -9.46347296e-01 -2.06377655e-01 -2.98063099e-01 6.36134595e-02
      -6.42080784e-01 8.74873936e-01 2.72483468e-01 3.08279961e-01
      -2.71786302e-01 1.62180150e+00 1.89644527e-02 1.67510045e+00
      3.40952873e-01 1.70510113e-01 1.67468175e-01 -4.48270619e-01
      -8.82383406e-01 -3.07572656e-03 -8.93758178e-01 1.18783684e-02
      -1.18260550e+00 -1.04938579e+00 -1.07369757e+00 -2.94631392e-01
      -1.31492984e+00 -9.80604947e-01 -1.18382204e+00 -8.44793856e-01
      -1.02743089e+00 2.87600160e-01 -7.77459204e-01 -6.91740140e-02
      -6.60351574e-01 -1.37715610e-02 -6.85041845e-01 -7.38905463e-03
      -6.61634326e-01 -6.58371925e-01 -1.34474918e-01 -3.81716251e-01
      4.91903216e-01 2.50280887e-01 6.07934892e-01 -2.90414244e-01
      -1.17240417e+00 -8.56248617e-01 -1.45709670e+00 -1.27605927e+00
      -1.39796162e+00 -1.22044718e+00 -7.95424283e-01 -1.57617211e+00
      -1.74964952e+00 -7.90233433e-01 -1.04303873e+00 -1.42626572e+00
      -1.24155200e+00 -8.13742802e-02 3.87010835e-02 7.33176708e-01
      -5.81283152e-01 1.93170682e-01 -1.06818199e+00 1.98065519e-01
      -3.47018689e-01 5.15511751e-01 -5.17062962e-01 3.45744312e-01
      5.81086934e-01 -1.22522384e-01 8.15468252e-01 -6.99176669e-01
      -9.07016039e-01 -1.31534529e+00 -4.53251243e-01 -1.49792182e+00
      -3.75696830e-03 -2.19961971e-01 4.89641428e-01 -7.40700185e-01
      -2.77487695e-01 -5.90639859e-02 7.85484537e-02 -5.23566484e-01
      1.27828017e-01 -8.50238800e-02 7.72016764e-01 3.27268422e-01
      2.25289273e+00 8.86670172e-01 1.30090427e+00 2.53831673e+00
      4.16406661e-01 1.76717496e+00 1.17579436e+00 9.77953911e-01
      -5.96705317e-01 -8.02607387e-02 -7.34481692e-01 -6.04570568e-01
      2.11254776e-01 -9.29188371e-01 4.30363595e-01 -6.09907746e-01
      1.22303724e+00 -8.48418176e-01 3.30167204e-01 -8.16497862e-01
      -2.95812674e-02 -1.59821972e-01 -3.81910503e-01 -3.15394551e-01
      8.87532890e-01 4.67834175e-01 -3.76679748e-01 5.51445782e-01
      1.45438910e+00 7.19397485e-01 6.25802636e-01 -2.33963672e-02
      -9.94521141e-01 -9.08797503e-01 -9.69526172e-01 -9.59133565e-01
      7.90029645e-01 1.26392111e-01 4.86827761e-01 -8.05621028e-01
      2.09743452e+00 3.16112071e-01 1.15837693e+00 -7.58064508e-01
      1.10199642e+00 -4.42789942e-02 -3.67114872e-01 -5.69549024e-01
      -1.11612432e-01 -1.53705135e-01 -4.67368245e-01 -4.18053538e-01
      1.58599126e+00 7.84011006e-01 7.38250196e-01 8.64478707e-01
      -8.13454807e-01 3.23273778e-01 3.49525869e-01 5.00051916e-01
      -6.29174113e-01 6.12595558e-01 -3.06253612e-01 6.25458717e-01
      1.69792628e+00 1.28922045e+00 1.86877286e+00 1.26867104e+00
      3.33201909e+00 1.30907869e+00 1.59872746e+00 3.70297909e-01
      2.04934072e+00 8.28114450e-01 3.35277289e-01 3.17291953e-02
      1.40645587e+00 8.54017437e-01 3.74975264e-01 5.07601500e-01
      3.60025585e-01 1.55995095e+00 1.31999147e+00 9.25787926e-01
      -2.73802966e-01 4.50272113e-01 -2.46092379e-01 3.74041349e-01
      -8.84303927e-01 3.71768594e-01 -9.30907369e-01 5.32619834e-01
      1.14790857e+00 7.25066245e-01 9.01019812e-01 -7.14037195e-02
      1.60494125e+00 7.74647295e-01 1.69554937e+00 8.41257751e-01
      1.43378294e+00 1.14336693e+00 1.75821221e+00 1.32358646e+00
      -3.89681160e-01 9.39691603e-01 4.12609130e-01 5.84975898e-01
      -6.96945012e-01 1.44120470e-01 -3.18131685e-01 6.70802474e-01
      -3.25364619e-01 1.33058214e+00 -4.00124639e-01 5.28167188e-01
      -1.79859325e-01 6.91170156e-01 5.03464520e-01 -6.02003373e-02
      -1.18000053e-01 5.89133739e-01 2.25148275e-01 1.06962526e+00
      -4.68505293e-01 7.13852108e-01 4.52173322e-01 9.44521576e-02</_>
    <_>
      -3.91584754e-01 -1.96576118e+00 6.23862306e-03 -2.01806998e+00
      8.58151913e-01 -9.92464006e-01 -9.64272261e-01 -2.07149339e+00
      7.55414486e-01 -4.04971600e-01 -7.97701418e-01 -1.13410461e+00
      5.86591780e-01 -3.42381299e-01 1.51171684e+00 -6.60554230e-01
      -1.61010787e-01 -1.39970601e+00 7.38754511e-01 -1.30885613e+00
      -3.14654350e-01 -1.78505695e+00 -8.57671618e-01 -1.93041265e+00
      -9.77933228e-01 -8.13693285e-01 -9.35269475e-01 -9.05812562e-01
      4.96125489e-01 -1.26908928e-01 -8.67342830e-01 -1.38811135e+00
      -2.04162762e-01 -6.88023508e-01 -1.40460277e+00 -1.42750502e+00
      1.94605932e-01 -7.14224875e-01 1.63473773e+00 -7.34290957e-01
      -2.11540088e-01 -4.21290845e-01 1.03701925e+00 -3.44854414e-01
      -4.39821124e-01 -2.05931997e+00 7.38741040e-01 -4.31067616e-01
      -5.14119446e-01 -1.27398121e+00 -2.92347312e-01 -6.01957440e-01
      -5.76980770e-01 -3.45521957e-01 1.81051743e+00 -9.23601270e-01
      -1.81063294e+00 -2.13736558e+00 -7.88261831e-01 -1.27273417e+00
      -1.06655657e+00 -1.17680597e+00 -8.62154722e-01 -1.20681024e+00
      -7.38901913e-01 -1.12898088e+00 5.08738697e-01 -2.00596750e-01
      -5.55314839e-01 -2.84669012e-01 1.70858398e-01 3.80270958e-01
      -1.45811751e-01 -6.20398283e-01 6.86124742e-01 -3.59254658e-01
      4.93071601e-02 -6.08779132e-01 7.53496706e-01 -1.77876687e+00
      1.49106348e+00 3.36469889e+00 -4.66307521e-01 8.90220761e-01
      -8.58534336e-01 -1.01385915e+00 -6.75995648e-01 -1.46453965e+00
      -1.28416562e+00 -1.55403745e+00 4.94852424e-01 -6.59514844e-01
      3.31309170e-01 1.62326062e+00 -4.21576023e-01 1.73997566e-01
      1.84561658e+00 1.13627565e+00 1.39873612e+00 1.12699473e+00
      7.67673433e-01 -4.88791347e-01 8.56692135e-01 8.91801953e-01
      7.45660841e-01 -9.79976535e-01 -2.81228811e-01 -8.63716662e-01
      -1.81365740e-02 1.34426999e+00 -7.97646165e-01 1.03908944e+00
      -7.70275235e-01 -1.09317350e+00 2.16739202e+00 -3.37455392e-01
      -5.49119830e-01 -1.01259100e+00 4.63004738e-01 -1.72915980e-01
      6.75241709e-01 1.48294783e+00 1.09624290e+00 1.35622835e+00
      3.72859895e-01 3.94704163e-01 2.02958322e+00 2.24897003e+00
      9.59747508e-02 -9.40630853e-01 5.39528966e-01 3.80625844e-01
      -7.58467257e-01 7.24198401e-01 9.16438922e-02 2.89566606e-01
      -9.94521141e-01 -9.08797503e-01 -9.69526172e-01 -9.59133565e-01
      7.47560799e-01 8.76328200e-02 -4.99989778e-01 -7.84719363e-02
      4.27021146e-01 -3.77660900e-01 -2.69380122e-01 -9.74585056e-01
      1.68573737e+00 8.41596946e-02 1.09326053e+00 8.66820455e-01
      8.48262131e-01 1.87291414e-01 -2.20286906e-01 -1.86845392e-01
      -9.86337885e-02 -4.56762761e-02 -5.59506774e-01 3.49928468e-01
      7.34088659e-01 -6.50582671e-01 -8.57705295e-01 -1.51697242e+00
      -9.63336647e-01 -6.75112605e-01 1.55589092e+00 -6.00885868e-01
      -1.84256032e-01 5.38123965e-01 -6.75845206e-01 -4.06337678e-01
      -8.89233053e-02 -6.70785785e-01 -9.33504522e-01 -9.75492477e-01
      3.81448790e-02 -4.14307773e-01 -7.55306244e-01 -4.68448699e-02
      -2.08519593e-01 1.45505333e+00 -1.14772308e+00 1.00062728e+00
      -5.06149888e-01 3.06408256e-01 -6.71866417e-01 2.20994174e-01
      -2.10805607e+00 -2.01253748e+00 -7.72823691e-01 -6.73377454e-01
      -8.84303927e-01 -9.79813457e-01 -9.30907369e-01 -9.52329338e-01
      2.04355374e-01 -2.97292262e-01 -1.04393268e+00 -5.62445045e-01
      -4.81490403e-01 -7.56670833e-01 -1.37065852e+00 -1.14762342e+00
      -7.91443229e-01 1.62532806e+00 -1.42523348e+00 7.90594935e-01
      3.42397690e-01 1.61414230e+00 -5.10470331e-01 6.77923024e-01
      3.40941213e-02 -6.49171889e-01 6.48322761e-01 -8.33585560e-01
      1.90366760e-01 -3.43011618e-01 -3.07328813e-03 -1.13328421e+00
      3.06861937e-01 2.98182398e-01 -8.52276087e-01 -8.09762701e-02
      2.51774013e-01 1.02303047e-02 -3.42314720e-01 -8.53120163e-02
      -8.25598657e-01 -6.16716862e-01 -9.23528016e-01 -1.72678936e+00</_>
    <_>
      6.26423836e-01 -7.60932341e-02 4.87089783e-01 1.29828560e+00
      1.22951436e+00 1.81322920e+00 1.49234056e+00 1.65518618e+00
      -2.95371264e-01 2.21817374e-01 -1.91023737e-01 -5.34753442e-01
      -1.16207325e+00 -1.26246142e+00 -8.67759407e-01 -9.03857648e-01
      -1.41628611e+00 -1.26153421e+00 -1.77277553e+00 -1.65569258e+00
      -1.77399218e-01 3.25989813e-01 -9.37749982e-01 3.81883472e-01
      -9.77933228e-01 7.20938981e-01 -9.35269475e-01 -1.55971795e-01
      1.57897258e+00 2.11537790e+00 2.70776868e+00 2.26802564e+00
      1.26926795e-01 -1.42214164e-01 1.10887468e+00 1.17770672e+00
      -8.24517369e-01 -1.14374399e+00 -9.91492450e-01 -1.10601151e+00
      -1.12658322e+00 -1.29905522e+00 -1.17877746e+00 -1.44018197e+00
      -5.97916007e-01 -8.60802233e-01 2.58540839e-01 1.34700360e-02
      -1.32492971e+00 -7.30656505e-01 -6.08727396e-01 -1.41361505e-01
      -1.91374779e+00 -1.69934189e+00 -1.44904959e+00 -6.77326798e-01
      9.95428562e-01 1.50691319e+00 6.95725024e-01 1.47509980e+00
      5.44477761e-01 3.08987349e-01 8.44990373e-01 8.72730494e-01
      6.07527532e-02 -8.42577815e-01 -3.09455991e-01 3.02006816e-03
      -1.05931863e-01 -7.85011947e-01 -5.17343104e-01 -8.49314451e-01
      6.62247911e-02 -1.19125199e+00 9.38124433e-02 -1.01254630e+00
      -5.75968802e-01 -5.05789518e-01 -2.68571287e-01 1.13444172e-01
      -9.36215758e-01 -1.00688231e+00 -9.89118159e-01 -9.92997348e-01
      1.79909623e+00 2.10421968e+00 2.15292716e+00 3.47243547e+00
      1.40584528e+00 1.00252855e+00 1.23583424e+00 1.71707225e+00
      2.21725321e+00 4.75161403e-01 1.54158747e+00 8.58130008e-02
      4.28653397e-02 -7.97000408e-01 -7.81007349e-01 -9.82106030e-01
      -2.95848161e-01 -6.17676377e-02 -6.27292573e-01 -9.63559866e-01
      -2.07668796e-01 -4.47189689e-01 -1.13619530e+00 -1.07463980e+00
      6.37120843e-01 6.16171777e-01 2.91514188e-01 6.23774648e-01
      1.99244350e-01 7.58047581e-01 -8.24612193e-03 1.20884192e+00
      1.41936052e+00 1.08026445e+00 8.84975791e-01 1.05038869e+00
      -5.45260131e-01 -7.17518210e-01 -1.20971882e+00 -6.54346049e-01
      -1.33254814e+00 -1.30240095e+00 -1.31535757e+00 -1.11647356e+00
      -7.15844154e-01 -1.03611124e+00 -6.50346875e-01 -1.14482677e+00
      1.67404309e-01 -2.97137082e-01 -2.92381495e-01 -2.04797760e-02
      4.71930653e-01 1.54791749e+00 -9.69526172e-01 -3.39362293e-01
      1.67348218e+00 1.84345961e+00 1.41181803e+00 1.82994008e+00
      5.63620508e-01 1.01737177e+00 6.29637301e-01 6.52662098e-01
      -9.06412244e-01 -7.13259459e-01 -9.90202844e-01 -8.82173061e-01
      -1.24560344e+00 -1.13352752e+00 -1.02249372e+00 -1.53071094e+00
      -4.46401805e-01 -1.34879380e-01 5.20119183e-02 -6.84567213e-01
      -5.10935485e-01 -6.89929128e-01 -1.02048993e+00 9.22449976e-02
      -2.16181326e+00 -9.32121336e-01 -1.75345957e+00 -6.94679022e-01
      1.12944305e+00 1.35900915e+00 3.53901029e-01 4.71597373e-01
      7.65011489e-01 1.49015057e+00 9.90558863e-01 6.87573671e-01
      -6.03853822e-01 4.10516590e-01 -7.72125483e-01 -6.36964023e-01
      1.62544236e-01 -2.56027251e-01 -5.00724852e-01 -3.14296007e-01
      -6.10443652e-01 -9.88910496e-01 -3.69088240e-02 -7.38317609e-01
      -1.40961015e+00 -6.61201060e-01 -1.86628193e-01 -7.67973363e-01
      -8.84303927e-01 -9.79813457e-01 -9.30907369e-01 -9.52329338e-01
      1.42537677e+00 1.85376561e+00 1.88420463e+00 1.62301672e+00
      1.39705777e+00 1.82590795e+00 1.65928042e+00 1.21265256e+00
      1.35372651e+00 1.05867672e+00 1.11725080e+00 1.17852795e+00
      9.80241969e-03 3.94319475e-01 5.41549129e-03 -2.81487107e-01
      -9.03059840e-01 -6.98334157e-01 1.12936981e-01 -6.44821227e-01
      1.48861915e-01 1.41257837e-01 -2.89726734e-01 -1.45219430e-01
      1.17514718e+00 9.65168834e-01 7.17774391e-01 9.31717813e-01
      5.63601911e-01 1.17393768e+00 9.53084052e-01 1.32190573e+00
      1.03947997e+00 1.09048319e+00 6.42786860e-01 1.04079294e+00</_>
    <_>
      -1.07307777e-01 -2.21901461e-01 -6.22914076e-01 6.25765383e-01
      1.86098054e-01 4.79681671e-01 -5.65195858e-01 4.12462682e-01
      1.70908645e-02 -2.18860433e-01 1.21668996e-02 4.69030201e-01
      7.51406431e-01 -4.12741257e-03 2.15083763e-01 8.41673970e-01
      8.71872902e-01 7.70292461e-01 5.46326637e-01 1.03866267e+00
      -1.75533090e-02 1.79927886e-01 1.24002981e+00 5.44655561e-01
      7.71805763e-01 1.13839257e+00 1.44937027e+00 1.36384809e+00
      -7.81322271e-02 -2.18524590e-01 -4.88593131e-01 1.93025962e-01
      -1.19061995e+00 -4.01439905e-01 -1.23517489e+00 5.73683858e-01
      -4.00994956e-01 -2.25768074e-01 -9.38841522e-01 8.86657238e-02
      1.40837312e-01 3.59176576e-01 1.79088786e-02 -3.06017548e-01
      4.84315962e-01 6.22700632e-01 5.65592289e-01 1.14661026e+00
      3.28634292e-01 7.89011896e-01 2.16851994e-01 8.45039845e-01
      1.37766552e+00 1.40631342e+00 6.21675730e-01 6.16585195e-01
      5.27782798e-01 9.28429306e-01 1.38326585e+00 1.60313499e+00
      4.92997855e-01 -4.88949239e-01 9.38165903e-01 8.93413246e-01
      4.69730914e-01 5.38594186e-01 3.45586210e-01 3.21314096e-01
      4.34130490e-01 5.37405968e-01 -5.63653260e-02 1.22037947e+00
      1.37430087e-01 1.43703020e+00 9.16855633e-01 1.02703166e+00
      7.38573611e-01 1.17809594e-01 6.66691899e-01 -5.09170480e-02
      8.43034461e-02 3.15398961e-01 8.57959986e-01 1.69771910e-01
      2.30681524e-01 -5.79285741e-01 -4.13561255e-01 -2.31546432e-01
      7.38032442e-03 9.00359094e-01 1.36502957e+00 -2.17948601e-01
      -6.27002478e-01 -8.89098421e-02 -2.46110946e-01 2.36526411e-02
      5.51827908e-01 5.43855011e-01 2.21788168e+00 2.05284376e-02
      6.38541698e-01 1.37211585e+00 4.89695579e-01 1.56364489e+00
      8.73780012e-01 -5.31288385e-01 1.10442197e+00 8.73797715e-01
      3.81792933e-01 4.70535338e-01 8.98150861e-01 3.18486467e-02
      1.11734831e+00 1.20247173e+00 -5.31396985e-01 -6.00613415e-01
      5.03334820e-01 -1.22950198e-02 4.49948497e-02 -7.47172058e-01
      -3.86255175e-01 -3.51274639e-01 9.15717721e-01 -1.68661937e-01
      6.37139976e-01 1.77807137e-01 -1.57147825e-01 6.49602432e-03
      1.55389321e+00 1.31101596e+00 9.65956986e-01 1.28337824e+00
      7.44683862e-01 1.61860824e+00 1.44862020e+00 7.98829079e-01
      1.65099835e+00 2.17564917e+00 1.40644515e+00 1.29134297e+00
      2.96829253e-01 -6.36515534e-03 -3.45860958e-01 1.45006731e-01
      9.28983450e-01 6.31528497e-01 -1.91220660e-02 5.97733378e-01
      -3.45208734e-01 -1.09324969e-01 -6.82112575e-01 -2.52781451e-01
      1.05654395e+00 6.44845903e-01 1.64742440e-01 -2.03348458e-01
      1.43833208e+00 1.46876502e+00 9.27676201e-01 1.50019491e+00
      1.42817235e+00 5.38013041e-01 -2.34749809e-01 -8.46687376e-01
      2.26598501e+00 6.05795205e-01 4.59898055e-01 -3.45888019e-01
      5.52083075e-01 1.42008722e+00 1.87535381e+00 3.31922621e-01
      -6.63256496e-02 2.73501247e-01 4.39018430e-03 -1.33233648e-02
      4.04719949e-01 4.85074848e-01 -4.25330281e-01 1.76970169e-01
      -4.32195991e-01 -2.64076024e-01 -5.32966256e-01 -3.78986984e-01
      6.00496888e-01 1.33307278e+00 1.30606639e+00 1.41487885e+00
      2.07635030e-01 -3.92348319e-02 1.40057254e+00 -2.48234905e-02
      1.21486533e+00 6.16564035e-01 -1.31942913e-01 4.24474895e-01
      -7.21235156e-01 -3.40532720e-01 9.74341016e-03 -7.03440001e-03
      -3.64384145e-01 2.95176178e-01 -2.13686600e-01 2.38080472e-01
      -6.83706045e-01 -3.78021002e-01 -5.26871204e-01 -6.34166241e-01
      2.86150854e-02 4.36914593e-01 2.09315228e+00 9.16099668e-01
      8.31532001e-01 6.91019058e-01 1.29174328e+00 1.28095448e+00
      -3.19637418e-01 -4.01335657e-01 1.05327356e+00 -1.51061594e-01
      -3.14337052e-02 8.69203091e-01 1.43186116e+00 8.71712565e-02
      -5.07013440e-01 -5.04251957e-01 -5.46728373e-01 -3.13728750e-01
      9.20619309e-01 4.79180753e-01 4.80850905e-01 4.82881010e-01</_>
    <_>
      -9.42401774e-03 -5.23670554e-01 8.00692216e-02 -4.64234024e-01
      -4.36865687e-02 1.53349638e+00 -3.56365405e-02 1.86410320e+00
      -7.34426752e-02 1.26248813e+00 2.11253002e-01 8.83077309e-02
      -2.03493044e-01 -2.60798596e-02 -4.74716350e-03 -7.62803257e-01
      4.95534003e-01 8.86852667e-02 -1.17560336e-02 -6.04781270e-01
      7.25336254e-01 1.54817808e+00 2.55401015e-01 5.53164065e-01
      2.04302177e-01 -1.51168793e-01 4.94111747e-01 -7.39965886e-02
      -1.84825763e-01 1.45851660e+00 2.44992986e-01 1.99271655e+00
      2.54672449e-02 1.42239046e+00 -2.87487447e-01 1.35997212e+00
      5.61928272e-01 1.41668546e+00 2.33586639e-01 2.76609004e-01
      7.34612048e-01 1.90612689e-01 5.18597782e-01 -5.86520672e-01
      1.12440443e+00 5.82046628e-01 5.88706374e-01 3.21414500e-01
      2.09495559e-01 5.07633127e-02 7.24722743e-01 5.28292358e-02
      2.18405652e+00 -2.73344249e-01 3.22551489e-01 -3.14577073e-01
      -3.44769597e-01 1.76275980e+00 2.13701636e-01 2.37794828e+00
      1.84857875e-01 2.08774376e+00 -3.78705204e-01 1.99868262e+00
      8.22475612e-01 8.60608995e-01 1.05228817e+00 5.36233932e-02
      1.05192327e+00 7.29498863e-01 2.70532489e-01 6.07632577e-01
      7.01690853e-01 -4.56646085e-01 -3.22764158e-01 -2.72101879e-01
      7.04512656e-01 -4.77430046e-01 2.18622684e-01 -1.15442610e+00
      9.58660305e-01 6.38727009e-01 6.10155165e-01 -7.92706490e-01
      4.92561236e-02 1.76797545e+00 5.18358827e-01 2.53227568e+00
      5.09725392e-01 1.47153044e+00 -9.28313565e-03 1.33833408e+00
      5.61804354e-01 1.64665103e+00 5.85878909e-01 1.76004648e+00
      1.42242503e+00 1.09217227e+00 8.47619355e-01 6.22112036e-01
      -8.71784866e-01 -1.59852958e+00 4.46630716e-01 -8.97059023e-01
      -2.10643888e-01 -5.52598476e-01 1.07864058e+00 -2.35247397e+00
      9.63072896e-01 4.12126452e-01 4.91937548e-01 -2.89041847e-01
      1.85680854e+00 -3.85443628e-01 7.50469983e-01 -6.73290342e-02
      -4.17924374e-02 -4.86282766e-01 9.71080482e-01 3.73257279e-01
      7.08053112e-01 -4.13973421e-01 5.29594719e-01 -3.57090890e-01
      9.22127590e-02 -1.04002059e+00 1.32493508e+00 -4.79537457e-01
      8.34318340e-01 -6.42039478e-01 7.85203755e-01 -4.38841105e-01
      1.37611866e-01 3.24109286e-01 5.31910658e-01 -7.47870579e-02
      -7.35499561e-01 3.59297812e-01 -5.86364031e-01 7.74067640e-01
      -5.22561550e-01 1.50494829e-01 2.82490015e-01 4.32255566e-01
      -2.80820578e-01 -6.11068606e-01 7.02675343e-01 1.46522477e-01
      1.99271366e-01 -1.13794148e+00 2.16870859e-01 -7.22416580e-01
      3.95901054e-01 -1.14901912e+00 4.97917563e-01 -8.63595009e-01
      -1.19142461e+00 -1.45150447e+00 -6.24394059e-01 -4.74607170e-01
      9.20794666e-01 -4.75592494e-01 1.46186423e+00 -3.29540640e-01
      2.29252264e-01 -8.65692139e-01 1.28327265e-01 -3.56306881e-01
      6.21646583e-01 -7.81931877e-02 -3.70921463e-01 6.22686386e-01
      -3.85222465e-01 -3.95359635e-01 3.15294385e-01 6.94915354e-02
      -6.12794340e-01 -1.44128382e+00 -2.62620926e-01 -7.58561254e-01
      -1.06883667e-01 -4.31363374e-01 -1.08798397e+00 -9.51858163e-01
      8.60347375e-02 -1.08157694e+00 -9.83641565e-01 -6.12274647e-01
      3.45303744e-01 -2.67569005e-01 9.67576563e-01 -8.22828710e-01
      3.30018371e-01 6.07190847e-01 -4.00934309e-01 -2.29275391e-01
      -1.18328715e-02 4.53901999e-02 4.92653280e-01 8.45266342e-01
      -5.27191699e-01 -3.53335023e-01 -2.68249601e-01 3.99452031e-01
      -9.16589141e-01 -5.79688907e-01 -8.60032380e-01 8.35939050e-02
      2.75844801e-02 9.54477310e-01 6.83699310e-01 9.56903100e-01
      4.11942184e-01 4.84319180e-01 3.45605880e-01 3.11133843e-02
      1.02279700e-01 1.33617923e-01 -8.96164849e-02 -2.18895584e-01
      1.93187010e+00 1.73887503e+00 8.21686864e-01 8.56245935e-01
      -3.48935008e-01 9.69966650e-02 -3.96349281e-01 3.64941657e-01
      6.60740316e-01 5.81137896e-01 9.07089353e-01 2.33834013e-01</_>
    <_>
      -6.16252780e-01 1.70621261e-01 -1.58956575e+00 -1.01736927e+00
      -4.36472595e-01 -7.80637190e-02 -1.24150217e+00 -1.07984889e+00
      -2.76121140e-01 -2.32201785e-01 -6.70403481e-01 5.63247576e-02
      -2.31247023e-01 -4.71118629e-01 1.16434169e-03 -2.03508720e-01
      -3.20805192e-01 -6.89929068e-01 -1.58235148e-01 -1.09704268e+00
      2.99808919e-01 -5.36793768e-01 -5.40166795e-01 -1.28533930e-01
      -9.77933228e-01 3.61825407e-01 -9.35269475e-01 6.68888688e-01
      -4.51067686e-01 2.92117186e-02 -3.97099257e-01 -7.91719437e-01
      -8.07463408e-01 4.00381744e-01 -1.16586709e+00 -6.05578125e-01
      3.79853368e-01 1.14027977e+00 2.84519821e-01 3.72465909e-01
      1.74233019e+00 1.51792836e+00 1.67627347e+00 2.22516227e+00
      3.04490358e-01 1.97116733e-02 4.80052561e-01 1.76539123e+00
      -4.26400065e-01 -5.59002757e-02 -1.35097742e+00 4.87289811e-03
      1.24143720e+00 1.04861391e+00 1.20627664e-01 1.07198727e+00
      -1.06060338e+00 -1.07328880e+00 -1.61963642e-01 -1.37289774e+00
      -1.67676103e+00 4.66296673e-01 -9.05229688e-01 -1.00868940e-01
      9.57896635e-02 8.37559342e-01 4.23963964e-01 1.95204985e+00
      5.21263421e-01 1.18716992e-02 3.95098269e-01 1.06700838e+00
      6.59401596e-01 -6.46626651e-01 3.03223789e-01 1.62376404e+00
      1.15831220e+00 2.17262238e-01 5.21536171e-01 1.09137940e+00
      1.10690415e+00 1.48975849e-01 8.07956338e-01 1.25572875e-01
      -1.38736653e+00 -4.47753631e-02 -5.11331379e-01 -3.57829332e-01
      -3.48157436e-01 1.14781404e+00 -1.83415726e-01 7.22360015e-01
      8.59578997e-02 4.25929457e-01 9.10804272e-02 6.07870221e-01
      7.05960393e-01 -1.52328238e-01 2.66490549e-01 9.83291745e-01
      1.11003578e-01 -6.20429695e-01 3.68463308e-01 9.63005781e-01
      -9.68120515e-01 -1.53598809e+00 8.13054681e-01 5.09654045e-01
      -1.52485073e+00 -1.23472595e+00 9.92079154e-02 2.45556161e-01
      -6.29341781e-01 5.48586011e-01 -4.89804208e-01 5.23260653e-01
      -2.45907590e-01 -5.80521598e-02 -3.31181616e-01 4.12295341e-01
      7.03705430e-01 6.13820255e-01 3.50947052e-01 5.04898787e-01
      1.07708573e+00 2.06518292e-01 1.63705721e-02 -3.73299450e-01
      5.89334428e-01 -7.33295921e-03 -6.68209568e-02 -9.97258499e-02
      -1.67449260e+00 -1.71004832e+00 -1.67859241e-01 4.89647985e-01
      -9.94521141e-01 -9.08797503e-01 -9.69526172e-01 -9.59133565e-01
      -6.48767650e-01 -2.85927534e-01 -8.97037625e-01 -7.82978535e-01
      1.82220004e-02 6.43671215e-01 4.19108793e-02 1.13749309e-02
      2.06432271e+00 2.58577704e+00 5.27569801e-02 -2.68797483e-03
      1.23962224e+00 1.29689658e+00 1.06664550e+00 4.65003222e-01
      -6.71687424e-01 -1.23286307e+00 -9.71971974e-02 -2.43353978e-01
      1.98279336e-01 -6.09665096e-01 -6.30471289e-01 -2.10795462e-01
      5.67085326e-01 7.78129816e-01 -2.41000548e-01 8.41002688e-02
      -5.48719287e-01 -2.36958101e-01 -5.87920964e-01 8.85492265e-01
      -8.94508243e-01 4.58612479e-02 -1.51917589e+00 -9.70741272e-01
      -7.61921406e-01 -2.40042225e-01 -1.06575561e+00 -3.92718822e-01
      -1.30649853e+00 -1.58997893e+00 -8.83129716e-01 -7.50135183e-01
      -1.10261178e+00 -1.58028805e+00 -8.16674531e-01 -1.32155395e+00
      1.13426411e+00 -9.70753580e-02 9.74897623e-01 2.13013545e-01
      -8.84303927e-01 -9.79813457e-01 -9.30907369e-01 -9.52329338e-01
      -3.48200142e-01 1.22172371e-01 -1.06332254e+00 -1.11784792e+00
      -5.65727234e-01 1.87477514e-01 -1.86831820e+00 -1.50446630e+00
      -1.21362984e+00 -9.50112939e-01 -1.47731471e+00 -5.32117784e-01
      -7.70589173e-01 -2.62479365e-01 -9.48030472e-01 1.08671993e-01
      -1.06434137e-01 -9.29252565e-01 1.42795980e-01 -4.99484271e-01
      8.31559122e-01 -2.56638169e-01 6.62591398e-01 -4.62799400e-01
      5.75656056e-01 -4.27450091e-02 -2.61832684e-01 1.89231038e+00
      1.04494989e-01 -2.35748067e-01 1.22963119e+00 -7.45267510e-01
      -7.12453902e-01 1.99851304e-01 -1.10801589e+00 -6.12070739e-01</_>
    <_>
      -4.69501495e-01 4.87414211e-01 1.65516126e+00 1.47919846e+00
      -5.05493462e-01 -2.17645451e-01 1.28686881e+00 1.75542188e+00
      -2.17703208e-01 1.16295218e+00 1.22681451e+00 1.51294494e+00
      -1.37786314e-01 1.15701747e+00 1.11396599e+00 1.07575154e+00
      -3.49070936e-01 9.01275158e-01 1.15089047e+00 4.55326796e-01
      1.87047005e-01 1.36674654e+00 -5.05974293e-01 -5.62533259e-01
      -9.77933228e-01 -8.13693285e-01 5.22990942e-01 4.04418170e-01
      -1.95759088e-01 -2.00736403e-01 1.83342743e+00 8.39299381e-01
      -7.07369387e-01 -1.78183429e-02 1.38853693e+00 1.47127068e+00
      2.16147304e-01 1.40430653e+00 2.92385387e+00 1.21650982e+00
      2.00892901e+00 1.19898784e+00 1.43997288e+00 8.39030147e-01
      4.11502808e-01 -5.95782623e-02 -1.07667518e+00 -1.14453304e+00
      -1.31533301e+00 -5.33903658e-01 -8.52094948e-01 -1.16403627e+00
      -7.17480242e-01 -8.52956995e-03 -1.35693908e+00 -1.10132241e+00
      -1.56452611e-01 2.15833974e+00 -1.26940638e-01 -4.26506311e-01
      -2.66078383e-01 9.61968184e-01 9.20809209e-01 -4.75765377e-01
      3.70541096e-01 -2.57950604e-01 -7.53528059e-01 -9.62606728e-01
      2.56193820e-02 -2.60165986e-02 -1.67165256e+00 -1.27406275e+00
      8.70023787e-01 -1.02984631e+00 -1.65308619e+00 -1.40405476e+00
      -5.71276128e-01 -2.55860567e-01 -8.65264416e-01 -1.24151695e+00
      -9.36215758e-01 -1.00688231e+00 -9.89118159e-01 -9.92997348e-01
      -3.95132378e-02 -8.18522573e-01 9.16360855e-01 -3.62947762e-01
      -2.76511610e-01 -9.41898167e-01 -2.12901175e-01 -1.13609111e+00
      3.26151192e-01 -3.07609946e-01 -1.93026388e+00 -9.08215642e-01
      1.57205570e+00 -3.23764622e-01 -1.53996432e+00 9.32502449e-01
      4.44246292e-01 -9.72909093e-01 -1.61719930e+00 4.32926297e-01
      -8.49475741e-01 9.29254219e-02 -2.30792928e+00 -2.07938480e+00
      -8.87888670e-01 9.41623330e-01 -9.19037640e-01 -1.42129052e+00
      1.83222568e+00 -2.81843930e-01 5.67366540e-01 -1.00025427e+00
      9.49635446e-01 -7.01906025e-01 -4.82598752e-01 -7.22101986e-01
      2.67551541e+00 -2.94890046e-01 -1.28493440e+00 1.69957101e+00
      3.21531415e-01 -3.79025638e-02 -8.69239390e-01 9.74250913e-01
      -7.32655302e-02 -7.92951524e-01 -4.54243302e-01 -1.38891757e-01
      5.58854267e-02 2.37235934e-01 -1.49023557e+00 -1.50916374e+00
      2.53374904e-01 -9.08797503e-01 1.83238411e+00 3.37791085e-01
      4.35656130e-01 -6.78397834e-01 1.22391433e-01 2.60147750e-01
      -3.39968167e-02 -1.21062815e-01 -3.95147391e-02 -4.20315027e-01
      1.06172943e+00 9.01495993e-01 5.49375176e-01 -4.47970331e-01
      1.30428481e+00 -3.87820423e-01 8.86454523e-01 -6.84575796e-01
      -1.96415097e-01 -1.31202948e+00 8.01790953e-01 -2.54088044e-01
      -2.31950864e-01 1.35957196e-01 2.18387032e+00 9.44971919e-01
      1.80143362e-03 1.94467172e-01 -1.55083075e-01 -3.77548248e-01
      -1.40240371e+00 -3.63987088e-01 -9.14254606e-01 -4.98372287e-01
      -6.30945683e-01 1.57904342e-01 1.82301909e-01 2.19161734e-01
      -6.14551246e-01 -1.90045565e-01 -2.18639180e-01 -1.19134352e-01
      -9.13750708e-01 -1.08882532e-01 -7.12545276e-01 -3.60799879e-01
      2.38320351e-01 2.25349516e-01 1.13866758e+00 5.91657937e-01
      1.04819715e+00 7.15966582e-01 2.03889370e+00 -2.37925258e-02
      7.16827035e-01 -9.79813457e-01 6.57797232e-02 -9.52329338e-01
      -6.21072352e-01 -4.75501895e-01 7.14201331e-01 7.11993694e-01
      -7.85921335e-01 -8.01160812e-01 5.19820154e-01 4.31229651e-01
      -7.51289427e-01 -1.27384350e-01 -1.72323897e-01 -1.92277461e-01
      -9.25769329e-01 1.61480689e+00 -2.21535802e-01 2.80525032e-02
      1.48262948e-01 1.12942624e+00 1.81263447e+00 1.14846206e+00
      6.12682283e-01 7.58931518e-01 6.19857132e-01 -5.55208087e-01
      -2.30842769e-01 1.88408458e+00 -5.08900702e-01 -1.15011299e+00
      -7.19155550e-01 -2.63647944e-01 4.05321941e-02 -3.01321894e-01
      -4.34841841e-01 1.79390579e-01 2.61943549e-01 2.49317497e-01</_>
    <_>
      1.68238091e+00 -3.26048672e-01 2.23392463e+00 2.56116003e-01
      2.02870011e+00 1.32775903e+00 2.36219406e+00 6.67333484e-01
      1.32801163e+00 5.32496750e-01 1.41030777e+00 -6.56728923e-01
      1.84267390e+00 6.53408647e-01 1.02359772e+00 -6.01513624e-01
      8.28795135e-01 -2.58713841e-01 9.49568033e-01 -8.08590174e-01
      -1.92244077e+00 -1.60649443e+00 -4.26271200e-01 -1.26583740e-01
      -9.77933228e-01 -8.13693285e-01 -9.35269475e-01 -9.05812562e-01
      2.79992890e+00 1.34115970e+00 2.90339732e+00 1.62685204e+00
      3.75802684e+00 9.88525033e-01 3.90498972e+00 1.15879858e+00
      3.31061387e+00 1.06675017e+00 2.51437497e+00 -2.22478002e-01
      8.37183356e-01 -3.99025053e-01 -7.99803361e-02 -1.00555956e+00
      -6.87272668e-01 -1.01169360e+00 -7.68330038e-01 -9.33198512e-01
      -1.34309316e+00 -6.35327399e-01 2.44061723e-01 2.51012146e-01
      -7.17989743e-01 -4.53594863e-01 -3.83036792e-01 -4.68568832e-01
      -1.75748274e-01 1.52392697e+00 1.93359220e+00 1.40120089e+00
      1.17475963e+00 -4.72746417e-02 2.39074659e+00 7.04680860e-01
      -1.15809345e+00 -1.34958208e+00 8.73088688e-02 -6.30896986e-01
      -1.57567823e+00 -1.75912774e+00 -1.70967984e+00 -1.81519485e+00
      -1.54921675e+00 -6.73572540e-01 -1.40109825e+00 -6.92193925e-01
      -9.73032892e-01 -8.34795833e-01 6.39794469e-01 2.03836530e-01
      -9.36215758e-01 -1.00688231e+00 -9.89118159e-01 -9.92997348e-01
      1.14080215e+00 1.76985073e+00 1.72095847e+00 2.49970293e+00
      -1.20895457e+00 -4.38988581e-02 2.57176161e-01 5.89460731e-01
      -1.50937104e+00 1.76576152e-01 -1.42969882e+00 -1.10761225e-01
      -8.32837641e-01 4.07147980e+00 7.84711540e-01 2.27820516e+00
      -2.20356679e+00 -1.27228117e+00 -1.83104157e+00 -8.52947652e-01
      -1.95645714e+00 -1.16353774e+00 -1.06484699e+00 -3.56964141e-01
      -1.37799180e+00 -1.35622036e+00 -9.66234148e-01 -5.91800749e-01
      -5.73736668e-01 -3.30123693e-01 1.31471539e+00 3.40438396e-01
      -1.71090043e+00 1.14719105e+00 -4.89549130e-01 1.91949022e+00
      -1.41504729e+00 8.64240676e-02 -1.33859289e+00 -8.23717058e-01
      -1.02003324e+00 -1.22757733e+00 -9.42820072e-01 -9.48689342e-01
      -9.06495690e-01 -2.57094240e+00 -1.74572515e+00 -2.68263578e+00
      -7.51864791e-01 -7.08711088e-01 -9.25439656e-01 -3.71561736e-01
      3.27571034e-01 7.93264627e-01 -9.69526172e-01 9.52418149e-01
      -2.24409819e-01 1.36088026e+00 4.87832457e-01 2.38586092e+00
      -5.05026817e-01 -8.09990466e-01 -5.48050702e-01 8.10136914e-01
      -2.19938189e-01 -1.12540174e+00 -7.97729492e-01 -7.64326453e-01
      5.73148653e-02 -1.18118215e+00 -8.81807864e-01 -1.74618065e+00
      4.12299395e-01 -8.11484873e-01 -9.32787359e-01 -1.74901521e+00
      8.31511140e-01 4.45015848e-01 7.24313319e-01 -5.16708493e-01
      1.54110789e-01 -8.69291365e-01 4.77423072e-02 -6.77475810e-01
      -8.72955918e-01 2.96113670e-01 -8.86622146e-02 5.30356646e-01
      -1.15544461e-01 -1.05300915e+00 -4.62184757e-01 -8.72817397e-01
      1.62599385e-01 -7.52535284e-01 -5.69024622e-01 -1.60694432e+00
      -6.47049725e-01 -1.14473438e+00 -1.10196066e+00 -1.71281326e+00
      -5.05244911e-01 -1.42853630e+00 -1.62488565e-01 -1.11252117e+00
      2.94466066e+00 4.30768013e-01 1.57406831e+00 -3.08389425e-01
      -8.84303927e-01 -4.24900055e-02 -9.30907369e-01 7.41915107e-01
      4.53746885e-01 4.04253155e-01 7.60748863e-01 6.08815908e-01
      4.29868877e-01 1.40752867e-01 -1.48024857e-01 -1.79142550e-01
      -7.59813413e-02 -1.61449149e-01 -2.18566775e-01 -4.25639689e-01
      -3.60156775e-01 9.76111650e-01 -1.36296540e-01 -4.29024786e-01
      1.46721530e+00 2.59131491e-01 1.84966826e+00 -6.92879260e-01
      4.54992324e-01 -1.09924686e+00 1.34994316e+00 5.50508320e-01
      -5.69631159e-01 -6.36497676e-01 -3.21279317e-01 1.87445119e-01
      -1.89297408e-01 1.53573245e-01 3.23426992e-01 1.26251173e+00
      -2.26588115e-01 3.11114967e-01 1.53629601e+00 9.43711936e-01</_>
    <_>
      5.63126862e-01 8.64204988e-02 5.99096358e-01 5.24619147e-02
      -4.28728282e-01 -2.01653481e-01 2.83805996e-01 5.80294251e-01
      -9.72908199e-01 -8.30276191e-01 -3.38442773e-01 5.79578280e-01
      -5.48041224e-01 5.48392348e-02 -5.37668169e-02 1.38588834e+00
      2.06570581e-01 3.58777612e-01 3.58896405e-01 1.09396303e+00
      -8.21517646e-01 -4.68323350e-01 1.16543663e+00 -1.46181509e-01
      5.27417541e-01 -8.13693285e-01 1.85102642e+00 -2.13007405e-01
      -4.77900058e-01 -7.69768417e-01 -1.74232647e-01 1.39162409e+00
      -7.16482326e-02 -5.97057164e-01 6.97422624e-01 1.56105638e+00
      -2.64785975e-01 3.18970978e-01 -1.37294620e-01 2.29187036e+00
      1.11385858e+00 7.50144839e-01 4.09095198e-01 9.83216405e-01
      7.79195309e-01 8.83298397e-01 4.06442195e-01 1.24988973e+00
      6.76228404e-01 1.04068100e+00 2.22256333e-01 -1.09757364e+00
      1.24671757e+00 1.65642905e+00 5.38786054e-01 -5.87706685e-01
      -1.50875556e+00 3.30013126e-01 2.59064674e-01 1.58393407e+00
      -5.53546011e-01 -1.30694762e-01 2.20871195e-01 1.60241199e+00
      1.17650485e+00 3.33011568e-01 6.00575209e-01 3.05240154e-01
      7.40749240e-01 4.29936826e-01 5.60118079e-01 1.43647110e+00
      7.40787387e-01 1.04810023e+00 -1.54351458e-01 -1.02012202e-01
      2.11467552e+00 1.04594076e+00 1.28762138e+00 6.79933727e-01
      7.91649103e-01 4.47746329e-02 1.74018443e+00 1.05037296e+00
      -5.31758904e-01 -3.39183241e-01 -2.64406145e-01 4.06868547e-01
      1.15871119e+00 9.07119274e-01 1.04673401e-01 6.40526563e-02
      -5.58884501e-01 7.48533234e-02 -1.10019314e+00 -5.69858789e-01
      -2.27608845e-01 1.27574861e-01 1.90949643e+00 -1.06326520e+00
      9.36798751e-01 8.51499498e-01 7.50761271e-01 -4.78548706e-01
      -9.98398185e-01 -1.24228939e-01 1.00641525e+00 2.57888604e-02
      -7.17666268e-01 -1.66017783e+00 1.06449807e+00 -3.53004575e-01
      1.23038805e+00 1.66281104e+00 -1.80520251e-01 4.01462018e-01
      9.58899140e-01 3.66858304e-01 1.66094407e-01 -4.01835531e-01
      9.65481102e-01 2.81505406e-01 -1.81418151e-01 -1.11219954e+00
      1.47358823e+00 9.19461787e-01 -3.62854570e-01 -3.17731947e-01
      1.73497224e+00 6.44242883e-01 1.19867325e+00 -2.26119369e-01
      -9.44891214e-01 -1.68206096e-01 1.94585669e+00 2.03865483e-01
      -9.94521141e-01 2.09281698e-01 1.64173007e+00 8.53991628e-01
      4.65304732e-01 2.96597689e-01 2.70356715e-01 5.64730048e-01
      8.25772762e-01 1.37061164e-01 6.96645975e-01 3.55753690e-01
      1.82354128e+00 9.72470164e-01 -5.30274928e-01 5.80577970e-01
      9.23896611e-01 9.07326818e-01 1.98021993e-01 2.36360997e-01
      1.18079567e+00 4.62500334e-01 1.49164569e+00 -7.55002871e-02
      -4.03837085e-01 3.90611365e-02 1.45687759e+00 -1.14489400e+00
      9.94508505e-01 8.24109495e-01 5.56349158e-01 2.93687701e-01
      -7.27326512e-01 1.37569070e+00 5.04010439e-01 1.60146073e-01
      -8.02053988e-01 3.59400660e-01 4.54014450e-01 3.61580521e-01
      -1.91587582e-02 7.11938441e-02 -1.24567032e-01 -5.63897640e-02
      -9.93403733e-01 -7.25561798e-01 -6.22129738e-01 -5.12089193e-01
      3.53014201e-01 1.75065741e-01 1.24118114e+00 -4.99453932e-01
      1.27867603e+00 8.28162670e-01 7.30791092e-01 9.98747110e-01
      6.46175504e-01 -5.45099080e-01 1.58237100e+00 7.82210112e-01
      -6.50168955e-01 -9.02152732e-02 4.45604650e-03 -7.35155046e-02
      -6.47457123e-01 -1.75008565e-01 2.12180048e-01 1.93970073e-02
      -1.20085502e+00 -4.66653228e-01 -6.55297399e-01 -8.09466600e-01
      -7.33035803e-01 -3.72849226e-01 1.78284121e+00 -9.43752646e-01
      2.68173635e-01 -1.28936067e-01 9.40101326e-01 -4.22574803e-02
      -6.58378899e-01 -9.67938662e-01 -8.71716663e-02 -1.01705223e-01
      -4.19882327e-01 -4.27546412e-01 1.40807545e+00 -8.84152710e-01
      -5.25877416e-01 -4.01694238e-01 -4.89408970e-01 -9.99045968e-02
      3.17749083e-02 1.78717539e-01 6.00304008e-01 8.79702717e-02</_>
    <_>
      3.13821733e-01 5.30271292e-01 -1.49309421e+00 -9.88696218e-01
      9.19430673e-01 1.31656453e-01 -6.83372974e-01 -7.55625248e-01
      3.03480119e-01 1.78623646e-01 -2.10701153e-01 -4.60729361e-01
      7.29389250e-01 -1.24813795e-01 1.74374580e-01 -7.86838174e-01
      -1.16019750e+00 -9.02379304e-02 -1.28592002e+00 2.16142386e-01
      7.03282714e-01 2.09367156e-01 4.60794330e-01 1.19339895e+00
      6.46894038e-01 1.71979722e-02 -6.77382806e-03 -4.12754476e-01
      1.06399834e+00 3.78882825e-01 -4.79004383e-02 1.16788195e-02
      1.01722658e+00 1.37358010e-01 1.51855424e-01 4.44047362e-01
      -6.27602816e-01 -2.09317461e-01 -1.23463333e+00 -1.43822834e-01
      -6.17837012e-01 2.66429991e-01 -1.13609838e+00 -5.54121956e-02
      -3.16039950e-01 -5.01078106e-02 -7.11192489e-01 1.89580381e+00
      2.29262903e-01 -3.69753718e-01 -6.35010421e-01 -2.57544458e-01
      4.28956807e-01 1.42364359e+00 -6.91167474e-01 8.54335666e-01
      2.96794325e-01 2.64016330e-01 1.44594157e+00 1.82407570e+00
      3.13359767e-01 -5.84586322e-01 -7.80683935e-01 4.74266291e-01
      1.02564134e-01 6.94465637e-01 -2.88591117e-01 1.57705402e+00
      1.37617424e-01 4.46220160e-01 1.61463773e+00 3.86132216e+00
      -1.31666934e+00 -6.51639998e-01 7.54918754e-01 1.13600814e+00
      7.92005539e-01 1.37579119e+00 -1.07670940e-01 1.40060186e+00
      -9.36215758e-01 -1.00688231e+00 7.97234714e-01 -3.70848358e-01
      6.60681546e-01 -2.07291856e-01 -7.72868335e-01 -5.93106568e-01
      5.41615598e-02 -1.75664961e-01 -1.02864993e+00 -7.39300847e-01
      7.75196910e-01 -1.07395446e+00 1.19462931e+00 3.45302582e-01
      9.25923809e-02 -1.20587468e+00 7.59513557e-01 -5.20473421e-01
      6.54605687e-01 1.30718891e-02 2.44404173e+00 1.42879045e+00
      1.76322401e+00 1.78888455e-01 5.76800442e+00 3.08825064e+00
      5.54057956e-01 1.42248169e-01 2.71505046e+00 1.48946464e+00
      3.78084481e-01 5.64899445e-01 -3.19439143e-01 -1.22170933e-01
      1.49305344e-01 -9.72210705e-01 3.33845288e-01 -4.49479111e-02
      1.18026502e-01 -8.66110325e-01 7.03431070e-01 -2.56770581e-01
      1.82603300e-01 2.34115815e+00 -8.74576509e-01 -3.96470577e-01
      4.83191043e-01 7.03664899e-01 1.05132318e+00 1.68055844e+00
      2.44728637e+00 1.00719893e+00 3.44627690e+00 8.80782902e-01
      1.40313196e+00 6.59187973e-01 1.40003398e-01 -2.94214904e-01
      9.04319167e-01 -1.36658724e-04 6.17922246e-01 1.56971842e-01
      9.88881350e-01 -2.31357384e-02 2.68504930e+00 1.19488108e+00
      -8.29248503e-02 1.76439786e+00 -9.35956240e-01 1.76080436e-01
      -8.20984185e-01 2.93678105e-01 -8.85705650e-01 5.00814840e-02
      2.55128741e-01 4.36736614e-01 1.20223784e+00 2.62689441e-01
      8.53594542e-01 1.75262094e-01 -8.45308185e-01 -1.20839036e+00
      1.75691694e-01 9.30938601e-01 -1.23806000e+00 -8.64201665e-01
      1.59897232e+00 -3.90110195e-01 4.38414907e+00 2.26305890e+00
      9.89278018e-01 5.11841059e-01 4.66399312e-01 -7.65587986e-01
      1.93259250e-02 6.65099680e-01 -9.30543467e-02 1.33910388e-01
      1.46877244e-01 -2.42156953e-01 5.07470548e-01 1.37728676e-01
      -4.50518996e-01 -3.12592953e-01 -5.86133718e-01 -4.70495164e-01
      2.94935517e-02 -6.29827023e-01 -7.43036211e-01 -7.99740195e-01
      -8.84303927e-01 6.43678486e-01 6.07710540e-01 1.33827317e+00
      9.73718405e-01 5.15946150e-01 -1.63134381e-01 -9.11350846e-01
      9.50656831e-01 7.07429826e-01 -9.52409625e-01 -9.09328043e-01
      6.23171926e-01 2.68012524e-01 -5.67844331e-01 -2.50949234e-01
      -2.34604284e-01 -9.34354216e-02 -1.10930896e+00 -7.80577838e-01
      -1.61145493e-01 -5.66172838e-01 -1.94423795e-01 -6.34851694e-01
      -1.00300752e-01 6.86557814e-02 9.27292645e-01 1.13052797e+00
      1.02650724e-01 1.18677415e-01 1.65795505e+00 2.00192833e+00
      -9.21287611e-02 -5.34226358e-01 -2.91103303e-01 -4.76721287e-01
      1.34199893e+00 6.99292243e-01 8.14501584e-01 6.45362914e-01</_>
    <_>
      -1.50434160e+00 7.96961933e-02 -1.43723667e+00 -1.36161339e+00
      -9.29053053e-02 -5.01226127e-01 -1.20957112e+00 -1.01069915e+00
      -1.66943491e-01 8.89073033e-03 -5.56167364e-01 4.81482223e-02
      -3.25608104e-01 -5.49043596e-01 -4.34622765e-01 -3.38488370e-01
      -2.28596359e-01 -9.07617867e-01 -1.16109826e-01 -1.13606088e-01
      5.27580380e-01 -1.68913752e-01 -4.48882937e-01 5.59205472e-01
      7.78434694e-01 -3.42334718e-01 1.00278866e+00 1.11327267e+00
      -6.10111117e-01 5.37481427e-01 -4.96320933e-01 -2.96451718e-01
      -1.05198467e+00 1.20363012e-01 -9.56311584e-01 -3.64309102e-01
      4.33764726e-01 1.00184727e+00 7.88737461e-02 1.26180336e-01
      1.66552377e+00 1.63099968e+00 1.53599977e+00 2.38427472e+00
      -1.42193034e-01 -2.21529558e-01 8.93781632e-02 1.39374065e+00
      -6.16697490e-01 4.21440989e-01 -7.10657239e-01 -3.72509271e-01
      1.93317962e+00 2.22751513e-01 3.23540330e-01 7.49234438e-01
      -1.21930909e+00 -7.45270431e-01 -1.59186471e+00 -1.00282264e+00
      -1.35699177e+00 8.70550498e-02 -9.23166633e-01 -4.73692298e-01
      3.25380653e-01 1.15185034e+00 1.40269294e-01 1.73304701e+00
      4.33593750e-01 1.44311696e-01 6.69969469e-02 1.01696730e+00
      6.03701472e-01 -1.47548048e-02 3.18990439e-01 2.07445884e+00
      6.74530864e-01 5.81607342e-01 -4.36452955e-01 1.02526796e+00
      -9.36215758e-01 -1.00688231e+00 2.85056055e-01 3.98170143e-01
      -9.91741180e-01 2.31727839e-01 -9.04167175e-01 -9.54167962e-01
      -3.09972435e-01 4.10020322e-01 1.91091493e-01 9.08584714e-01
      1.12211801e-01 3.85965347e-01 4.19736147e-01 6.62259936e-01
      8.81044149e-01 6.50480390e-02 -1.62579075e-01 9.63414431e-01
      2.77088135e-01 -4.99697477e-01 6.62489772e-01 9.57161129e-01
      -8.09845150e-01 -8.77494216e-01 1.23614199e-01 4.57406759e-01
      -1.27102053e+00 -7.56405532e-01 -3.11723441e-01 2.65890568e-01
      -1.62219536e+00 -1.92633957e-01 -7.50961781e-01 -5.16064227e-01
      3.95437777e-01 7.94701993e-01 5.79111204e-02 5.56928933e-01
      7.34357059e-01 7.74657667e-01 3.60383898e-01 6.24479175e-01
      6.62601829e-01 1.67555809e-01 -2.51046985e-01 -5.62723160e-01
      5.55924177e-01 -1.16114743e-01 -4.94405746e-01 -2.93103814e-01
      -9.71517503e-01 -1.34200406e+00 -3.04838240e-01 4.50097859e-01
      -9.94521141e-01 -9.08797503e-01 3.16590339e-01 7.38184452e-02
      -5.18247783e-01 -2.43518323e-01 -3.62539649e-01 -4.39173520e-01
      -3.39998871e-01 -4.17124748e-01 1.18586257e-01 -3.23139608e-01
      2.67993975e+00 2.60102797e+00 -5.11042893e-01 -7.18146190e-02
      1.09866345e+00 1.09431183e+00 -4.42227393e-01 3.36822510e-01
      -3.97294641e-01 -8.90480578e-01 -6.13647521e-01 -2.24172622e-01
      1.84117451e-01 -3.33209932e-01 -6.61109746e-01 2.32534558e-02
      1.12380409e+00 1.58154266e-03 -1.42753407e-01 -3.35265473e-02
      -8.71622860e-01 -4.40256625e-01 -3.77190799e-01 9.92373824e-01
      -8.87242079e-01 4.73130018e-01 -1.69061744e+00 -8.59912634e-01
      -1.05047500e+00 -2.07209826e-01 -1.23661256e+00 -3.58427018e-01
      -1.19808698e+00 -1.14275014e+00 -1.22329259e+00 -8.88718605e-01
      -1.29336429e+00 -2.46137738e+00 -5.68622410e-01 -1.66776448e-01
      5.81180036e-01 -3.39738399e-01 7.47227848e-01 -5.61173260e-02
      1.25611520e+00 1.47526503e-01 1.03575432e+00 9.52585518e-01
      -1.45967662e+00 -6.36194870e-02 -9.95412946e-01 -7.23232925e-01
      -2.58895904e-01 -4.42325950e-01 -1.37918627e+00 -1.40878618e+00
      -1.25807345e+00 -5.59081256e-01 -1.54083669e+00 -2.93440044e-01
      -7.96131074e-01 -3.81662011e-01 -1.26874220e+00 -5.99010289e-02
      3.94493222e-01 -6.28225029e-01 4.50524658e-01 -9.16276053e-02
      -1.39311686e-01 -1.30361533e+00 -1.96406066e-01 -3.90313864e-01
      -3.58983457e-01 -9.52092230e-01 -5.40292263e-01 6.93429708e-01
      1.77488446e-01 -2.69845635e-01 1.86911702e+00 -6.18460596e-01
      -7.93427050e-01 1.78764477e-01 -1.39004838e+00 -3.97413105e-01</_>
    <_>
      3.11677456e-01 1.08871520e+00 1.71375835e+00 1.84390414e+00
      -7.95409739e-01 1.08602190e+00 9.35077727e-01 1.61457562e+00
      -3.38348031e-01 8.23872328e-01 4.24677461e-01 1.38471115e+00
      3.73737961e-01 2.42651916e+00 1.24715877e+00 1.07093036e+00
      1.55247569e-01 2.55121619e-01 6.89376414e-01 4.27518100e-01
      -6.40253186e-01 -1.20172513e+00 -6.17798865e-01 -6.36749327e-01
      4.33986485e-01 -8.13693285e-01 -9.35269475e-01 -9.05812562e-01
      -1.14080155e+00 1.37903556e-01 -5.25945067e-01 7.60616541e-01
      -1.45449817e-01 -2.40029126e-01 -4.91343915e-01 1.90295011e-01
      6.68117344e-01 1.00142109e+00 6.53703511e-01 3.08207870e-01
      1.89823723e+00 1.09240723e+00 2.08086252e+00 7.33866394e-01
      1.31601870e+00 -3.66067849e-02 9.24792364e-02 -3.74731153e-01
      1.01194694e-03 3.29949826e-01 1.24413025e+00 -1.56564370e-01
      1.01224244e+00 1.11423755e+00 2.29576135e+00 4.18002270e-02
      -1.20566177e+00 -6.18488491e-01 -1.35249472e+00 -1.38561749e+00
      -4.20261621e-01 -8.02209179e-05 -6.50475979e-01 -5.15283883e-01
      2.81924725e-01 -6.99581921e-01 -2.03691378e-01 -1.12731063e+00
      -2.33103082e-01 -1.35307205e+00 -1.47372222e+00 -1.37474310e+00
      1.21742749e+00 -8.26424360e-01 -8.57585296e-02 -3.08645159e-01
      5.49384356e-01 -3.94010782e-01 8.09621572e-01 3.82865220e-03
      2.60078907e-01 -7.11702764e-01 1.35505736e+00 -1.34353107e-02
      1.68961853e-01 -5.46291888e-01 -4.62818146e-01 -1.29686165e+00
      -6.40548825e-01 -1.41842377e+00 -4.53251243e-01 -1.08201277e+00
      2.70062596e-01 -4.05611545e-01 -1.58569908e+00 -9.69760656e-01
      1.50875711e+00 -4.55381900e-01 -1.55117357e+00 -7.67493010e-01
      1.24385297e+00 -1.54310882e+00 1.28503218e-01 -6.59446716e-01
      -1.86993623e+00 -1.93236756e+00 -1.48901105e+00 -1.03456783e+00
      7.29869187e-01 8.58169943e-02 -7.25905836e-01 -2.21535444e-01
      1.74054766e+00 6.16136432e-01 2.14460754e+00 -1.15694404e-01
      -1.05490088e-01 -1.10096681e+00 -2.54608132e-02 -4.29902434e-01
      1.16495526e+00 -1.09920871e+00 -5.87014318e-01 -1.40428543e+00
      5.16168296e-01 -3.47324237e-02 2.47389987e-01 -1.07427752e+00
      -3.72344732e-01 1.19113222e-01 -3.43005329e-01 4.29517448e-01
      3.57667625e-01 -5.86547792e-01 -1.24405968e+00 -7.16293991e-01
      -9.94521141e-01 -9.08797503e-01 -9.69526172e-01 -9.59133565e-01
      3.43980305e-02 -3.42329681e-01 -6.33533299e-02 -2.60821819e-01
      -3.33732396e-01 -9.23158586e-01 -1.05614424e+00 -1.18501298e-01
      4.05697554e-01 4.95877564e-01 -3.42302352e-01 8.51742864e-01
      7.69316852e-01 -1.63653925e-01 2.28395486e+00 1.65422654e+00
      -4.65006083e-01 -7.16181457e-01 1.48085997e-01 6.39134109e-01
      -1.01871502e+00 2.79309005e-02 4.98448819e-01 3.45225692e-01
      -3.25944513e-01 -2.11345196e-01 2.85233831e+00 8.03221166e-01
      -1.37848794e-01 1.51526675e-01 -1.09172440e+00 3.51562977e-01
      -1.21431613e+00 -1.29504248e-01 -1.64044368e+00 1.21367626e-01
      -8.25137556e-01 -5.53784966e-01 -1.88854620e-01 9.35505211e-01
      -4.02250558e-01 -3.10943276e-03 -9.07011807e-01 -5.48318066e-02
      -4.49837931e-02 3.04810584e-01 5.19012570e-01 1.36321330e+00
      8.59439731e-01 1.20420778e+00 1.70893168e+00 2.14059949e+00
      -8.84303927e-01 -9.79813457e-01 9.15868700e-01 -9.52329338e-01
      -7.33941257e-01 -2.46618092e-01 -8.35140467e-01 1.72037110e-01
      -1.44394779e+00 -2.61292279e-01 6.76570609e-02 1.36557317e+00
      -1.19898558e+00 -9.66240019e-02 -8.19449365e-01 -3.01576201e-02
      -2.58565992e-01 1.53678238e+00 2.29092984e-05 6.84544146e-01
      2.72988975e-01 1.25679183e+00 1.76227295e+00 1.61697030e+00
      -6.88944578e-01 6.63350463e-01 2.90509671e-01 -6.39173448e-01
      8.45206857e-01 -3.64681989e-01 -4.36732292e-01 -3.22982907e-01
      -5.32493591e-01 -1.97672307e-01 -4.78093952e-01 -3.81775647e-02
      6.79635853e-02 -2.06809133e-01 9.97243285e-01 9.05243233e-02</_>
    <_>
      1.26745141e+00 3.68578106e-01 -6.78935826e-01 1.17686942e-01
      4.96176213e-01 8.13644767e-01 -4.53063607e-01 2.92287767e-01
      -9.50747073e-01 5.13273597e-01 -1.47404706e+00 1.06672847e+00
      -6.36067390e-01 -6.56946361e-01 -1.33932972e+00 -9.31470335e-01
      -6.14891648e-02 -8.57781947e-01 -8.72708142e-01 -2.53827989e-01
      -6.52280986e-01 -6.23044670e-02 -6.72314346e-01 3.97510640e-02
